-2.501209911259363872e-03,5.908864811009661294e-02,-2.191071403684077129e-02,-9.593407581005922169e-03,-3.381928395099533663e-02,-3.833859074053108662e-02,4.412036731511633642e-02,5.892498713302239677e-03,-1.436419239879443976e-02,-2.275522297919433182e-02,-3.738512701400095034e-02,-3.323530761393238275e-03,-6.118236006258257614e-02,2.430020600182041662e-02,5.566189288217173597e-02,5.847368834018305123e-02,-3.351668785624857538e-02,3.744483471338091313e-02,1.193654743564637882e-02,-6.173597388151022547e-02,4.035215171718407184e-02,-4.633743629123376895e-02,6.231331805256069833e-03,-4.429690934801056718e-02,4.494363874945057208e-02,1.062931962509656297e-02,5.090636447494909650e-02,5.805452846515122417e-02,2.643051682395404500e-03,-2.859744094756804661e-02,5.546984238453419452e-02,1.801610817412050564e-02,-4.494949457124325365e-02,4.779742886779256988e-02,2.734766833822059595e-03,-9.694089314189895806e-03,-1.232497027687815133e-01,-1.858939799982226859e-01,-8.642551865214617712e-02,3.861600432417728462e-02,-2.605964775718360577e-02,5.364930225018331444e-02,-5.782918616732642819e-02,1.744448751745630161e-02,-2.135722927583454112e-03,-4.599067645093067591e-03,-2.410527192235074889e-02,3.583553287644741098e-02,8.090054171595910393e-03,-2.017140390291431717e-03,-4.837045050108696592e-02,-1.091695190150855643e-02,1.220429192060524387e-02,2.180683986335411190e-02,1.461484018761857046e-02,-2.195403373509155487e-02,4.542642353581707176e-02,-2.849271160033362005e-02,5.731058397979075375e-02,2.534333722910190462e-02,6.797181170766254665e-03,3.573578969744133083e-02,-5.527623917892258987e-02,-4.865248846307992231e-02,-6.219401015289866691e-02,-8.528573567549588286e-02,-1.485768514058031786e-01,6.403344411456299290e-02,2.343773908017744018e-02,-1.288801061617293915e-02,5.358357681785607535e-02,-9.911611190204219768e-02,-4.397915753029800479e-02,-1.271727281159066303e-01,-1.827747565066479840e-01,-5.681004138807607684e-02,-3.521753230166763116e-03,-1.558896563046951317e-02,5.545889486734943002e-02,5.644180103209944094e-02,6.079609968846926699e-02,-3.444435288726265670e-02,-2.883241551204170777e-02,3.018664255644721434e-02,5.494066799578300325e-02,-2.881898740626676059e-02,-5.803680210921711297e-02,3.784420750765526281e-02,-6.254217229162246927e-02,4.630252631328078856e-03,7.943457825641260517e-02,1.656884952172667930e-02,3.446891788906582543e-01,7.673440475289053375e-02,-2.288268148465903151e-01,1.964597159528532755e-01,3.649403434321342177e-01,-1.002194273955517474e-02,-2.517544118681314114e-01,-6.038786502072138185e-02,6.241393061299829736e-02,-4.216778566613114260e-02,-2.009776630519507362e-02,9.860487581306741356e-02,1.905471306381771035e-01,-2.451689930083024438e-02,-5.577161146627879207e-02,-2.048319218461497337e-02,1.323742383352250439e-02,3.093731241687838057e-02,-4.566481663764529464e-02,-6.185009540647345982e-02,4.833379083300528428e-02,-1.868110242374992902e-02,-6.173623383628912970e-02,1.005287324778829094e-01,2.237786658527123884e-01,-1.194976135613980833e-01,-2.318620818504214115e-02,7.322280849207983555e-02,-3.430672528564869261e-01,2.170548319086591793e-01,2.105473907150414922e-02,-2.293692558876788412e-01,-3.619595696548341679e-02,2.882679343816158535e-01,-4.356071409153254859e-01,-6.142736448754661238e-02,-4.178463735805992146e-02,-2.141795762896155780e-02,-1.961797870487573189e-02,1.124928952384573848e-02,-4.919325068350693941e-02,-4.986999355243207921e-01,3.162343029318395726e-01,-8.436277039822817625e-02,-1.351867566024020639e-01,4.590741277655055463e-01,2.234505653999581051e-02,5.960559920451227039e-02,5.127488072327497648e-03,5.689084666785224759e-02,-8.090606886281287435e-02,7.337010550848444002e-02,-6.437859616046263944e-02,3.119659154895258399e-02,1.795636907060184084e-01,1.532152086282618508e-01,-2.434151119820444353e-01,-4.461572259196138618e-02,1.178746704112338811e-01,-3.725347827858488947e-01,-4.161549941654851814e-02,-1.777092428511345967e-01,-5.722930744311457985e-02,2.276646111265935579e-01,-3.130874640316522739e-01,-4.373803108841167742e-02,2.112943259350289968e-02,-3.345437817142027370e-01,-2.334241634663347109e-01,2.149084485423087831e-01,-1.257056797905181933e-01,5.088559596081289674e-03,1.491711039862380350e-01,-5.295592656565246276e-02,-1.165597012484244216e-01,4.528895983176061540e-02,-4.374287716507088697e-02,5.333944943289866542e-02,-1.097643303727577763e-01,-3.092799201213050631e-01,-1.297998430333338060e-01,-1.104954948093258144e-01,1.314083258958103906e-01,-1.252145637910456466e-01,1.760484721794257634e-01,1.237243484546540588e-02,-2.884753671051421553e-01,2.210328601224621492e-01,1.316658263749347357e-01,-1.266416009605142168e-01,-1.830413618871696568e-01,-5.247998358457550694e-02,-1.864535675835264639e-01,-9.048108882139596632e-02,4.389211146581600831e-02,-1.573371802594475122e-01,1.201171604728605707e-01,-3.268637550588562313e-01,9.130419140761129870e-02,3.221654148143549695e-02,3.655841962084270536e-02,1.537977052895192487e-01,-1.709738647605881512e-01,-2.067994408575902360e-02,-6.399787775283646840e-03,5.686985822197957591e-02,1.863791783343910213e-01,-4.026410416055486996e-01,2.683989333306617264e-01,4.397089051859109921e-02,1.956015309950976944e-01,-3.367797505964829213e-02,-7.016555413012433295e-02,6.940086934728035249e-03,7.006752296541975122e-02,-6.318307737715689321e-02,1.514361035069509698e-01,1.414389583912869786e-01,1.788948738678835526e-01,-1.687236757314768132e-02,-2.016265316298326005e-01,-1.318750639729849017e-01,-2.806719849134392542e-01,-9.041629507966683632e-02,-7.412724993582001098e-02,-2.110262174326140716e-01,-2.300628148163115158e-02,-1.684063706086019740e-01,-6.834692801689422163e-03,-1.128320373743050692e-01,4.766729147127220234e-02,5.019374982660921442e-02,-5.047303135882134917e-02,-1.084947510180519076e-01,4.826839617278663175e-01,-4.852526963967835338e-01,2.694689564113824168e-02,-6.634612747715538938e-02,2.933111844815046720e-01,-2.642277314585610160e-02,-7.240575265682379358e-02,-2.394708972558130464e-02,2.343086644307313185e-02,9.100899607688137105e-02,2.934464428985838480e-01,2.761068434625889023e-01,1.930586402956143699e-01,1.105686383229018965e-01,8.199661951291147000e-02,-5.127092241623389807e-02,-3.595458123903273046e-02,-7.492822808963568726e-02,-1.989067196661555015e-01,-4.153785701839005085e-02,-1.156360280158789527e-01,1.137421853964700955e-02,5.234600910466594148e-02,-2.913374537488336302e-01,3.762796275141719882e-01,8.009194575319438653e-03,-3.658497179501279950e-02,-3.240586506732955757e-02,4.884350896026060651e-01,2.235009397344581705e-01,1.177417266503509446e-01,-1.773891979133402491e-02,-1.174191927027674887e-01,-6.113103581170502981e-02,4.835168911449023305e-02,-1.700841545525435053e-02,2.178426622439976271e-02,3.533684739418451182e-01,1.654223179416514089e-01,4.470141084201608717e-01,3.038197463890346395e-01,1.497459947609993680e-01,9.053600928585021912e-02,1.092503384144166423e-01,-2.238131139181674945e-01,7.477934623443611983e-02,1.080748302381988740e-01,-8.289737807849428819e-02,1.100903384474904712e-01,-1.587584043809983081e-01,-2.783683202947592195e-01,4.473798750305054139e-01,-4.273484412667476889e-02,4.901489521687748402e-02,1.447299810730168917e-02,-1.745459376487577263e-01,1.033384692479815820e-01,-2.194121441120562011e-01,2.394108143049424320e-01,3.233358459118615413e-02,-1.053167244373849482e-01,-4.467540701836640593e-02,-1.403390719044061985e-01,-1.143781889883902364e-01,7.090977272811722909e-02,9.310869528077926616e-02,2.327513636592619395e-01,1.619166157543006634e-01,5.397845316600510812e-02,-4.308771207063476910e-02,-1.347277711648914023e-01,-3.585932778398728121e-02,-6.359017064635813423e-04,1.873916552250753653e-01,1.602058612181025410e-01,7.965876129042734344e-02,-5.184901933469811958e-02,2.445546092656355197e-01,1.320460341676800431e-01,-2.814342152139502895e-01,3.563485460738151089e-01,2.963507756234032980e-02,-4.486084396664508089e-02,1.167467136435256375e-01,-9.372733780124750669e-02,2.688764415628053239e-01,-5.305414567318048752e-02,1.532970735367318593e-01,-8.337045425275757538e-02,-2.636293969553343830e-01,-1.106736887442172634e-01,-1.774874045438204484e-01,-1.010262469688445047e-01,-8.487607275728259459e-02,-1.307916791675609591e-01,5.315064361061826170e-02,6.531934967545142967e-02,-1.758969842112711179e-01,-1.859259793372717573e-01,-1.254148601345259073e-01,3.851014514888224938e-02,1.963843079995054586e-01,1.398104025361010527e-01,9.442301110375745168e-03,2.374989757611900287e-01,5.827375729749437877e-02,9.175879790675679770e-02,8.819803356925857984e-02,1.947908788347383624e-01,7.091831781833704551e-02,3.705066418241861198e-02,1.771030893570170461e-02,1.869080502387869547e-01,-3.714779847773990729e-01,9.778701832890300538e-02,1.788068052750374157e-02,1.454144716238454406e-02,-7.050096617010874478e-02,6.787894634456642651e-02,-1.527142249499323090e-01,-1.816498816506004477e-01,-3.737912037056623782e-01,1.511903044002674973e-02,-1.839783874549242582e-01,-4.315968231208203165e-02,-1.209783140163626508e-01,-2.120739866762560433e-01,-1.117910476352541316e-01,-1.238487940382146935e-01,2.246200341007689033e-02,5.483762798893497548e-02,-7.830582728543772353e-02,1.786344509681743464e-02,6.222890432805642386e-02,9.860154140687502067e-02,1.816733327351695571e-01,3.837487080657470129e-01,-1.354206253284234163e-01,-6.185372091407011219e-02,-8.377401163553395425e-02,-7.538521038308605704e-02,-2.493902862849811108e-01,-1.314480581313132168e-01,-3.991827094046209584e-02,3.843522275928831083e-02,-2.009777253534510144e-02,7.282824763819971403e-02,-1.177605989103291811e-01,-2.523076577436539347e-01,-2.759827222440209282e-01,-2.829825292301086370e-01,1.395580952780770337e-02,-6.880855577907037113e-02,-1.035248419614548249e-01,-2.148923609316860661e-02,2.141414063160833048e-01,3.283143058915449219e-01,-1.219458154318747573e-01,-7.911584894046228000e-02,-1.781626795490357240e-01,-1.149806090569338857e-01,5.487519699141014257e-02,1.372973996344523107e-01,3.972693188324481761e-02,2.463794020947367158e-01,-5.472730799095762988e-01,2.457702739762632899e-02,6.013047825729111312e-02,2.523790712922802659e-01,-1.881225223152798234e-02,4.900749481864483809e-02,-2.873924525116875253e-03,1.318140103889229031e-01,-5.872627396201811345e-02,1.065966358625600185e-01,-9.525596899859356537e-02,-1.739832363196759379e-01,-8.960128366334473016e-02,2.807555848344636118e-01,2.743422743665158148e-01,2.297287098923568582e-01,7.578776659291366902e-02,2.079693719061216362e-01,1.716678352078593317e-01,1.346919897909088504e-01,3.042409838012796394e-02,4.409614100749293525e-03,-3.331695917406128360e-01,6.283756579497971895e-02,-8.800986106557481814e-02,1.386568514138860064e-01,-3.683950416270505984e-02,3.363313977522736087e-02,-6.539480943927797330e-02,-2.105049143357464597e-02,1.165144376453958602e-01,-2.712625576877717992e-01,-1.979908414124151861e-01,-2.158456726463454656e-01,-8.791656071892893498e-02,1.115850126622506960e-01,1.262565451485513912e-01,-1.003752760873719008e-01,6.039644638489368410e-03,-3.287794929437681257e-01,6.998560327967191796e-02,2.493391526222205890e-01,2.309162635276799935e-01,8.466339537755673827e-02,-4.668072813906627705e-02,-1.246925314919404421e-01,1.256192679606041585e-01,-5.520262486665828555e-02,1.217916160137667708e-01,-2.419335200212558434e-01,-6.246910541883075874e-02,8.961139333901498374e-03,1.960918215181252089e-01,2.884383562111341170e-01,1.526409228919911876e-01,2.386667707299713337e-01,-1.772149801634513855e-01,-3.366300523849057036e-02,-7.351754908286253776e-02,-2.098630651304889128e-01,8.787603843882348109e-02,-7.056521041681830531e-02,1.139533870340743160e-01,1.037416772470039633e-01,3.107609737102558223e-02,-3.985884125421966517e-02,-2.911280077284083001e-01,-2.465446252541336758e-01,5.818495950548824985e-02,6.976865881724077234e-02,1.172280115885067781e-01,-7.448939601328895266e-02,-2.845095335319896002e-01,-3.592177803981409095e-02,1.219680430916746453e-02,-1.037534525141956682e-01,-5.902001147092737765e-02,1.388345307858640243e-01,-1.780848468899257353e-01,1.165382552525295046e-01,1.141779778644384929e-01,1.810663801490432212e-01,9.652180185928713185e-02,-5.662062442291318498e-02,4.458490043393797952e-02,-3.637130656665374384e-02,-5.666388580297794519e-02,4.682514602365586004e-02,-3.135356393395901664e-01,-1.582939413098991555e-01,-1.044187553212268388e-01,-1.198632272181413549e-01,8.047884187454885929e-02,-6.901331393253515301e-02,-1.308878577995696568e-01,-1.952558790098052055e-01,-5.783001502172074176e-02,7.735533325549862407e-03,7.587128817804977832e-02,-1.232201016851592751e-01,-1.184702452329296218e-01,-2.514312596428426305e-01,-1.001594735619876636e-01,-3.346920649160773503e-02,3.923047694171118843e-02,-2.889803553129993152e-01,1.275612832477049652e-01,1.021438419518092416e-01,-5.774825140036649734e-02,1.152620517474031575e-01,7.203947275611884138e-02,2.744687464738821969e-01,-3.428332039280508614e-03,-5.681191218486603134e-02,9.805419020449231138e-02,-6.585490602877976107e-02,-1.267762185480740544e-01,2.946232331471212041e-03,-4.083402697350991054e-03,8.909115509939374150e-03,-2.363510478266265397e-02,3.080302474280206121e-02,-1.649558468287672663e-01,-9.992490781615268047e-02,-2.260407072523975408e-02,-1.195675923754911107e-01,-7.373673245059260070e-03,-1.517122823495526719e-02,-1.008893253818078373e-01,-1.627203667169879742e-01,8.824895137975044546e-02,-8.393583345540629737e-02,-8.032198419788125210e-02,-4.876284099145116596e-02,-6.849188144398934974e-02,-4.584450282555323913e-02,2.026116950252914231e-02,8.577937229380687423e-02,-1.476425551999892560e-01,-9.162392377211737993e-02,-7.319114259314171700e-02,5.524489923902328042e-02,2.850562110837268764e-02,8.203205770370086691e-02,-1.104529057381362228e-01,3.105579235915279304e-02,-1.673595599860415450e-02,2.586133926359747703e-01,1.089994347126652940e-01,-4.033467200346615295e-02,-8.159673341932689727e-02,8.158327882812928256e-02,-1.741325020038747562e-01,4.226869321418338932e-02,-1.783740309220133158e-01,5.583157893261161964e-02,9.006322004062178310e-02,1.682329669235010650e-01,1.334111085013378328e-01,8.987616627086897347e-02,2.623295172571388917e-02,4.830685285311313998e-02,-7.870135403548571273e-02,1.484212530932266239e-01,-2.042973719271010125e-01,7.063222977494786059e-02,8.751110561699793067e-02,9.575152523241306501e-02,2.409067965510654497e-01,-5.385357010585893611e-03,3.693907596665261389e-02,2.034355355827218992e-01,-1.288233446199257004e-01,-5.831318152019360906e-02,-6.575194447419535800e-03,1.669240566030938400e-01,2.224960622489221759e-02,1.785263789294406767e-01,5.805428409604837525e-02,-1.350602207472701155e-01,1.033458055170314860e-01,7.631649655081104711e-02,1.212411823443784314e-01,-4.337520497440076200e-03,2.359775926950547983e-02,5.987733863718930349e-02,7.910648624322279276e-02,2.796576200243500523e-02,3.599754736388656451e-02,-1.404225595838692608e-01,8.956482315968836150e-02,-2.258197641792261956e-01,2.934218962470844794e-01,-1.733801038378527115e-01,6.765646456642106232e-02,2.788591925701185137e-02,2.753667697157102801e-02,4.925826214624842020e-02,-1.416071593714562232e-02,-1.006175042876866071e-01,-8.408148829214617814e-02,7.214827780958285586e-02,8.684248150475410225e-03,1.604305479916501576e-01,1.571515190422439201e-01,9.091556139443451867e-02,-5.625823894480203730e-02,2.781354300871619403e-02,-4.504473551069679282e-02,1.232126114777328946e-01,-1.459089553007808793e-01,1.298055136853462910e-01,2.203149532510069175e-01,4.502470503256620141e-03,-9.184705765460610127e-02,3.646089831124326164e-01,-2.197330087535650511e-01,-1.573763008201290725e-01,-1.243383606179734174e-01,-6.960556862001418717e-03,1.962262466314811382e-01,-2.728447258915673301e-01,8.474975623369307431e-02,-2.944995806970060470e-01,-6.194186510531785733e-02,3.443343009056749893e-03,-2.770696100361989822e-02,-2.288139817947065779e-01,-4.424977658466007491e-02,6.593605861908899413e-02,2.670533177757707377e-01,1.497370095082884989e-01,9.870968408103228398e-02,-5.887563688378066179e-02,3.129516227804058498e-02,-1.118124952005811468e-01,4.327374505787426329e-02,1.227570525301859700e-01,5.917562952545815658e-02,7.851151184160283514e-02,-3.729947653800838592e-01,8.421002248990154537e-02,4.696606390547725107e-03,-3.165064064948936440e-01,1.630837683706463648e-01,-3.984256165219292323e-02,6.007516448018184602e-02,-8.202289056073622242e-02,5.143553112313203196e-02,-1.067698927518299229e-01,-5.024330972810841373e-02,-1.662140148787703553e-01,6.135720216989707515e-02,2.409620574490440453e-02,3.148541983136472766e-03,-1.453801270051449379e-01,9.375475791490835153e-02,-3.545610419871575991e-01,1.014741149225199673e-01,-5.161336418292973571e-02,1.378921544800965349e-01,-1.910775926529464097e-01,1.459321587638286455e-01,-1.805084639400367508e-01,1.267396676049590415e-02,1.707299608674736902e-01,-3.435565246023526420e-01,3.637840634358352476e-01,-8.346792427695908650e-03,-3.121049095993176370e-01,1.221691397605036700e-01,-2.289499334111045337e-01,-1.411925513784399455e-01,-5.486173836803377724e-02,-1.878437600925776663e-01,-3.307545191454012989e-02,-1.651947495879482197e-01,1.186641692322059211e-01,2.622073112541880024e-01,4.043149247744258490e-03,-4.141418280707739180e-02,3.052394185896505768e-02,2.538119629387976944e-02,-3.221776703520651264e-02,3.430504276283818238e-02,-1.939207099626795161e-01,-1.647488729758310178e-01,-2.228345694318952658e-02,-2.334895239229987582e-02,1.698711516947821187e-01,-5.124012167029725617e-01,3.134479700578807759e-01,-1.231846082722657665e-01,6.712787627854968631e-02,-3.864297547340195815e-01,5.706388141859771584e-02,1.688393983409368360e-01,-2.216028080919099363e-01,2.097595485017624342e-02,-6.701041636346480312e-02,1.865113097807252762e-01,-2.010526079636971719e-01,4.232125355181055350e-03,1.387439514063547596e-01,-2.622807253058814445e-02,1.016463928607851258e-01,2.580147651730590672e-02,5.462384757658115403e-02,2.272427883408906918e-02,-4.962447361779233346e-03,2.138335575937046207e-03,3.202249793774799430e-02,-5.851271743993811253e-02,-3.632844039967689925e-02,2.213339225506260055e-01,-5.696816459010033140e-02,-4.418132685625007494e-01,-4.413304853633824298e-01,1.202776334238672140e-01,-2.260681294088778825e-01,-1.641729812465482496e-02,1.326473027542375283e-01,-1.246359960127928490e-01,-4.925836024278541780e-02,4.464756987186992154e-02,-7.878717559491220379e-02,-6.924402785043595743e-02,-2.345602006715818977e-02,-4.447932212144653508e-02,8.164983614823793229e-03,1.070094127609629575e-01,-1.816401812613205324e-01,-1.173884435970098672e-01,2.724977954423528012e-02,3.479758636436484226e-02,4.232363192520308820e-02,-4.387069958188576091e-02,5.889963638412471642e-02,2.564138213621623003e-02,-3.763529318294565884e-02,-1.362558135750410737e-02,8.062510154978765053e-02,2.043496033117332966e-01,-4.616102059043294265e-02,-1.722931852302763966e-01,1.127245458379662058e-01,-5.039853186304824040e-02,-5.330623529091464696e-02,2.777508246480372422e-01,8.994010461696959335e-02,7.430512510242909263e-02,2.006636428431397834e-01,3.047679459660007084e-01,1.887994436931848263e-01,1.267353303819440669e-01,-4.585349115366033762e-02,-1.366593573791002325e-01,-4.067037789299184775e-02,-5.818260219713884684e-03,1.598663580652193855e-02,-3.453638541881891288e-02,1.012549564861286305e-02,2.508975694012933327e-02,4.054624009959824360e-03,1.356152780227467408e-02,3.882654295385833121e-03,2.088831454461025777e-02,9.816096619832619108e-03,-1.579324744019308668e-02,4.612120375741404071e-02,1.241425603146955464e-02,5.598121465289154081e-02,1.143138963151684590e-02,-4.255666805481518600e-02,1.423315728879428477e-01,3.401010373267455700e-01,-2.019500308189839388e-02,2.655956575927636426e-02,-5.097340654563355111e-02,-4.066012701353644010e-02,3.337131287756149589e-02,8.884907446311941792e-02,7.637624081503774365e-02,-5.159567719704245825e-02,-5.145870457132922099e-02,3.111427958915501807e-02,-2.496655881627293100e-02,1.152476201715547238e-02,-5.027549253739320434e-02,3.564199663436020543e-02,5.644628949744231322e-02,-3.901745058711775238e-02,-3.029695249940497770e-03
-1.080999828184645017e-03,-5.667300755115999011e-02,1.758143441798418888e-02,3.827540913911473691e-02,-5.277173176635061025e-02,-4.957330765365181025e-02,2.977238267467422622e-02,-2.586340505766012571e-02,3.201614767318875648e-02,9.875547659964048833e-03,1.141168565023024245e-02,-4.726364358760418855e-02,-2.500541821619725602e-02,-4.044237407761915731e-02,7.931465114959727891e-03,2.588653015423886955e-02,-2.018323685038683757e-02,4.489305727566305498e-02,5.708206913950585742e-02,-1.043960339725696213e-02,-1.877916743842986125e-02,4.500991895443948870e-02,5.291530721930794851e-02,5.385265089916582010e-02,3.703681838071885141e-02,-4.659843855081347019e-02,-2.033342778158894054e-02,1.503140476768659306e-03,-3.644335902079250816e-02,-4.184080158275532701e-02,1.607137773098105821e-02,-1.013079397680240190e-02,-6.096910448475899996e-02,5.470065100758816218e-02,-4.089742158915832260e-03,1.232264554451014543e-02,-2.272598091250002672e-02,-4.769448308423290817e-02,-4.950430983490102660e-02,-1.938545628989897778e-03,-5.639092099919616741e-02,-2.665241565651413000e-02,2.209977804783311989e-02,-2.492090555110147709e-03,4.964485186979940984e-02,-2.261833865204102012e-02,5.840127204823355317e-02,-2.057389173288189099e-02,3.628902015447121182e-02,-1.154771469956134694e-02,3.708810917095427956e-02,2.607738038155892751e-02,3.844746523650938858e-02,-4.041966346034797652e-02,-3.297019303085203801e-02,8.518301520967427876e-04,-1.929765028941989036e-02,1.482654275831606777e-02,-1.533792638351625520e-02,5.592423965143237391e-02,-2.702428206296105667e-02,-5.252255994985150639e-02,5.818100042557360768e-02,3.699038576020875768e-02,-4.496293861766707117e-02,1.959617743649664373e-02,3.581398771393216884e-02,9.218428076398690191e-04,-2.037081812286648669e-02,-1.260643477975073819e-05,5.074874957293156602e-02,4.409607816509856365e-02,-1.418009434079330403e-02,-2.734225693535398405e-02,1.939608179317483388e-02,5.476060449923913359e-02,-3.969891879206220719e-02,4.924021053412398069e-02,3.010097651151946024e-02,-5.633502192646153151e-02,-5.126213421733014086e-04,-4.470747195271576602e-02,4.586568260801635738e-02,-5.897471273881849108e-02,-4.323441388987893375e-02,-2.401247080086224561e-02,-5.360592861469343912e-02,-3.911933617875291980e-03,1.107441964141031923e-02,3.421118064469436202e-03,-3.269270933785654865e-02,-2.223505355084321247e-02,-2.365879245873847569e-02,4.242220892129246884e-03,-2.278181508620854417e-02,6.189260212655286336e-02,-9.581028214475059354e-03,-5.804328178876419497e-02,3.198249168553284755e-02,-3.556784254363817149e-02,5.097570751629554656e-03,1.565874478196382967e-03,4.588897873085109880e-02,8.743427805933016300e-03,-2.279064302534336561e-02,-1.144217127711521544e-02,-5.592747335800257041e-02,-4.171676046514020270e-02,1.095244545385752090e-02,2.015450328898061444e-02,3.806153848847260851e-02,-2.931660453077437889e-02,-2.527252991058851622e-02,-2.679586949128971718e-02,-4.313516388558275710e-02,1.906791543353350896e-02,1.870252191538089928e-02,1.767773866648203809e-02,5.541111174259253508e-02,2.101437593153809499e-02,-4.553671250773594359e-02,1.971079641019740300e-02,3.740694126814996662e-02,4.097669183268942694e-02,-3.517397421760387610e-02,-4.420587258499217992e-02,-4.102329746007106828e-03,2.357644393071604491e-02,2.004035779878844334e-02,-3.684538203798862210e-02,-5.486852429273118836e-02,4.202686491680996533e-02,1.730850140933089601e-02,1.340014904739488151e-02,4.244550838111528501e-02,1.700508608163909391e-02,1.634709238144543830e-02,-4.538645007619410837e-02,3.013633176308835870e-02,4.846713998025574399e-03,3.364590454145215126e-03,5.956984541736095456e-02,1.436756919907582544e-02,1.507869343771701953e-02,-3.649113374324569614e-02,2.411083352813464878e-02,1.315154676486673425e-02,-3.616441748049775001e-02,6.310784313567602277e-02,7.315826360459427857e-02,-3.805491229572991949e-03,8.897422293094382761e-02,3.669392809075926881e-02,2.281190555847684848e-02,8.416653876465277073e-02,3.339747367620921753e-02,-1.875946034209067040e-02,6.368690013832030428e-02,-1.456281180188849847e-02,-2.166551209189794894e-02,-5.301355134099578620e-02,-2.743304892258242172e-02,2.998117002719942817e-02,3.158872606426489649e-02,4.397855031440234264e-02,2.829607064370884620e-02,4.812669731858650740e-02,2.824737308949307885e-02,-8.805404644092816591e-03,1.472479646283309657e-02,-5.852608142900900257e-02,-5.501602643566014250e-02,-5.154834913717922656e-02,6.232196028241036856e-02,-4.466629594726520547e-02,5.473998761492070153e-02,6.273105248205775031e-02,1.027248407005596637e-01,6.017973844573753367e-02,4.441042896852703120e-02,7.373956012381402414e-03,6.186419407399058358e-03,1.910837405381111964e-02,2.595997787993595957e-02,5.699710922125698909e-02,-1.220465391366597988e-03,3.163776818817371633e-02,5.734036129696756801e-02,6.435663230553446967e-02,3.368486238130984078e-02,-2.855723388439792426e-02,-3.556691778653664482e-02,-4.056975351192075412e-03,-2.352745343300537834e-02,5.766852662011125175e-02,5.239463772154542322e-03,4.183650967508340673e-02,-6.016341813939220240e-02,3.649568964914883668e-02,-4.209800958519132469e-02,4.897825882709000433e-02,3.756627743912512724e-02,-3.091465902054359519e-02,4.550860407927843215e-02,8.935336670678623028e-02,6.020535029767967033e-02,5.092458861431189976e-02,1.372679633701180957e-01,7.496210525678032033e-02,1.752670706029118078e-02,3.245353545719392024e-02,1.824212930201129373e-02,5.706480519983065519e-02,1.038550229414253040e-01,7.294337489811428266e-02,7.792997674700447019e-02,9.129856821056279992e-02,5.770096651868066723e-02,3.667467598033039011e-02,-1.000335148262538514e-03,-2.349344647304222114e-02,-1.892207632588576230e-02,5.183690571451482487e-02,-4.028579288431443500e-02,-5.837753769111119623e-02,6.556058715879651590e-03,2.145367248171064015e-02,3.876449780097418474e-02,-1.000394421556910322e-02,1.791414013822383022e-02,-4.569661987787111690e-03,1.503349538627055289e-02,6.106724601589948870e-02,1.312295508930403642e-01,1.191864435431677222e-01,1.123044319800310109e-01,9.262660906283294582e-02,1.043798593457918589e-01,7.141383612607508924e-02,9.139606556371671076e-02,1.126707189730314224e-01,4.667286487274602963e-02,3.085972607147350819e-02,8.217743691877245349e-02,9.082886081093959063e-02,1.332632496211989988e-02,7.201230589998769416e-02,1.929309069833563470e-02,6.193044158951051953e-02,-5.387231327470629744e-03,2.287015412405552992e-02,-1.659339182743400573e-02,1.640957189851423997e-02,1.522021141030413874e-02,9.993075987177361258e-03,8.401741891474400273e-03,6.588969770717777175e-02,7.128668168524655846e-02,6.614252805375285538e-02,1.672942814282490365e-01,9.362018054900116126e-02,1.084175389281303442e-01,1.329434482513090487e-01,1.652630644347248823e-01,1.125018171009830314e-01,1.016991191306000630e-01,1.184239080119178916e-01,6.918129772780710895e-02,1.121003547874838829e-01,5.386132615804627155e-02,3.277520543701691047e-02,4.986383569237590879e-02,1.386532444128258934e-01,1.328720671568005829e-01,1.385272102178035092e-01,7.169321708864541398e-02,7.220546186007864575e-02,1.133083012205605977e-02,3.145822710931590188e-02,1.124804521202789342e-03,-5.538537289350783932e-02,3.221077321594669873e-03,1.273011977654565051e-02,2.349670731485985209e-02,9.552234798488237755e-02,8.713646641455891073e-02,8.216381617649699820e-02,1.028596665459272780e-01,2.003066991742743497e-01,1.654365792703615112e-01,1.597419682409041142e-01,1.474713619822754507e-01,5.996466901937486799e-02,1.599989885852481086e-01,1.233520548519531634e-01,1.225433076201670468e-01,6.780368576582132545e-02,1.069859639547429686e-01,1.552613053230166296e-01,1.407418785068352829e-01,1.548899875665808168e-01,9.817347629402123355e-02,1.265041179952111627e-01,1.679538391437478129e-01,6.423190172666481956e-02,-1.856740273880002484e-02,1.712829175331019929e-02,4.297675025697465789e-03,-3.758857192336678699e-02,-3.239815753662195208e-02,2.542761962705843148e-02,-2.747905078781793381e-02,1.738059227558757039e-02,1.398952571578934156e-01,1.761447884669400110e-01,1.913505686608424350e-01,1.766684740596905501e-01,1.162642060542524031e-01,1.325035486523932493e-01,6.068923986730445641e-02,1.199854405157881332e-01,1.393106474734205624e-01,1.515245875577634072e-01,1.958937993352594387e-01,2.093001814848537145e-01,1.786353646594009970e-01,1.996815343590856717e-01,1.772819291911180428e-01,1.013279894330376130e-01,1.123709671980910180e-01,1.336991079310989317e-01,1.238776378914094589e-01,3.552624504880731726e-02,7.329846560574453107e-02,5.165383353300066760e-02,1.350379607470198091e-02,-4.567370751421564318e-02,-3.659324589126927707e-02,5.884222472108584234e-02,4.961493624019619464e-02,1.136058974139153438e-01,1.083581525490796976e-01,1.881163525880816811e-01,1.887308094426330130e-01,1.928280039747967967e-01,7.751148256127871061e-02,6.350813600232124712e-02,1.033759002765972240e-01,1.687061185894939974e-01,9.050844595335050258e-02,1.197162101065692291e-01,2.217507815456367104e-01,1.524494700555173166e-01,1.797162253611091498e-01,2.220296894321973635e-01,2.027392305299394182e-01,2.781290834838383019e-01,1.632315376099270354e-01,1.488334326834359067e-01,1.223786461140013437e-01,8.271423116702281142e-02,6.001329758739051140e-02,7.089391246367818256e-02,-4.348127393207851243e-02,-5.806914981910269585e-02,2.966680155966471000e-02,-4.427443998934265518e-02,-1.069857802468341876e-02,2.247007968013918847e-02,9.340644029761531464e-02,1.911343909509196637e-01,2.023151111986609407e-01,1.912374890027913332e-01,1.518530458827250795e-01,2.232333468492619932e-01,1.653500031598307274e-01,1.322181690192522907e-01,1.989794979512728434e-01,2.405972696530909172e-01,2.940210555924224756e-01,2.791043321452474912e-01,3.249796343551343836e-01,1.707315147292175761e-01,2.193799977699476267e-01,2.370607832088953704e-01,2.041604083791019597e-01,2.472055466985758898e-01,1.428156024153572068e-01,1.356086273638199280e-01,8.452338190573177590e-02,3.407347535911438297e-02,1.866569131463334877e-02,-3.316440785638580940e-02,3.800812750155588976e-02,-4.571551923812093576e-02,2.964036013855914087e-02,9.599937645664677333e-02,1.727934885564287038e-01,2.234940387811826523e-01,2.001553146652168824e-01,1.990554005330884280e-01,2.627182267374149616e-01,2.269603885516116304e-01,2.785643719289874198e-01,2.852331659540924824e-01,2.815287279152643429e-01,3.384156404370876059e-01,3.141603025425679929e-01,2.555741193509626363e-01,2.652894011566553911e-01,2.532160866183353343e-01,2.048544617931204737e-01,1.994654995351377857e-01,3.084096721170722089e-01,2.034456692678283662e-01,1.814822458677591566e-01,1.206492261866919796e-01,2.564324762283822293e-02,4.305247622185472828e-02,3.983919930302636837e-03,5.654611334268478534e-02,2.248073365796807166e-02,-4.214932040776842026e-02,7.401996931173716876e-02,1.350491390222299526e-01,1.208314379524196291e-01,2.735017697150892713e-01,2.968640460585045271e-01,2.604116808463808330e-01,2.701188311962835487e-01,2.608532761265907607e-01,3.104359765268326909e-01,2.474750147415234747e-01,3.067934204526988062e-01,1.950370537147947669e-01,2.747494797681394041e-01,1.911398073352085780e-01,2.323654345642122143e-01,1.485888224193455120e-01,1.771602683184797522e-01,2.140861271332958893e-01,2.551745149893473452e-01,1.641630433484057294e-01,2.024116720748386222e-01,6.473776700539352058e-02,-3.982516537141296033e-03,7.009697397963807197e-02,-2.632304338209076264e-02,4.558742727742407658e-02,3.782818619210941147e-02,-3.387365375590856847e-03,-4.525607538413326143e-03,1.108536477734469727e-01,2.056982427743642150e-01,2.357764487944187803e-01,2.295507184372668763e-01,2.076574926749390482e-01,2.153087538529746825e-01,2.402137598299691479e-01,2.259759325106530381e-01,1.419261103986179939e-01,1.986924982336727985e-01,1.760563776187741292e-01,1.484911727085184430e-01,2.602242916083865598e-01,1.338884350728553052e-01,1.688320970411586741e-01,2.313981784445739986e-01,2.282638371708207714e-01,1.888366292064317109e-01,1.142883253307226676e-01,1.034508531635248002e-01,7.108652512239301002e-02,3.284497216521146262e-02,9.083561481765310350e-03,5.148037919957400288e-02,5.784757823411317695e-02,-1.410260119121108276e-02,3.927319744157942161e-03,3.500628346496889587e-02,-4.095070211853070810e-03,8.304890053868609068e-02,2.393463508451317556e-01,2.645486186844379639e-01,2.822362720258393409e-01,2.584023841450001080e-01,1.652986778935305046e-01,1.754629594695512884e-01,2.251862406697661134e-01,2.513055241618745717e-01,2.036174428783539825e-01,2.277808980698424468e-01,1.441602840629599147e-01,1.817240090942867647e-01,1.290460048431163742e-01,1.418127771880749455e-01,1.177673555890901835e-01,1.055426364311429360e-01,1.563233091405017428e-01,1.274574093436739719e-01,3.361413382732786337e-02,6.844813759377925411e-02,-3.105558756333121583e-03,1.898512046344271939e-02,-4.296479518469300402e-02,-2.721498774818146855e-03,-2.867728277256799060e-02,-4.358566750055561240e-02,-4.768478434696396431e-04,4.673663370883035517e-02,8.062934438283360372e-02,1.581320263929807957e-01,2.106072433732729676e-01,1.687216867222471051e-01,1.993155670646953592e-01,1.380059976189352278e-01,1.304636796483161221e-01,2.027620645382757492e-01,1.266558070885741849e-01,1.183350545033651224e-01,1.278605251592204173e-01,1.885461475084322103e-01,1.597834528802958565e-01,1.363306589574850014e-01,1.456750765568346206e-01,1.514537738309936210e-01,3.401534391269342428e-02,2.914202335858430762e-03,2.227578601018551303e-04,3.395733020600635865e-02,4.207715629800632545e-03,-3.681841757170806889e-02,-5.555058973639284692e-02,-2.093169350728166234e-02,-4.538478579435550886e-02,-5.500394467724351727e-02,5.921073422515051726e-02,5.732851398287589634e-02,8.720979274270540538e-02,1.223443400487745775e-01,9.827468757025732693e-02,1.447756710298681304e-01,1.422685235136395276e-01,1.419704661780927801e-01,1.511437892986222664e-01,1.586206460188039624e-01,6.691737034483777324e-02,1.133764474094665076e-01,9.074586588377658858e-02,1.539897536768577158e-01,1.306928336328151696e-01,6.050373495839891924e-02,1.459869479718689522e-01,9.413805943880000637e-02,4.776692538495702633e-02,-1.776532997957918150e-02,3.015781065101766356e-02,3.625312842848931599e-02,-2.749705628530643015e-02,-2.855242324002475046e-02,-5.826970464122138010e-02,-2.428491761101905094e-02,4.789935885104673607e-02,-4.811443650918865306e-02,6.676248933200432112e-02,6.867805756066678279e-03,3.035050552920235886e-02,9.602939067274081364e-02,1.015717466125608398e-01,9.170091286019281529e-02,1.086499776489436159e-01,2.218572196719793485e-02,3.711330503895378385e-02,6.280043795053409650e-02,3.945447907102120344e-02,1.245328758225250354e-01,1.272475922043604102e-01,3.257741599868523019e-02,2.830344578664615099e-02,1.268954782557281946e-01,9.448260826096628595e-02,2.481597514575095004e-02,3.627604408060927915e-03,5.088023856172685377e-02,-2.259507089048974279e-02,6.001505293533608565e-02,4.606033453683146262e-02,1.031309422452986006e-02,2.590107528704781864e-02,4.060255222566950400e-02,5.976607543486368163e-02,-6.369720317664397981e-03,-1.949267378634629566e-02,4.821251816867494489e-02,3.148817772448370134e-02,-7.582751749241494789e-03,1.223562828499694458e-02,7.650225646493472031e-02,1.213686345059895033e-01,-9.071173449542340936e-03,9.293113710222023968e-03,5.103966113978918029e-03,6.796335138497881789e-02,6.079060422179834861e-02,4.660011567056231326e-03,9.430990029501681859e-02,2.697242552379332248e-02,5.621126694864333334e-02,5.659252001657638642e-02,6.725601365056128877e-02,-4.977656501417734858e-02,4.291020489287285244e-02,-2.015565017863175934e-02,-1.565276985905700996e-02,1.846521866040118798e-03,4.969965473788397897e-02,5.647284680692377795e-02,-2.000225298979579208e-02,4.627621118614089202e-02,-7.175409173561728138e-03,5.539838469725436726e-02,-5.838392068161310337e-03,1.213342409204027500e-02,-2.232202270206021938e-02,9.160457338425731511e-02,6.535761236882828285e-02,6.043402991278906851e-03,-1.321429631535029660e-02,-2.922650417308302051e-02,7.442570117620823933e-02,2.832954660473626859e-02,1.925891044443984318e-02,4.115591644970351126e-02,6.575819927651153918e-02,-6.232577897995935853e-03,1.562537851025654068e-02,1.448098534361178316e-02,1.069066324556701246e-02,-1.059663063826195468e-02,2.248015643817713113e-02,-1.696772371865246792e-02,5.721527723440931849e-03,-6.137929378645784473e-02,-2.920702391211314058e-02,-1.258484185677802986e-02,5.806858473665069825e-02,4.930008490389449494e-02,-1.217733024212526091e-02,-4.441155180430634425e-03,3.269473448634295509e-02,-4.180552836129773631e-02,-7.647220373529738970e-03,8.178219255120837416e-02,2.548020576634405301e-02,-2.055933750428056307e-03,2.266943489249593352e-02,3.515068573918696954e-02,3.151842980223058116e-02,1.574014606837627686e-02,-3.999939846972403769e-03,2.353581151077928368e-02,-6.734716252720063592e-03,2.551909483746236940e-02,-3.494027799527506944e-02,4.147657188332723455e-02,6.860895754505909327e-02,4.683103076671174536e-02,-2.352692380236728539e-02,1.447030858740331813e-02,5.335169937373260285e-02,3.335299901710518655e-03,-1.583778486393233598e-02,4.075739356748473569e-02,-3.735169692422569965e-02,5.759958405427698103e-02,-2.708411508876888956e-03,3.367298332146784895e-02,-1.247138844199802664e-02,4.543772691520932272e-02,1.425015483333562372e-02,2.978051254288973347e-03,-1.311866859461970243e-02,-1.171161391191388734e-02,1.427151477948250882e-02,-3.095585848963392991e-02,5.696026524348604680e-02,-3.752075459666780882e-02,1.769888195805117970e-02,-2.368218014761902870e-02,-2.374489018312561997e-02,-1.436850821199445877e-02,-5.700916074562288952e-03,-5.687671499057111307e-02,1.849558284508823203e-02,-2.851886967951215365e-02,2.146843721929108176e-02,5.115234577964229007e-02,-1.887145553332451181e-02,1.497379701578050587e-02,-4.279699090804958694e-02,-5.851152147267561776e-02,1.123153999194519831e-02,-5.171620413500756241e-02,2.564308514682812207e-02,-3.651079889067947865e-02,1.177262591930497947e-02,-4.378772606058402295e-02,-3.626140033450652583e-02,6.220914449883143543e-02,1.524150086830301613e-02,6.400441086315090261e-03,-4.294300317503449427e-02,-2.196281174503945943e-02,-1.643826104018539930e-02,-2.726546571983011827e-02,-2.483185988425930940e-02,2.307374141855570229e-02,-2.972513526157576080e-02,6.043628297402370980e-02,-2.201827808561163460e-02,1.955785350587911815e-04,1.149722815940025511e-02,-6.014380071116348647e-03,-4.142762263000609492e-03,-4.008353155892568909e-02,-6.133455599475583914e-02,5.365710676037577925e-02,5.224802684870540753e-02,-2.712067887212620682e-02,-5.741350071458638238e-02,-3.032302550541311065e-02,5.136579348240973009e-03,5.178227141715535664e-02,-1.271181382404553729e-02,-3.976423370283058145e-02,1.961450658312005949e-02,1.846962409194786991e-02,-5.529997717087575815e-02,-1.983483896205861727e-02,-4.068303318251261652e-02,-5.610801506810731559e-02,5.791596661075981006e-02,2.313812088702181524e-02,6.203906672159301833e-02,-2.145915494774498430e-02,5.750051047755743577e-02,6.142645111182260670e-02,-4.495461377552489174e-02,4.394750857178333914e-02,2.065525632957116581e-02,-6.006175380203426784e-03,-6.016867037648864630e-02,-4.734940764644561539e-02,-1.490420364914675500e-02,1.097534024123700963e-02,2.597852211480657092e-03,-1.806290624723058680e-02,-3.604069327267629685e-02,3.290193111060373682e-02,-2.107454173913832218e-02,-1.632396969747011012e-02,-2.011276840527979892e-02,-5.070596276717957707e-03,3.919422475139094225e-02,-3.343767953884109467e-02,3.228528195582963667e-02,-5.593230793241288877e-03,1.504170444790361300e-02,6.342070818719423853e-03,-3.221122076931692835e-02,3.925989584036946450e-02,2.392933634609129348e-02,-6.909873992939306701e-03,3.888913536093571710e-02,3.060168032479410744e-02,8.361778050252892391e-03,5.027553391617668038e-02,-3.298982025047744737e-02,4.072989342754821523e-02,-5.942128502998259010e-03,-5.918473693449827905e-02,-5.553526373938519334e-02,3.961614710376550746e-02,3.242981306904727662e-02
3.964284955483462353e-02,4.903229159364533990e-02,-4.320007043235638000e-03,-6.818971091102909998e-03,-3.064445540071722776e-02,3.663937537335026223e-02,-7.019263608905264296e-03,6.163830396102348147e-02,-5.505258654879530145e-02,1.250236165930185012e-03,9.643580423492674469e-02,6.740327066809623235e-02,-4.172888312170210112e-02,-4.375398766406872475e-02,-5.407165354790907652e-02,5.813618148605263075e-02,5.273881001656447604e-02,-1.777830850960900044e-02,1.314362743445492837e-02,-6.008831950076020528e-02,-6.020188567898378251e-02,3.754320546104090300e-02,-7.914109513246551930e-03,1.104226014123372429e-02,-3.148480560861667554e-02,2.852218455289110693e-02,-1.466534290771107779e-02,-2.909583925061916959e-02,1.770516982340260975e-02,2.395424844065283804e-02,4.724953462069806515e-02,5.717616787629808267e-02,-2.039925293623025965e-02,-4.757904072676504698e-02,4.303829002061725778e-02,3.708150505978113909e-02,1.090320649797543451e-01,1.564810667664363886e-02,4.479889535994428101e-02,2.989536129972811263e-01,-3.520877662313595668e-02,6.157087034079503779e-02,-5.411350560571674684e-02,3.210063828499831046e-02,-5.401422333456170483e-02,-2.712244339653999831e-02,-2.611844225679196135e-02,1.583243838317158897e-02,3.046551822414405447e-02,-3.268881302289629309e-02,-3.260727951588635737e-02,-1.301945730572406923e-06,-4.857118383288606955e-02,-1.626382980633981484e-02,1.259336868464384224e-02,-4.717720225354926633e-02,3.553659420188643586e-02,7.691287298930614413e-03,2.892033575254922273e-03,3.202015672415878950e-02,-3.498409320419376689e-02,2.964949132100141299e-02,-1.819360489163142705e-02,-4.110868043360807467e-02,1.075811200754830665e-01,1.910745521867463284e-02,-2.500372925328099849e-01,-1.713375502726739719e-01,-2.327318188484689063e-02,-2.744510082797704809e-02,-7.920609787078733421e-02,-2.254926951438561769e-02,-6.587731114832547086e-02,-1.790579096465405307e-01,-2.627653011483014889e-01,-7.060035066631913103e-02,5.675047471162632945e-02,1.846704143736039444e-02,-1.898066063664857750e-02,-6.175010940291568440e-02,-2.700896704817028898e-02,-3.510190224434844852e-02,-3.433125929673950388e-02,6.176213801003647280e-02,1.747474230474001938e-02,2.327305933467617438e-03,-5.549769800035604661e-02,5.928042410830328818e-02,-2.584265455656629268e-02,-6.316081875971918565e-03,-1.496769125977819859e-01,1.173080292501001709e-01,2.142814815330455480e-01,-2.377056543697464719e-01,1.230263431058823687e-01,-3.823012619968987891e-02,2.408360529012862905e-01,2.715449391303212945e-01,-3.145603965222829035e-02,7.029064779026984733e-02,3.343673657906208740e-01,4.792765987295366514e-02,-3.908602656772876272e-02,3.049141730633491143e-01,3.463524643126564828e-01,2.242952417569781323e-02,6.426141200354099081e-02,4.899777644108462005e-02,2.939654235883275984e-02,-3.763342061248274584e-02,2.424477749783334607e-02,2.632707562354986291e-02,-2.764831584514627211e-02,-5.221655771026833398e-02,8.415843157066969782e-03,9.690099537126919960e-03,7.108470549278285422e-02,2.481788194358626187e-01,2.520074565822671420e-01,3.815730084890808782e-01,-2.784603878470619520e-01,7.723349410914050195e-03,-1.541842453454691508e-01,3.870176121069933070e-03,-7.420148375382376593e-02,2.641990606750084947e-03,2.154575436378602243e-02,-2.020955002888316920e-01,-1.022816204505166415e-01,3.912246996333095250e-01,-4.842711461434676123e-01,-2.980257459885012339e-01,-9.586249532644322557e-02,-2.646632028495354283e-01,4.264747983612478255e-02,3.399968608803389386e-02,-7.107496921081908614e-02,1.938503921290461382e-02,-2.876135949308909409e-02,4.077389321370303993e-02,5.350779984842782971e-02,4.680364995092676367e-02,-7.112781740276021003e-02,-1.295444555993063018e-01,-1.451738889288678447e-02,-2.316464827858794318e-01,-5.745647162570081262e-02,5.731419373385705091e-02,-1.601140798274178767e-01,1.117983331208621256e-01,7.820153066823849752e-02,-6.748085253632853109e-02,-1.787877111569749211e-01,-8.618115680510803067e-02,8.139206408086321898e-02,2.067098715492381444e-01,-1.347057440062610356e-01,-1.126600450647170237e-01,3.128417534422520130e-02,-1.754844897165473705e-01,2.695367506164367266e-01,-3.215374129729520192e-01,1.503391363006015002e-01,-5.202930430945258006e-02,1.344704519951552824e-01,-9.765407859960649473e-02,-1.540173285286943611e-02,2.590410365907040019e-02,-5.035741222801731753e-03,3.211934152675628013e-02,-1.778662556352311463e-01,-1.980530716628098320e-01,9.288203986038022497e-02,-3.481389403410403149e-01,-1.892425244097487025e-01,-1.727123406024065055e-01,-2.111835887512776289e-01,-2.645295963847441589e-01,-3.192554484216010291e-01,4.658984395090502717e-02,-1.382595952678355722e-01,-4.928318396330317458e-02,6.576449495532883660e-02,8.927419513543628782e-02,5.289662811642026341e-02,2.178836779493007747e-01,5.784061000336774422e-02,-1.770332766870906516e-01,1.257078356288140186e-01,-1.169908374954338470e-01,1.281625068899038544e-01,-1.272631638439636337e-01,9.776138488596033960e-02,-4.257119544165412217e-02,-7.664871001147127716e-02,3.803989914251264953e-02,1.571465485937786205e-02,-5.125585371402605755e-02,2.355628041507003556e-01,9.160426136691258991e-02,2.217237970627452537e-01,-6.666372327897368555e-02,-9.173753747469266806e-02,-6.806531642481243594e-02,-1.779276291977814339e-01,-1.070041904711542813e-01,-3.442350853843631486e-02,-3.472121399063431424e-01,1.121596290592483114e-01,-3.990194616759444590e-02,4.586205737953576167e-02,3.366196935075667362e-02,-1.015502327639771357e-01,1.887890873728893804e-01,1.987237766949036810e-01,-2.238492544449716959e-01,5.346230219681160495e-02,8.032660708749453371e-02,3.152918960214114857e-02,-6.124725806570858327e-02,-1.688950575177091198e-02,-7.542044314065796118e-02,-3.871403517391033833e-02,1.619404955136906910e-01,-1.621530135399474465e-02,8.912986711667647902e-03,2.110605103137736249e-01,-2.807433706991853128e-01,-3.242568194599534381e-01,-1.423590100062087360e-01,-1.099271007016712626e-01,-6.818390742198159049e-02,-1.453050208412236810e-01,-2.846346178820415712e-02,-9.711421847020864501e-03,1.080168902130721337e-01,6.814821994629179092e-02,-9.667844015087685705e-02,-5.430576920744206032e-02,-1.382995913704429536e-01,3.507677609376941841e-01,-2.226630623453284830e-01,1.667164829589013741e-01,-8.010764080141294374e-02,9.915708984837577622e-02,-4.015964648538607185e-02,5.243187023264463814e-02,2.273059145107636791e-01,9.157550026871072446e-02,-8.734719049748153330e-02,1.240415339463235705e-01,5.283317736328872749e-02,5.690758839703496247e-02,-8.804764174999073906e-03,-1.294412945574924534e-01,-1.006763383128751223e-02,-1.455756068525927149e-01,-5.653609423731063843e-02,-1.090773245941909220e-01,-3.017615060264937105e-03,-5.828513244259057868e-02,2.355360321043778182e-01,2.672235411360379120e-01,2.327701164562925584e-01,1.304542130376784848e-01,7.699792581231231121e-03,-1.791232122538561344e-01,-8.970531454305648300e-02,6.524549818794896094e-02,7.775280883437099555e-02,4.167403277843692577e-02,-2.031539608230356966e-02,-5.163986957301606312e-02,-2.958605955133893906e-01,-1.575656310647037817e-01,1.207691043406573621e-02,-1.941275144113336626e-01,-5.934886363761427558e-02,5.826571945749937920e-02,-2.094957905753006000e-02,3.004026692271279803e-02,-6.898474784916128200e-02,-1.005209855576869038e-01,-3.647506372488138471e-01,1.224776134537615239e-02,-1.209208440406274801e-02,5.693499463165492547e-02,-7.009774274101736313e-02,3.079210981831372318e-01,2.488778223590398520e-01,3.609146402968358425e-01,2.210612231554364704e-01,2.264720063442780124e-02,-5.422553160174963666e-02,-2.173753671400001641e-01,-4.401548937966259789e-02,9.345970176118327533e-02,1.161878508822540707e-01,1.348584861001085600e-01,1.415748542164148860e-01,-2.740244861230021756e-01,-1.508030610785282000e-01,-2.198783820097469088e-01,9.326274230957805680e-03,1.553290326791089970e-01,-1.042782104703554868e-01,-1.650361177481895758e-01,3.412242851256832438e-02,4.933636490005868097e-02,2.307986615477404246e-01,1.580903113600887755e-01,-1.051005072585458125e-02,-3.985437475902781079e-01,1.103845855752362548e-01,1.377464165285633389e-02,1.338979164500533336e-01,-3.299612568638896071e-02,3.299186274333289481e-01,2.421911974366914855e-01,1.319836189488458600e-01,2.605786714791698960e-02,-1.462992205465114548e-01,-2.566341265267350624e-01,6.560868334410213665e-02,1.159761534578507974e-01,1.749366005749250497e-01,1.106048570430336608e-01,-1.345427601466030465e-01,-1.934462866052623908e-01,-4.838361138149414042e-01,-2.141596586780822598e-01,-4.605009353341513179e-02,7.362376632134398982e-03,-1.190632096580173382e-01,-2.036599772038061133e-03,7.425178912990725022e-02,-4.698124135827744241e-02,2.073519322141612053e-02,-6.326286496813673943e-02,1.278162467062964325e-01,2.710510130612419077e-01,-1.475769170860743162e-01,-4.646307322925326277e-02,2.758692294101694129e-02,-1.783349631700685209e-02,-4.877847303022311148e-02,2.108827322696333606e-01,1.485095980659476289e-01,7.977189254787647732e-02,-8.880592611377786938e-02,-2.367893641470278712e-02,1.230961514549585023e-01,2.082678571083386096e-02,1.463996445779337519e-01,-2.402995309039529168e-02,3.313181692092688480e-02,-2.594776284389039289e-01,-3.841180449392678775e-01,-1.350297498194535928e-01,9.884727022656097928e-02,2.052844916004765707e-01,3.860040499668204728e-02,-1.695293822639071801e-01,-2.180912986146278047e-03,-8.347873260317828503e-03,4.752241422353993550e-02,-1.261907447118617576e-01,-1.976696078553520988e-02,-3.559286697870686633e-02,6.580553741641557985e-02,-1.066445595691113864e-02,-1.913361132893745542e-01,-2.091668014452454927e-01,-2.714760870194551489e-03,-2.710136022167300429e-02,6.874368348001876072e-02,-8.865390798826015828e-02,3.768491776501464025e-02,7.364146196768564523e-02,7.273510276056667501e-02,2.706454350805262421e-01,1.286216098160316568e-01,-2.769436755102245781e-02,-3.355467030691062363e-02,7.864283617009749927e-02,-2.066465762720270105e-01,2.159314422014302071e-01,-3.625938361146047173e-02,6.872913407531622276e-02,1.193272447648719981e-01,1.637032587039137232e-01,1.062595403263853072e-01,5.617016989800823618e-02,3.343013446918716158e-02,9.058906744375902487e-02,-3.950418786747478261e-02,2.627405249551983957e-01,1.068198585739204148e-01,-4.091943368817880372e-02,-1.453936554313483287e-01,-1.485541363539225231e-02,-3.969738401231560909e-02,3.259005520042700388e-01,1.348109537029661964e-01,2.266731020894088011e-01,1.231417768413843733e-01,4.465363543547060804e-02,1.787929640442811052e-01,-2.160554758291000077e-02,5.303514040741879459e-02,2.133612948837605022e-02,-1.006590733611466698e-01,-6.582953106745516314e-02,3.103423112446362930e-02,-2.792768852237299815e-02,2.508211467917805249e-01,1.944129246732548277e-01,2.437954535201954098e-02,4.161446694145695124e-01,3.310776110171942954e-01,4.158583360786359540e-03,-3.591129390365547375e-02,1.538989362290219855e-02,-4.066153982059363126e-02,1.859505684827908803e-02,1.794903791856945485e-01,-7.697759219371062833e-02,2.303739965540143042e-01,2.622144021667036431e-02,1.302637126068257600e-01,-1.019615139854137958e-01,4.972297043413091699e-02,-1.706523817295221845e-01,-2.198770653299930364e-02,-3.709162412930371716e-02,1.065636396291926996e-01,-1.748513633348302010e-01,-1.305200803316756974e-01,-1.173860344262964567e-01,-2.279542296122691325e-01,1.617039239471038115e-02,-1.279423035373830064e-01,1.276657654898689098e-01,8.688484369470871049e-02,1.982799941888559181e-01,2.069452488614498264e-01,-1.908988135614033133e-01,-1.238202465819293746e-01,1.443266652664879773e-02,-4.870104133549858771e-03,-1.659863935452213501e-01,-3.335620533264008897e-02,1.420981840199512514e-01,2.046067409417701988e-01,2.101155245165757871e-02,5.934220710249758085e-02,1.183464304006722062e-01,5.373519891473061555e-02,1.267491052311767452e-01,-1.406201629254907326e-01,-3.609303396791552210e-02,-2.791199838185091583e-02,9.335593031646856332e-02,-1.332315094046043480e-01,-2.173147908388107508e-01,-2.685807208620043518e-01,-1.016733740476506859e-01,-9.861219644139493368e-02,-3.708703243486018430e-01,-3.699024802153738634e-02,-1.841304929774632559e-01,-4.387511550458837728e-02,4.278720685603926849e-02,1.460103335093344001e-01,7.254919812119726974e-02,5.216041928498317271e-01,5.469737008884787560e-02,2.087117488591783837e-02,-1.014947955827189691e-02,-3.373017332674466129e-01,-9.830858496655110745e-02,-1.832526984069376974e-01,7.412351203971420666e-02,1.252196829443050774e-01,1.047727716019342115e-01,4.751490249462098081e-02,-1.812777338106097980e-01,-8.115026039676714875e-02,9.971205992658602191e-02,2.009336002493625761e-01,1.041749350958566522e-01,-1.382109791233396834e-01,3.145198775957427223e-02,-3.460502332420658522e-01,-1.287767773509156388e-01,6.154081700451468143e-03,-5.192712446620689586e-03,-1.172484635841054973e-01,-1.085417601026317930e-01,-1.389828641660176001e-01,3.267116403865737845e-02,-1.300966599693017811e-01,-1.947498233963975700e-01,1.793886572498518172e-03,2.478492755194797864e-02,-3.780611133567208376e-02,1.004542015721271442e-01,-1.014699141330628329e-01,-9.638869392734479569e-02,-6.872207452060652422e-02,1.766169208026218199e-02,1.550973710917023102e-02,-2.122106794641101524e-01,1.736987538898411218e-02,-3.978439562560948800e-02,1.055761778152527197e-01,-5.043398828758277608e-02,1.767306077514406437e-01,6.687660613839659096e-02,3.883444356573990258e-02,-5.467301592659249559e-02,-8.391316780790399055e-02,-1.529678901809656578e-02,1.283743408521363996e-02,7.136039944210122686e-03,-6.213500826005920880e-02,-4.131022454354887213e-02,-3.891719222873898931e-02,-1.775186346561223039e-01,-1.895056557943277098e-01,5.723392600361083826e-02,2.109727229809273408e-01,-5.965880632735271610e-02,4.937494631987566357e-02,-8.483771093581055078e-02,-1.746527909607813733e-01,-2.486940405968957601e-01,-2.043227536617470697e-01,-2.183585272013540413e-01,-3.358219717280142014e-02,1.277910547866063506e-01,-1.004626573163222431e-01,-1.033273321528991456e-01,-4.755348655736935798e-02,2.813350174863724074e-01,8.038673880982749598e-02,1.865059570428590496e-01,3.375178078907100504e-02,-1.054066509527961104e-01,-7.704973383309410284e-02,1.646492268599021036e-01,-3.940808846747696076e-02,-3.027900428879078121e-02,-1.046890324684338416e-02,-7.403782508636988502e-02,2.368804731131149144e-01,3.065415128943111203e-02,-1.626541393643530509e-01,-2.680981869654756045e-01,7.145839061222439281e-02,-2.646984574378236782e-02,-3.457761122145021349e-02,-4.867039292282749480e-02,7.553775232843665255e-02,-9.832700005191247206e-02,-1.493409075469235014e-01,9.851810176855740897e-02,-1.603403180478185364e-01,-1.810245714435976955e-02,-1.085791240606534536e-01,9.109278604790517486e-02,1.077811187646050411e-01,3.570537141926816843e-02,9.119550164085278923e-03,3.356769198043851182e-02,1.005453531435150233e-01,1.556292136148960600e-02,9.375197969246540364e-02,1.167321890710543292e-01,6.680145719830289652e-02,1.064889807386974752e-01,-1.249986705357450101e-01,-1.126119345777390063e-01,-2.536894367347709567e-01,1.786813155850523055e-02,4.875402592602822577e-02,-8.839139325907380274e-02,1.744550741272825681e-02,2.033043475325093524e-02,-1.019559324112857823e-03,-1.197468290319926992e-01,-1.154105346509521207e-01,1.097675915953608139e-01,-1.083993432671904317e-01,-2.408059057271151049e-01,-2.108247003410130271e-01,1.013840284259128616e-01,-2.618992493069122185e-01,1.933924869160414395e-01,-6.666161988358748625e-02,1.273030461425188331e-01,1.644989839786996366e-01,-1.180250841567960507e-01,1.912844892218198145e-01,-9.948908564171593527e-02,7.765680222345820727e-02,-1.590739623507034933e-02,1.531722018138149399e-01,-1.288923916697422567e-01,-1.638766622735624359e-02,1.425800533461793126e-02,5.420656340308586257e-02,1.794356557375130778e-01,2.077032685753709383e-03,-1.240868531465652430e-01,-4.768242329610203334e-02,-5.742220443802371205e-02,-2.109975991574821602e-02,7.540168924246946902e-02,1.744766005013868859e-01,-1.702805646466008516e-01,1.105255832604587346e-01,1.208543193140965422e-01,2.677069365598805720e-02,-5.687629254344558211e-02,-8.167225020686549875e-02,-2.843921226816500947e-01,-1.004676898606483154e-01,-9.287527281655191813e-02,-6.439091914679070938e-02,-3.821053982535840138e-02,1.058259545114151740e-01,6.976064619768357344e-02,1.554193675258559032e-02,8.361069182559241475e-02,-6.503464582342240174e-02,-1.586677511315842393e-01,-1.636858079775229957e-01,2.919516704768187337e-02,-2.412174541624148849e-01,-4.059863305904790748e-02,1.088376732171395106e-01,-8.503292310522034270e-02,6.049203990640489997e-02,-6.150274361690903635e-03,-3.072242076826725912e-02,1.437072526135438778e-03,1.102307899259078183e-01,5.455282980269136189e-02,-4.722009252049336886e-02,-2.413895485611198821e-01,1.384680345479091523e-01,-2.575055516373527809e-01,1.762462809496047680e-02,-1.049607422210490498e-01,-2.337600704086795211e-02,2.995593873303352694e-01,-3.234167710121176320e-01,5.800010809050943836e-04,2.064853425888067140e-01,-7.981679205104552643e-02,-8.697141645361888829e-02,6.913638123472762298e-02,-7.651939027595847098e-02,-3.430367617077814679e-01,-4.619745559271780100e-01,-2.323935114002161351e-01,-2.887276830283643236e-01,-4.948846326709011034e-02,7.704905468201893315e-02,-4.746074327193215009e-02,-2.481764935805082228e-02,4.791853292182091800e-02,-5.935434172318379553e-02,-4.884660673691779836e-02,-6.698944858713513917e-02,1.743843406626897907e-02,2.133388993508252007e-02,1.364253765933523543e-01,-1.279101737422557242e-02,2.611428514024010661e-01,-2.954571792043213518e-01,2.406161085050371740e-01,-3.592313359848541277e-01,1.984640490168338434e-01,-1.008559239989912787e-01,-2.056464834286350629e-01,2.498622157797107668e-01,2.417152312379687584e-02,-2.451859754482372256e-01,-3.764322586086080724e-01,3.986885355949630616e-02,-1.167599997472298090e-01,1.284661552321072764e-01,1.605105004747977848e-01,2.081173882022783750e-01,1.330013944268085453e-02,1.125283540159773867e-02,3.633398817381316287e-02,-5.861023083398714945e-02,-2.254227631387231701e-03,-2.211371012154651761e-02,-4.802512697244420287e-02,-7.215874362301706590e-02,4.310707988593970308e-01,2.327460361985460580e-01,1.725171005756526710e-01,1.206130444820209952e-01,-1.820927376796485087e-01,2.736696897648402405e-01,-1.937021343486318159e-01,2.429358941844480743e-02,4.945982338945659890e-02,7.685143918303156962e-02,-1.761541905927615781e-01,-7.772033586688312234e-02,-2.770001196779849593e-03,1.914392578962181291e-01,7.057162335052964697e-02,-1.568586891515246773e-01,4.973155180462909830e-02,5.073017431871283504e-03,1.646783978061590048e-01,1.685130311570142703e-01,-8.626829982621328193e-04,1.455463830002456244e-02,4.266143613501114512e-02,-4.057592706310982067e-02,3.052597762095397849e-03,-5.608575285312572545e-02,-6.766035639434578308e-03,-2.854412152028940053e-02,4.585115725317243651e-01,-1.469031715332351495e-01,-1.400328558676691010e-02,4.130675634631659349e-02,1.031958994883941383e-01,7.913804108876637544e-02,-1.354609604501247067e-01,-2.219794827495667408e-02,-1.668344233670072951e-02,2.175092545483807080e-02,-3.124781964929655709e-02,1.508772084352566212e-01,-8.756190116651814404e-02,9.032697651554016591e-03,-1.946414926009124302e-01,-1.533498796059989434e-02,5.946954171337609507e-02,2.605372204288717436e-02,-1.193881524522934223e-02,2.959644635634454263e-02,-1.337573734445170193e-02,-2.122043411918941858e-02,7.789232194497487660e-03,-2.249558520581163706e-02,-1.248709822173323103e-03,-3.878240651126265565e-02,5.440332253322278933e-03,6.053434489955731440e-02,-3.997027487077380037e-02,2.455964956655252995e-03,-5.493412799587192585e-02,-2.419895214556638113e-02,3.437006159387877985e-02,-8.315996476896304543e-03,-1.374799005555950027e-01,2.068871548932885857e-02,-6.103028105749016413e-02,-3.083429683425704948e-02,3.093993108590444713e-02,9.440902483197335590e-03,4.728872043148939219e-02,-5.851281014179709333e-02,-8.115981799456559176e-02,-4.713349867625577644e-02,-4.045463458958407921e-02,-6.074888993725469782e-02,-2.481817992822998864e-02,5.069242315871736598e-02,3.397707313747231478e-02,2.515426278997760084e-02,-4.345684493825364980e-02,5.514816508405879364e-02
2.947925422519740574e-02,-1.402840538081190358e-02,5.178107991665236581e-02,3.565059183705981266e-02,4.107981387401583168e-02,5.337347088890612851e-02,-5.396119333343274427e-02,4.611900402971187002e-02,1.293279298112452735e-03,-4.837407429849721954e-03,4.315996275432964352e-02,2.155459096026709001e-02,-4.854108295642451526e-02,-2.131751990624013854e-02,-2.019151465546738244e-02,-4.021969609928609940e-02,-2.226831751009936133e-02,4.743089758363731867e-03,5.401948293758097874e-03,-1.424534485411331486e-02,-1.035809461898918454e-02,6.001168479171058168e-03,-2.149917920365333746e-02,2.931341134738040671e-02,2.561519420116475237e-02,3.105053336675612369e-02,2.418436263413619586e-02,-5.358105686653416577e-03,2.525071308302512946e-02,-5.608570215996985797e-02,-1.517951308081293138e-03,-1.493308454505799798e-03,3.317986707569060834e-03,4.995832689993506132e-02,-3.042828767157748637e-02,3.618100997982170303e-02,-3.416775027267259651e-02,2.557503732159823254e-02,-1.458447084459471577e-02,-5.358257769809255527e-02,4.494649655775884850e-02,-8.033756284210496687e-03,-2.558306733081881085e-02,5.463562864402852354e-02,5.140830031208317580e-02,5.684225793684653111e-02,-3.358578343000061250e-02,-2.122736008332284235e-02,1.702290108644006345e-02,3.497368698697455452e-02,-1.718450564087620897e-02,1.729105705666570542e-02,-1.565470866673970146e-02,2.843439689786238928e-02,5.488604821884141699e-02,-2.229547198701781197e-02,-1.576208393722833279e-02,-5.187314815669225032e-02,5.019083760551561885e-02,-3.446244003929210126e-02,-5.657914160239849166e-02,-7.358835283115524283e-03,-2.587285426149932982e-02,-5.462928008631053045e-02,4.604670813062322274e-03,-3.447665800567143585e-02,3.509378136814932277e-03,-1.707957713267054672e-02,4.913678276839947290e-02,-4.085974524670878127e-02,2.697331609112011905e-02,6.865492913719180128e-03,-3.544420210824961864e-02,3.098089929097780013e-02,4.909849244084053127e-02,-3.290807362050683638e-02,5.671362282445376740e-02,-5.887799918069140659e-02,-2.856344333799425150e-02,-3.261291351358980295e-02,-4.128070874333068796e-02,-9.190334303446345832e-03,-1.734860552910411080e-02,3.788728735917862994e-02,4.189596984033976818e-02,2.360933135673768529e-02,-4.939585954520388927e-02,-5.903061527028104910e-02,2.347338913260933052e-02,1.817270412728585333e-02,-3.157188171649632363e-02,6.281044553505933659e-02,3.262268242551266684e-02,6.107966189545313562e-02,-4.855142704794519065e-02,5.738588657669992793e-02,-4.443273245693552670e-02,-7.979292676132166556e-03,2.722622203846715438e-02,3.209367245892269516e-02,4.282278639291166311e-02,-4.872544006027899194e-02,-4.133596807996763045e-02,2.254816906599211093e-02,-5.348140561033093432e-02,3.030758313087366512e-02,1.094117135881680566e-02,1.331387403548948620e-02,-8.830589207144429881e-03,3.862363362477904544e-02,-1.695858188309199571e-02,3.346545665974744871e-02,-7.326925385463478602e-03,-6.012703251957017547e-02,5.145729213613425140e-02,-5.985651881289193871e-02,-4.884635155566550285e-02,3.462336956006254601e-02,-5.609756425472081642e-02,-3.861644396439387755e-02,2.945915343536930492e-02,6.925646726513790680e-03,-1.910014434547322587e-02,-1.516158506388978408e-02,9.291407729320336553e-03,4.255739959417045165e-02,6.534906489311831379e-02,4.002214127454879755e-02,2.998059908822894859e-02,3.671985780534401528e-02,5.741858150900847882e-04,-4.837623109675564387e-02,4.931437663643119251e-02,4.872469877830812313e-02,3.638322253168891490e-02,4.287442049649255876e-02,3.836135124911524419e-02,-1.883276498861769302e-02,1.215350476348642760e-02,-5.531094246210989385e-03,2.477853309152373146e-02,2.668168486092802744e-02,1.734373021140119681e-02,2.628084255804243041e-02,-3.389470596050233459e-02,4.359949825482287156e-02,2.550815726036312694e-02,3.862228502226728449e-02,-2.488266512884081127e-02,8.305682789927081033e-02,-1.113287806676705252e-02,5.264704059093597462e-03,2.702733264265451407e-02,3.162890142985176622e-02,2.191834022620258934e-02,6.824954001383398694e-02,-4.135803731006639644e-02,-4.926751443717857643e-02,1.661987340445755454e-02,6.812876093633274399e-02,5.734952899123368919e-02,4.914282437377297946e-02,-4.537600214725034942e-02,3.635777213462482865e-02,8.067131715630303235e-03,-5.667937270478663053e-02,-3.830524747894051285e-02,2.541703390705977311e-02,-3.567225190313481897e-02,6.075542263845819940e-02,4.003762171319052814e-03,1.161236773426268035e-02,4.665503038213034831e-02,-4.587307869369243452e-02,1.112617211035432999e-02,7.213025629771141478e-02,3.132904213364795520e-02,9.303565989110415546e-02,3.891856186881889612e-02,7.426224432436370759e-02,3.589480678493314758e-02,8.435479841871643125e-02,6.333762895723157871e-02,8.820745758350286014e-02,5.458832840527805264e-02,4.028741345525066464e-02,6.600144567887528124e-02,7.157101809302500450e-02,-8.998791312422886948e-03,1.204688570069859660e-02,5.267747776686454442e-02,1.036854187702896876e-03,-4.974297326193409530e-02,3.826876000700795560e-02,3.662774829266732257e-02,3.219657145582500296e-02,4.625375455226187621e-02,-2.340779289600294910e-02,2.615055105702697447e-02,-5.315794664149858101e-02,4.566954263190903252e-02,-2.456292322372353662e-02,6.098959293091751888e-02,-2.124035993662955202e-02,6.174020040857219893e-02,6.893007597145750509e-02,7.484256868461455769e-02,9.981633484191493322e-02,5.557691733436591341e-02,8.457290660900430856e-02,1.131597537626664735e-01,7.681692534341402756e-02,8.340104489270201704e-02,3.704522876945947479e-02,9.805448309348697988e-02,5.964664988770305987e-02,2.584117193648853561e-02,1.398906356039269182e-02,1.199143399879702351e-02,-2.140977240348507921e-02,-9.291992266461558334e-03,4.097694380730792368e-02,3.909297030123881633e-02,7.698857140749445875e-03,-8.731456525706837724e-04,2.032176116494333745e-02,-4.860132077710806880e-02,-5.381429638592306886e-02,-2.145212655700181117e-02,1.922941901594880237e-02,6.060920067645929332e-02,8.796522208334090626e-03,6.341693702246538333e-02,7.791822631067797655e-02,9.621641303029533632e-02,7.104297595278422084e-02,1.299085004905705942e-01,1.335573330075965903e-01,7.673571660474003131e-02,1.466122597978681552e-01,5.545393055209901084e-02,3.828802730060680559e-02,1.186760986878260087e-02,5.460338120086610098e-02,3.022983213035274411e-02,1.014533919716650578e-01,1.226926316730835853e-01,8.078234395942074375e-02,2.679204716460092950e-02,-3.119368190731557251e-03,-4.211393823488546184e-02,5.586976541131697185e-03,-2.940914612467831341e-02,5.703552671940325530e-02,4.744965165786423078e-02,5.711941495981773947e-02,3.939824323011416329e-02,5.133813783257669405e-02,9.377883981467437235e-02,1.341950134455639210e-01,1.506933297530089200e-01,1.160566186309791858e-01,1.497394636057750861e-01,1.851697028459669270e-01,9.515889045002155766e-02,8.553165763473538630e-02,5.946505419174608759e-02,6.895999601825371361e-02,1.237575909808797808e-01,8.138869954498544057e-02,9.970423698793628997e-02,5.319931700106303452e-02,9.738941839973903891e-02,5.934950641502214491e-02,1.459099292926858971e-01,6.801867786880652633e-02,3.672540803453464009e-02,2.452834317657994270e-02,-3.783208592346457011e-02,5.285064923835088718e-02,5.559026908651510529e-02,-6.813327080092028594e-03,1.615916748871921993e-02,-3.342086634047550936e-02,7.838982506160702135e-02,-3.055350245266675539e-03,1.531836538940463954e-01,1.004372473024710555e-01,1.542595002057203513e-01,1.651257559916900763e-01,1.854040606819243320e-01,1.281426411382333708e-01,1.438351475334657958e-01,1.330726921093759174e-01,1.623105117671899966e-01,1.857479366406211418e-01,9.976146954891475238e-02,8.452877101664900417e-02,8.784144484599901159e-02,1.555819688113075361e-01,1.561577121137335822e-01,1.273820640450498698e-01,1.542293731173179638e-01,1.447571236604682232e-01,2.286364512871130045e-02,-2.686498867454688994e-02,5.214210659249181312e-02,5.816843973132563433e-02,2.125950721188662323e-02,1.862972333475192838e-02,7.533057998939530174e-03,6.208325921798527741e-02,7.300813107896808596e-02,3.480140247697169342e-02,9.601673035153615587e-02,1.797959153197585258e-01,1.802822235454041022e-01,7.163280625538917534e-02,1.675408708792018864e-01,1.234402890053146046e-01,1.179126223338260032e-01,1.344198000854805175e-01,1.886462536759054842e-01,1.245685339706746608e-01,1.660330833412703155e-01,1.277518074284809402e-01,2.074824045563346819e-01,1.316528501714629984e-01,1.528313412870236365e-01,1.863673404637835318e-01,1.902725817069166325e-01,1.530202316155584719e-01,9.992156826481346510e-02,7.037274889635670994e-02,2.785709388134355313e-02,-1.890266331765890276e-02,2.044822478215894274e-02,-3.500011072008446522e-02,1.391783627956584730e-02,6.816815815520411125e-03,8.877511624082480568e-02,1.272465013622638141e-01,1.442304456393239676e-01,1.803378283154563611e-01,1.366051093773630876e-01,1.834069245113392477e-01,1.552982663283738463e-01,1.038084739164987919e-01,1.873608058950418376e-01,1.791503704382295392e-01,1.919460584906340361e-01,1.842912430151269487e-01,1.710518153034437938e-01,2.590238613415287716e-01,2.599741759990665813e-01,2.218493746204176498e-01,2.004432841697663947e-01,1.331326137688352285e-01,1.448793206412012369e-01,2.178762780833988499e-01,9.872334733534125772e-02,-1.542097829129180329e-02,5.633685737141842093e-02,3.895773200568810463e-02,9.009985573133393044e-03,-2.416337422798254392e-02,3.903946401225581730e-02,4.333428916041749679e-02,1.266002376645219141e-01,1.007996593816005287e-01,1.382329718311103572e-01,1.775118116511519573e-01,2.061286361488370300e-01,1.916493256358903219e-01,2.402091503886421564e-01,1.683923187711958702e-01,2.325039476686769635e-01,2.285116213311055577e-01,2.322792397926140839e-01,2.557146375295107354e-01,2.216714312782351870e-01,2.389895504548217586e-01,1.824431982265748153e-01,2.448573448530950436e-01,2.877808551155683903e-01,2.131838012251574543e-01,1.843782134796524419e-01,2.297410874075581366e-01,8.769470268106258071e-02,4.860794643848635049e-02,2.609795366054955485e-04,-5.321251479505997861e-02,1.773271395124776523e-02,4.885880890732580140e-02,6.527169579122374388e-03,-7.319446541228625354e-04,8.237544693716794542e-02,1.862903848014350605e-01,2.297807322603424018e-01,2.993024970184757216e-01,2.941820075355301989e-01,2.807691568826990447e-01,3.054407804770319923e-01,2.635587091957545813e-01,2.228757537684460110e-01,2.585335425902022810e-01,3.007173130541055395e-01,3.223136742946762223e-01,2.767034048794653200e-01,3.256372643818077339e-01,2.084156695169804563e-01,2.435664242320577377e-01,2.306374919600194806e-01,3.105513282227355676e-01,2.094055413602647908e-01,1.348514725804544345e-01,1.063613617815063611e-01,4.803649131293715596e-02,4.308160568599476645e-03,4.657123782140503571e-02,-1.446507751602162106e-02,-1.667611825088789052e-02,4.525170381546169546e-02,6.037100763366830963e-02,1.292252446339956506e-01,1.519891942947662333e-01,2.421581202246892994e-01,2.374976428241251103e-01,1.861246645259764521e-01,1.588535797096345681e-01,2.976132769611416484e-01,3.038605954954974875e-01,2.757217085724756322e-01,2.847691037047363483e-01,2.273282346917451513e-01,2.115341130888417909e-01,2.345155685463655160e-01,1.837265626690920417e-01,1.881320820927988025e-01,2.004932470053144289e-01,1.460918847507131635e-01,1.837402031346875297e-01,1.603332804381550347e-01,1.707811119623323104e-01,3.750188387764542136e-02,7.040577464602180979e-02,-8.718141650776964650e-04,-3.757780109981897348e-02,1.593053023926801343e-02,3.740196006855956573e-02,3.033265901641932910e-02,1.128393520616384309e-02,2.362636135134570103e-02,1.099830499736603739e-01,1.827574661533726275e-01,2.212668275270475993e-01,2.005431946019503309e-01,1.828412078462219870e-01,2.610226954143247124e-01,2.358122249717862218e-01,1.761697163058684734e-01,1.906252133331226284e-01,1.813590348014962883e-01,2.366219488594602793e-01,1.976282479001658654e-01,2.007200268640588481e-01,1.844150170016995438e-01,2.419961380326320632e-01,2.551086930211553527e-01,2.415248046337106214e-01,1.857029273694739135e-01,1.418626938047247987e-01,1.122179807354338893e-01,5.996671735791687941e-02,-1.812889426662675843e-02,2.018061965110589176e-02,-4.654981930716603489e-02,-3.208164701064214475e-02,6.522260858898350222e-02,3.894931734509257150e-03,8.967206871366437126e-02,1.691985866118193016e-01,1.162668978744418463e-01,1.936641440569118189e-01,2.342724598765609512e-01,2.372810724832008777e-01,1.919509871630084019e-01,1.876550076774484710e-01,1.678880620744776231e-01,1.654573147612701245e-01,1.971038484241768585e-01,1.837479540965230584e-01,1.256377513010277225e-01,2.072646225215153126e-01,1.216477764179356574e-01,1.257674872274669731e-01,2.170523189153181765e-01,1.267160528169171407e-01,1.186576320843358429e-01,7.968824646577793436e-02,5.423405267858558837e-02,-3.856183343358370735e-02,-2.548422056895476712e-02,-5.262661147604330569e-02,-7.817898186228612600e-03,1.961068066238750435e-02,4.710102465418344354e-03,-8.022808338534619804e-03,1.297926677087475091e-03,9.115097763673010722e-02,1.374481428085231050e-01,1.260567435771016431e-01,1.168574094860064111e-01,2.332650029210687759e-01,2.290047073364046559e-01,1.924658949165209965e-01,8.671801910195563179e-02,6.869227607326923446e-02,1.429265646565916481e-01,1.796951350313873985e-01,1.813688915580450312e-01,1.713356428202488790e-01,1.637426347099572299e-01,1.480953179909287043e-01,1.733604831648302147e-01,5.093464497633146820e-02,1.281763119504104598e-01,6.543136357369742917e-02,-2.762343166613595580e-02,2.870500934383756267e-02,5.467282463076564986e-02,4.450740898954793495e-02,2.252848714438846628e-02,3.781419154274818367e-02,-2.911559668885597627e-02,-1.272355730166712003e-03,5.466612537509045987e-03,9.389597849570308075e-02,7.909905895749244631e-02,1.172233819024707246e-01,9.203832591497544680e-02,1.552971252010685865e-01,1.232096096060705387e-01,1.151695282445738405e-01,1.061921224401051744e-01,1.357561773686367101e-01,8.139354170347154471e-02,9.693258386544760519e-02,1.476141034749960113e-01,1.095699439017051025e-01,1.847099953840108111e-01,1.092846849258030384e-01,1.373901293250388567e-01,1.109135826391667440e-01,7.116280637931085562e-02,1.124679224465026904e-02,2.573307789274025328e-02,3.603821469674767242e-02,-5.250901721155609020e-02,-1.800902960029956978e-02,1.682129379788508544e-02,1.885241060559885579e-02,3.636098347277165466e-02,2.753171657690607621e-02,1.432971929440813967e-02,7.001805205874679638e-02,8.440143085626518327e-02,9.365231943731153197e-02,6.924347979690081978e-02,1.294779894196072811e-01,1.119476188886067702e-01,4.044074309569307274e-02,6.616901591468099531e-02,1.194991783646117689e-01,4.317043646166052184e-02,1.278707832403278011e-01,8.227403130346766513e-02,2.387619798628361906e-02,4.521010375898827649e-02,7.509228209105923979e-02,3.242806301324122759e-02,2.533580227714278543e-02,-1.948184931192049191e-02,-2.161638583547169368e-03,4.377772161624925856e-02,-1.909954003717828988e-02,3.256870757584667819e-02,3.140813202723682918e-02,6.883088648339509563e-03,-3.067994075016246616e-02,9.014972360180671315e-03,-2.005253016997702795e-02,-4.140567065798208407e-02,2.992457219493419723e-02,2.653990883751767768e-02,7.599835875813654162e-02,6.275863686962351862e-02,1.958868023323448448e-02,1.039543113251013701e-01,4.778619758252689032e-02,8.123868771615653985e-04,2.658694271467322220e-02,4.586262673196338929e-02,1.110305624308361716e-01,-7.545079866694689649e-04,7.141957827448310037e-02,5.231682408375777638e-02,9.801538853868578538e-02,-1.948374047277861426e-02,3.518681787407518941e-02,2.739259917286676962e-02,8.192210485613951945e-03,-3.009402412803406299e-02,-1.959757623542696461e-02,4.766915183277009582e-02,4.751939273160986354e-02,2.143860239943700535e-02,2.077279549522881991e-02,1.751655962929345514e-02,1.589331253642815855e-02,4.251192006964179875e-04,3.139647651464518713e-02,2.095206982059062001e-02,6.695778484387790441e-02,8.011075648030084595e-02,5.180999193830123327e-03,-1.913639720352619100e-03,1.231935197060775485e-02,6.429968288848703084e-02,7.468680808510609614e-02,-1.539834112804425344e-02,8.244374286309991140e-02,2.371640293199628671e-02,1.089380899995314247e-02,3.744339152930330900e-02,-2.743751865695798903e-02,6.053348097143121387e-02,1.744535677380795735e-02,3.769294800007100960e-02,3.465606705013540845e-02,-3.063229192062134204e-03,5.918805278028947681e-02,-1.518567817171587522e-02,-1.565306513846605879e-02,5.574212448205955600e-02,2.152428811947874887e-03,-5.636013704192972124e-02,2.899527079206017793e-02,1.676116777208667280e-02,5.528774008090834441e-02,-3.143599627172759259e-02,-3.273903354189747900e-02,6.017940299295662654e-02,8.735542185833800044e-02,-6.546956531542215234e-03,-1.089213546530946528e-02,-2.750279187167096497e-03,6.929323741203816112e-02,4.846520515661006251e-02,-1.958224819874539516e-02,6.889834367809880011e-02,-1.980227226418245987e-02,1.830248677415090980e-02,-2.702566911555643811e-02,4.730262509353340417e-02,2.982442583607655337e-02,3.840387310291142747e-02,-9.277900205152686888e-03,5.423752048214942195e-02,-1.571830541562523401e-02,1.943736027000077943e-02,1.521780107054946513e-02,2.411896171110191472e-02,-6.106076644848527912e-02,4.085274754797359013e-03,-5.481445114413350909e-03,-2.714466633311077640e-02,2.717014808504696760e-02,1.551311327265380603e-02,6.362412817520146646e-02,1.044562249145859593e-02,7.352592476924946219e-02,-1.088480211072092793e-02,2.856831641337348113e-02,-4.870245961739046864e-02,4.648114876141645757e-02,3.156557817602857752e-02,4.662260577037965342e-02,-3.175280341707101966e-02,-2.429878881797940815e-02,2.817962505824264316e-02,4.859208905440138421e-02,4.243343957063127475e-02,-2.695686938957759377e-02,-4.553681662222020671e-02,4.505382266120389750e-02,-5.418289619882073194e-02,3.009560683222396726e-02,3.008787750579597353e-04,2.291820986195172022e-02,5.986937250234756341e-02,-2.677628300835942221e-02,3.583651610645233881e-02,1.679743662514859501e-02,3.643350963998089748e-02,-2.612331349339379674e-02,-5.609658171684312605e-02,-5.624898820629803398e-03,-2.024675045987725866e-02,-3.851838959560745235e-02,1.291167575075830368e-02,2.135451574067642831e-03,-3.090997378572427068e-02,1.017024120039983562e-02,6.021033512062524962e-02,-4.838061647323774195e-02,-2.816608428246761275e-02,1.437660617443321971e-02,-1.354143652807044892e-02,-2.105918742771821853e-02,-1.051374783744665406e-03,-3.021516668735697853e-02,2.039262701890648399e-02,-1.535745547151810657e-02,1.032137830091945686e-02,-5.271833624561993170e-02,-4.570840236472104023e-02,1.212088237304096566e-02,3.375932258289809224e-02,1.095444717834133386e-03,5.565655056387889404e-02,-3.826420554028285570e-02,4.514253723848885708e-02,-3.996053981748169150e-03,2.488134357238596869e-02,-1.579463878709848335e-02,4.342532432927991015e-02,4.824091325042926398e-02,4.686093244680961806e-02,-5.626560105428289431e-03,1.430547733600003729e-02,1.950651280954986133e-03,4.975502458080646034e-02,-2.899670131828820108e-02,-3.630702727377028288e-02,-5.798130721702405427e-02,5.867330562167445696e-02,-3.226379245702282877e-02,3.541385063689004437e-02,-3.295970933670142045e-02,3.964983818342762006e-02,7.117587769255744046e-03,-1.752500239318956210e-02,2.181630082321979469e-03,3.162332104331524313e-02,-4.893836264964459420e-02,-3.942510280045295051e-02,1.541356097415525622e-02,-6.164152670158483394e-02,-1.326335772901138937e-02,-2.640235314594082533e-02,1.159314383812796306e-02,-1.984612365536214673e-02,-2.326713786303927223e-02,-5.000655168774477410e-02,-5.535316150374643834e-02,-5.900482411245604880e-02,4.448257514289178510e-02,-5.080520014907746740e-04,-2.158160286910922043e-02,-6.132793462809416757e-02,-4.276933600446957556e-02,9.862933854263542660e-03,5.635490840947466988e-03,-3.112011502922846021e-02,-1.067910804087611465e-02,6.415198349338117889e-03,2.646858721176840318e-02,2.166560046278919599e-02,4.108934096701408883e-02,6.080018958624682640e-02,4.994282344710258142e-02,-3.620456880455782955e-02,-1.186572407905677612e-02
-2.278718039615026947e-02,4.395291615776405342e-02,-2.504350931647120193e-02,-2.984018090332923867e-02,-2.697091238630839466e-02,4.111698661828219054e-02,-3.428913548303340331e-02,5.236655472915583559e-02,6.029482793767396848e-02,4.327493761716863507e-02,9.101664645890971599e-05,2.744423815671983148e-04,1.197393258504819008e-02,-5.163652186510603315e-03,3.346819186792527462e-02,-2.467536044694505770e-02,-3.015152362928590069e-03,1.635770136611749276e-02,-2.772833416118175576e-02,-9.358862947973611845e-03,-5.299338382570986661e-02,9.843829973459193583e-03,2.890983654384476215e-02,3.488322672306802541e-03,5.073034115661003568e-02,-4.304741306490257602e-03,-4.094051496234709514e-02,1.688221015884924098e-02,1.939728883320347014e-02,4.991200133712377779e-02,-2.094772773161544810e-02,1.268390868066118088e-02,5.157441329330244434e-02,-1.325709401943864912e-02,1.919485957009480631e-02,3.108426419989086809e-02,4.636943027325871047e-02,1.823491920636253691e-02,5.505542597196785848e-02,-3.940562063217869365e-02,3.494012789899865901e-03,-8.199292960652583909e-03,-6.136676294453886904e-02,-1.778465718953434194e-02,-1.858441255707894701e-02,-3.296784178952615052e-02,4.485601107423389106e-02,-7.272467145575438330e-03,-6.733952874854558235e-03,6.089925073014024887e-02,-5.412528343911943152e-02,3.096847303160247394e-02,-2.494203445081725340e-02,-3.901000200637974591e-02,3.504112865200476740e-02,7.880612407075084092e-03,4.628095899841900424e-02,5.965177394164765390e-03,-2.720811492750459248e-02,5.157663171749831549e-02,-1.802177050874791825e-02,-2.421029496260741418e-02,-3.661503194805776351e-02,3.244399559035887615e-02,6.302549557332165486e-02,-4.862912060591578767e-02,-3.181191632500289523e-02,-4.526715969694142250e-02,5.291179126719774278e-02,2.819802276224702992e-03,7.654334015641961302e-03,3.863128563125967259e-03,4.770260735367209265e-02,-7.544179565621157366e-03,-4.910913909781262909e-02,2.416387115746378850e-02,-2.998633857947809178e-02,3.140484974781372618e-03,-4.933041592605699743e-03,8.410549913761257435e-03,5.956397238749149697e-02,1.224663391097383786e-02,3.374355458779360745e-02,-3.164221142270072507e-02,1.380133341035507527e-02,-8.432559862255661898e-03,3.635982148773127948e-02,-2.961273406632725091e-02,4.209576508326358379e-02,-7.052892194598755137e-04,2.295902305181909964e-03,3.197251167447954373e-02,1.182855155048147602e-02,-3.468639262848911831e-02,-2.306632794929168104e-02,3.998844421972647112e-02,-2.240225225212602589e-02,-1.610475133297373934e-02,-2.049719149120165628e-03,-2.673404572951353433e-02,-2.886130860691189445e-02,-6.068242453185800772e-02,2.159803104075492045e-02,2.328803930426191771e-02,2.241320922190045278e-02,1.042269470068504615e-02,5.469251732468256161e-02,-1.327585927862879114e-02,3.366340226865063845e-02,-3.041179934662838202e-03,1.455427171900990774e-02,1.121453468782104140e-02,-2.294895384837907643e-02,-5.384425454631004693e-02,-1.799092663636078088e-02,3.949445852354128983e-02,-2.894497625002303079e-02,-3.442979443564393033e-02,3.571505659610146183e-02,-4.852016027989755620e-02,3.881349694023111113e-02,5.411009816233363495e-03,-4.946446011820892070e-05,5.696841041753604278e-03,-5.366653636679917516e-02,5.598386561033035641e-02,5.000345144172905348e-02,2.712631068002735110e-02,-1.596454077020790716e-02,-2.858818560940932715e-02,-4.382662000077213599e-02,-4.509087801294692915e-02,-5.597605382877066105e-02,-1.841253442915847388e-02,5.506966062239498916e-02,-4.628758080386866612e-03,1.348368926305834950e-02,5.439619155083295216e-02,-6.749014046567462788e-03,3.059523790047379704e-02,1.124090386411048109e-02,4.083443055002122096e-02,-3.193602068635811864e-02,-3.429593408772702023e-02,-2.210746255037114398e-04,-3.361073364395689850e-02,5.961028735260566480e-02,1.470533777665744557e-02,-9.359250098884974375e-03,3.119607921672917089e-02,-2.912770790372845586e-03,-3.133273024915626641e-03,-2.123384688829463990e-02,3.203277207362737605e-02,-2.483696851658498059e-02,2.131408885563375669e-02,-3.375944378687181519e-03,6.582682112686648324e-02,-1.593432323028966952e-02,4.706087242578142760e-02,3.262025996440969661e-02,-3.319352305309786894e-02,-4.481302808055562942e-02,1.088553779257790330e-02,6.335151169560392093e-02,5.337500274345510776e-02,-1.368886770459530264e-02,-1.868151140544983824e-03,-9.675865252854805310e-03,-3.658327655872023465e-02,-4.712680321402037270e-03,-3.661097640675542442e-02,-3.152405404602538069e-02,5.350872550323113909e-03,-2.690708935572554833e-02,2.270662881886213388e-02,3.712451972919996596e-02,3.044741573930763792e-02,4.502518015598679091e-02,6.338905470883846038e-02,1.017778175239281990e-01,6.345660467361738388e-02,4.372411533912156506e-02,5.655091987492113365e-02,6.520360180639414235e-03,8.481579849947430694e-02,8.032830008383390688e-03,6.934234707667015496e-02,1.775732056389798044e-02,6.646110015906088464e-02,6.797218919916951652e-02,-4.701385410402118825e-02,4.728287787389802953e-03,5.007315672903700499e-02,1.696385516547264938e-02,-3.756716614295410595e-02,4.779683220713747821e-02,3.666591029796840290e-02,-3.102273369532087231e-03,-4.004579901932759506e-02,5.221548491872195913e-02,-5.033964464859331731e-03,-5.113727429816055346e-03,1.123679653131707395e-02,6.835279846434411111e-02,3.702274865859921799e-02,4.534502227824587645e-02,1.081124424393984790e-01,2.541712664461404439e-02,7.146028675605060887e-02,1.471419535464532635e-02,1.932488165692950247e-02,9.336494718667766313e-02,8.338351245816789936e-02,1.217324335512750266e-01,4.691819379353703856e-02,9.465141274415854455e-02,1.087727435768627293e-01,6.631382316333483962e-02,2.558293320312706939e-02,3.358927905847432921e-02,9.877345944405129669e-03,5.762028657881048538e-02,5.505359944815368944e-02,-1.991562330169772271e-02,4.588417718548190583e-02,3.389009557389676547e-02,-4.484343429148067439e-02,6.158081632430532915e-02,4.655880727610698516e-03,-2.490783884912050813e-02,1.226369707198361192e-01,7.875221459226544596e-02,1.468456308783328834e-01,9.456135096339984836e-02,1.154495870842484340e-01,6.887418491370790596e-02,7.102007628281806206e-02,9.177508829738023621e-02,1.438813603341761449e-01,1.127198576639883015e-01,1.388503526421410450e-01,1.025217839938036557e-01,4.809730332126865848e-02,8.473504537779059931e-02,1.294217617331610004e-01,5.687739717870736456e-02,7.003967767105764852e-02,-2.303467082565990517e-02,-3.961762310591594033e-02,-6.102825125664011058e-02,1.913164809536237534e-02,-5.301906778858734431e-02,-4.513033354005203945e-02,9.420877033669495387e-03,1.936530833235496768e-02,1.734527354258789608e-02,-1.609917169501339645e-02,2.428744763623317052e-02,4.991367802007562471e-02,9.440062367182454339e-02,1.206287123769137493e-01,1.709902713095324267e-01,1.155296192379338671e-01,5.897653587556429822e-02,5.322779404177271217e-02,1.516599339905591037e-01,8.751843628216326998e-02,1.355659169154053156e-01,5.127493652082820708e-02,6.471070530464446968e-02,4.460128675807545351e-02,8.535639357327171051e-02,1.389377486458373001e-01,5.665603869438285561e-02,5.321272935027769602e-02,-4.497404678195131116e-03,1.358303806332501751e-02,2.406300876078104264e-02,-4.005053616948809486e-02,1.864469673793588828e-02,6.157684935928526161e-04,-8.602567597561132720e-03,-2.344452395318032470e-02,-1.961862636859721537e-02,5.169234504837212640e-02,1.361362044445546815e-01,8.170358222015930427e-02,2.151444815038302261e-01,1.880335406818014199e-01,1.477160854833909631e-01,9.221030122967942277e-02,1.515775622317418470e-01,1.196895435866978941e-01,1.799744640145219399e-01,1.627292432384818410e-01,1.354298655072645463e-01,7.500123083394098777e-02,1.373417861393998463e-01,7.315908258970989231e-02,1.539792644524101140e-01,1.017471908369306233e-01,1.209234817200919576e-01,7.383898102176797429e-02,8.795354827761593663e-02,3.399428394337974252e-02,4.349749023178372392e-02,-5.041236031205653667e-02,-1.668625447224657971e-02,-7.181239675867529329e-03,1.906715656449088983e-02,3.630613403892744145e-02,-7.687640555482016212e-03,1.004377664995914493e-01,1.607508600430488654e-01,2.077009664167997760e-01,1.370067395427702894e-01,1.791315858716343579e-01,1.485459267021094210e-01,1.154928983336790116e-01,1.668527171943226528e-01,1.174453738760620342e-01,9.153485559118561266e-02,1.761731465208685454e-01,1.948624565099912609e-01,1.952913737444291475e-01,1.443682274257251374e-01,1.304127034252350048e-01,1.717387852188689279e-01,1.235329980807490929e-01,1.776315465888048950e-01,1.374510592374112994e-01,8.454371912627368923e-02,6.921679153377346960e-02,6.411682146825771478e-02,2.266905639779870016e-02,1.745736824027656342e-03,2.087649767759422459e-02,3.155775364876198252e-02,-3.189661987053133557e-03,8.756395353541572557e-02,7.613972780726376011e-02,1.567832186989344678e-01,1.185825153641422020e-01,1.912747895356705363e-01,1.139125853748072653e-01,1.382904120663224490e-01,1.471246736439068281e-01,1.102538165886422922e-01,1.316684354545213098e-01,1.165256729158138244e-01,1.497939089836959892e-01,1.637447946881430416e-01,1.726479844308627110e-01,1.801905946501428935e-01,2.383597683659602895e-01,2.009472401398267050e-01,1.751084024447262799e-01,2.133394915552946081e-01,1.471814376016470916e-01,1.495334793381426775e-01,5.985315524183196234e-02,-1.537547943369137193e-02,-1.778468390083245282e-02,-5.064571896525030953e-02,-3.792674427410633320e-02,1.824254384565840437e-02,-1.796322349778247882e-02,5.773774943577240915e-02,1.617899108302286171e-01,1.983547666785645536e-01,1.901416385718329716e-01,2.470690598918737491e-01,1.763510660757472981e-01,2.077260686943973311e-01,1.634547756488125281e-01,2.516087724808716009e-01,1.838935836900680021e-01,2.318450717071784684e-01,2.994108475430384275e-01,3.424718014106382102e-01,2.631510563624276378e-01,2.069226824078649052e-01,1.924584675182574034e-01,2.578937447661402427e-01,2.344154561816225446e-01,2.122206448264280232e-01,1.268320902223000479e-01,1.199607011804735418e-01,8.665242681432061556e-02,2.157201338708354676e-02,4.544776024959306521e-02,1.699184426721810082e-03,5.439344112794926994e-02,-2.389411819444421312e-02,7.234273093316394287e-02,4.798436998476181964e-02,1.217529693218380310e-01,1.791583782122522506e-01,2.572990624034802165e-01,2.747685052317463961e-01,2.313393000649550946e-01,2.173788929267438386e-01,2.641657439215669978e-01,2.621595215902882137e-01,2.391292615629693474e-01,2.643109880336685369e-01,2.809068600386375736e-01,2.946478370901186583e-01,3.354935319485509715e-01,2.397390643786714293e-01,2.501567047852139569e-01,2.321524162079202092e-01,3.067596750595406596e-01,1.937899505550006174e-01,2.498684603290874107e-01,8.267209349217995162e-02,1.189714887440427270e-02,1.096424298525696707e-02,5.308582547445048205e-02,5.542203345811549248e-02,1.610242775230007889e-02,-4.255841545434867201e-02,3.064530697197937956e-02,1.286913046012136408e-01,2.201837382752507288e-01,2.663865725124007211e-01,1.736323218899414322e-01,2.414633760134719254e-01,2.421351941442274613e-01,2.745088071994375434e-01,3.025500650179054341e-01,2.758195499796645689e-01,2.577464316599750171e-01,1.652427983743425532e-01,1.942090616057748631e-01,1.886605299727850682e-01,1.570339757706485095e-01,2.082000365375964446e-01,1.243087334773222002e-01,1.737171171613080267e-01,2.112375950900382549e-01,1.998868302411901388e-01,1.555743340687667509e-01,1.521202856439169693e-01,1.952905126213985709e-02,1.839221319196792520e-02,3.097536202426144983e-02,3.084210738986509909e-02,3.971998252456226258e-02,4.932890657885559416e-02,1.527337984500868988e-02,1.373246377791473849e-01,1.315783806981609128e-01,2.236373957282666303e-01,1.494765316984332515e-01,2.454025940598708877e-01,1.800287662104299025e-01,2.449009334503017277e-01,2.113148676646049440e-01,2.241649614719173622e-01,1.612022576907560789e-01,1.848342106705735122e-01,1.640869284081134527e-01,1.516760992330776769e-01,2.403933551208547736e-01,1.283937194820717054e-01,2.578062935261206112e-01,1.976725542635409116e-01,2.084631242745046131e-01,1.224867520007966032e-01,1.564509196914294908e-01,1.075786825360368487e-01,7.412814794178618216e-02,-6.393716836490706372e-03,2.594380317901282332e-02,1.703660424729392525e-02,-4.175328184912559248e-02,2.164689381973292429e-02,1.407559162662714615e-02,6.924608548001337516e-02,8.326531200076153771e-02,2.355604885545051763e-01,2.318261369637319436e-01,2.433141861544052820e-01,2.131262623217245744e-01,1.704146495701024944e-01,1.507477087987595388e-01,1.442592755118772552e-01,1.973949385156353320e-01,1.742652930871003147e-01,2.397011625846260652e-01,2.040331343368120554e-01,2.159029801124418280e-01,1.843887926848591097e-01,1.766794120098844068e-01,1.634076225508948044e-01,1.130476832964874417e-01,8.008858308145568039e-02,5.633395619441216445e-02,1.378272744704926549e-02,-2.750126857294768468e-02,1.542790045509646359e-02,1.468326782591846021e-02,1.350601938531514196e-02,-2.913467998978599288e-02,2.369092444779813747e-02,3.209117295943192741e-03,6.296379891893663650e-02,5.792628179865784432e-02,8.933017571369793186e-02,1.186348095677191850e-01,2.009492114276973385e-01,1.686943749096887768e-01,2.441991966182572860e-01,2.191498433358967657e-01,1.266854417557031487e-01,1.131969807238731307e-01,9.913256499854904147e-02,1.938845442622145199e-01,1.280514024121476024e-01,2.046414443154165874e-01,1.156210872597833866e-01,1.415714193476804161e-01,1.706465380868796011e-01,1.324110120722745143e-01,5.324218043249728111e-02,1.985880923018770033e-02,7.492580388105836951e-03,-3.288435928058188601e-02,6.030659169889760612e-02,5.444824267466073092e-02,-2.149362760149757523e-02,2.078141331254073493e-02,4.497782422259396368e-02,3.325972208790436285e-02,3.014721660815876739e-02,1.237208445569366322e-01,1.406140414992294863e-01,1.545572136695482768e-01,1.469673305574331623e-01,9.219119925770648261e-02,1.489480613693643929e-01,1.673623510470959863e-01,1.491335951922359293e-01,1.083236260312794436e-01,1.510427252346112081e-01,1.070280446492841847e-01,9.109682672784097379e-02,9.017702819013415083e-02,1.476893200425917763e-01,1.103820258360218715e-01,8.676677569808897983e-02,4.401703451900724345e-02,3.943265243576260515e-02,6.256445258992886227e-02,1.648221771070803449e-02,-4.339395885355194077e-02,-4.871491860411506641e-02,3.153066954784021492e-02,-7.123950640004532431e-03,2.928595582987555263e-02,1.070402845602248278e-02,-2.833565650033494435e-02,1.238765232732073483e-04,8.541824795669542003e-02,5.899358635543878321e-03,4.373545188689360874e-02,1.288696695009523274e-01,6.408511787849342778e-02,1.055966934850952194e-01,1.053614040685699749e-01,4.972215065652096921e-02,8.694326794627399088e-03,3.950486654004985165e-02,5.739426733721363777e-02,8.543780787739897742e-02,1.147521697652370276e-01,-2.496138044485523514e-03,1.234309439285703469e-01,2.553814647497145221e-02,4.122816254308905165e-02,2.889978119287947914e-02,1.083863010900720271e-02,2.352778925600121709e-02,-5.415349151570856417e-02,2.440484671938198541e-02,-4.633895166791674597e-02,1.730605080219655562e-02,-2.191794534788870513e-02,2.581185589277213907e-02,-2.607175568779682498e-02,2.267266211005980470e-02,1.194166028829788534e-02,2.612089592232911747e-02,2.709374164495087153e-02,1.006355465835356150e-01,4.139549721433680857e-02,8.989798460993782270e-02,8.992052591784172044e-02,9.123373076819506211e-02,3.468124821194894236e-02,7.791897525042007500e-02,9.624006666408384258e-02,-5.471043224053853682e-03,4.577117282523791852e-02,4.493723194306287194e-02,6.208973399046620323e-02,1.647814889695754098e-02,-3.338092487677175174e-02,3.967460562872109769e-02,1.231998497831557219e-03,3.948161800069419081e-02,5.533565183354802880e-02,-1.436988042667332321e-02,1.360277953771819176e-02,-1.333437100730305858e-03,3.109068586468789058e-02,2.790700020563021549e-02,-4.177304013023330070e-02,-4.564090689989850486e-02,-6.243867914361884985e-03,2.673168200223762989e-03,5.674958118228151660e-02,8.659536151237184898e-02,2.124655668017806989e-02,1.311449304017125485e-02,7.131882097282957189e-02,3.304406847111220069e-02,-2.724796784983606404e-02,6.720436000857966941e-02,8.434720419523743240e-02,7.366791079718341961e-02,2.654454649027927771e-02,8.207112847965378211e-02,3.754457805249081931e-02,-4.458833861495023476e-02,6.697665711597529381e-02,-4.312953734109034598e-02,-1.480594776482209440e-02,4.908541913924193562e-02,3.887675722355266039e-02,2.610971321767063119e-02,-4.029109715265109803e-02,-6.106467877767252084e-03,4.322214095929909766e-02,-4.368513620877072928e-02,-6.069763232088359883e-02,5.374410767022506225e-02,3.605987227091584507e-02,5.098472091597003319e-02,5.432188490495903910e-02,3.669828816636151736e-02,-2.046125731052262503e-02,3.431684309563096114e-02,-3.885137948980557643e-03,-2.230526336970449150e-02,1.773214114571140462e-02,1.248964731202754919e-02,-2.156800755612497261e-02,1.579424239961265200e-02,-1.655440810170006466e-02,1.862261224695895695e-02,-3.015934949278629637e-02,-4.569232625832681145e-03,6.267253056660238020e-02,-4.711818061879487207e-03,3.017762185846346173e-02,5.757907186025450208e-02,5.786417259207293079e-03,3.785006406904153214e-02,2.768775071362666179e-02,5.288905951966800523e-03,3.233704423457813698e-02,6.117467883256153677e-02,2.428614504208412642e-02,-2.261914894445597388e-02,4.960911945395277828e-02,-5.261558938604057184e-02,-4.928222895753778254e-02,2.337490812432902604e-02,3.674102558679191721e-02,3.662463568601621866e-02,2.287659720087077686e-02,6.420028634416861946e-02,6.666490347908496372e-02,1.548917740819948097e-02,4.552779760385322616e-02,6.989058897968436490e-02,-4.838261567472675051e-02,2.924295702825532167e-02,-4.365018578854117093e-02,4.601442084812909505e-02,3.631429758707616084e-03,-5.467089356136330819e-02,1.695096281086323417e-02,5.632143300991733319e-03,-9.448624234615378426e-03,-3.775769190748501369e-02,-1.177059624839949664e-02,4.206036885848082191e-02,4.307684519330628320e-02,-5.849807918705360321e-03,1.192681379413496924e-02,-1.346196264442000093e-02,-3.579907212856403564e-02,-2.484372302500824706e-02,6.053292467453037090e-02,-2.661819106226677098e-02,5.074751798948833048e-02,3.354583977304192305e-02,9.177156163855643145e-03,2.713239598169022576e-02,-4.803099939933831025e-02,3.521427604713759513e-02,5.224162195947798515e-02,5.131776701587830586e-02,-5.436858869473835953e-03,3.892436078244006226e-02,4.461549767406083888e-02,2.155106389022993368e-02,-1.109706327710096273e-02,1.019319538696933890e-02,-6.952033284783933618e-05,-2.162206410823291208e-02,-1.086602279414770889e-02,-3.802746794582118062e-03,1.628359043961372793e-02,-4.347387552592321680e-02,-3.645452249629969194e-02,1.179434279885121367e-02,1.936247256450326221e-02,-7.016581016951208699e-03,1.448987585981396063e-02,-5.360821086247271466e-02,2.500403682072756956e-02,-5.277792750897409256e-03,1.401744902121828708e-02,8.067259345694088174e-03,1.402065984242879121e-02,3.192170062411083670e-02,2.357035779615434742e-02,5.958464519601971293e-02,1.085413044221204652e-02,5.234235889421061383e-02,-4.902073611332587698e-03,-1.721706472131096302e-03,-1.620491285267389170e-02,-2.208343802471267672e-02,1.870314914931824751e-02,-5.839393597752931542e-02,-3.448559293379788171e-02,2.881357244558312158e-03,-3.712904790444974956e-02,2.168394911290665722e-02,1.274903245137796320e-02,-1.472677446445857380e-02,2.766066455268208907e-02,-4.112498098355017728e-02,4.973754053904427125e-02,-4.006961427999654324e-02,-4.764334771226809429e-02,-3.980571111423136799e-02,9.939491101453749866e-03,4.090758946446839545e-02,1.338243713194199949e-02,5.911783718686966504e-02,3.412197027081944473e-02,4.793613897635907312e-02,5.175641546053876690e-02,4.980289800335774980e-02,-3.062107893817849619e-02,6.114541626056932411e-02,-4.557953486895029160e-02,-3.995725984998623609e-02,-3.279439528035124943e-04,-5.322652792636787394e-02,-3.855880047833389057e-03,-3.051956655424459958e-02,5.602972832265615266e-04,5.667570016946380657e-02,-5.799641134019704186e-02,-1.100080241507998130e-02,-1.828821613217589820e-02
