-2.203802676332089483e-02,-6.165323385800935974e-02,-2.326300423405276013e-02,-4.554839700320911788e-02,-1.068061539053036246e-02,-8.586481381194097096e-03,-3.334385968753705853e-02,-5.317662906272187240e-02,5.068715569326245202e-02,3.700097678774717791e-02,-3.130932189131329854e-03,-2.296283181318900524e-02,2.528320399820550152e-02,3.792700880788325152e-02,3.358127175432095574e-02,4.613875052393223014e-02,2.662932746639991993e-02,-1.450588715070647017e-02,-1.681461071186171607e-02,-2.312084061559340625e-02,2.913347478316166000e-02,-4.585768805055703834e-02,3.405036108779318366e-02,2.392710234793529039e-02,5.258065889652733388e-02,4.539700981540355923e-02,-4.149006741132420933e-02,-5.902314251764953501e-02,-5.970628792044842259e-02,-5.068533281057342049e-02,-2.254603281982536789e-02,7.377536801544661016e-03,2.718905149920546743e-02,2.314493518016869783e-02,-5.100377589725824806e-02,-3.866534146637407715e-02,1.010853998855412196e-02,3.030587920664577425e-02,3.661894612260969267e-02,-2.108541136538566105e-02,-4.708792410768574549e-02,3.856049183286172632e-02,-2.041569617442613727e-02,1.874793407023871844e-02,-2.824914234619083087e-02,1.668075229624692291e-03,1.728212177572072822e-02,4.877035781920365659e-02,-9.701115393045106616e-03,3.594354924120021083e-02,-4.616811481633350395e-02,6.755193027916016335e-03,3.945637924596528262e-02,5.510565426440964393e-02,-4.154299078448144000e-02,-2.977650215609452256e-03,-5.386610230649729880e-02,6.274857521859876497e-03,4.396982770243185873e-02,-2.958254613345066841e-02,-2.499452631992554741e-04,-1.252274630452125323e-02,3.194682163078589598e-02,2.242626853711874105e-02,8.555920503104040911e-03,-7.998430010372017951e-02,2.835608139469426164e-02,2.670208361110808226e-03,5.198401791662696919e-02,1.938003283170696561e-02,6.991474727068332749e-03,7.556378052691201325e-04,2.031670359240469667e-02,-5.624505983667959369e-02,-1.572209013848882217e-02,3.922124831509943288e-02,-3.926755540696114793e-02,-2.349855749124118987e-02,4.128988634260229856e-02,-2.985751932127866937e-02,-1.495241907291540440e-02,-4.822929089927309454e-02,5.399228779505498704e-02,-1.833640085284377746e-02,4.163146492837615370e-02,2.656360222467007287e-02,-1.914226354113858497e-02,4.568468429189322111e-03,-5.735170970041199648e-03,-3.390515838428701662e-02,2.737520608380995812e-02,5.967073281798137424e-02,7.042582680063612377e-02,-3.880318975217032090e-02,-1.170543188361317516e-01,2.394371291838827409e-02,-4.392057749394589344e-02,-1.314050674730024848e-01,-7.453206582398242894e-03,2.726285287407069144e-02,3.793379510321616410e-02,4.646265927452956218e-02,-3.453069208111890498e-02,3.266845670698340087e-02,2.855970270219665083e-02,-3.978169437569938766e-02,1.534497648467768836e-02,1.190446124208658848e-02,4.894979297705812082e-02,3.225793261266417938e-02,2.384229917179372243e-02,5.757806832533953617e-02,4.748204309932186479e-02,1.953939529589288765e-02,1.908450846727897249e-02,1.087124897556934755e-02,6.916196073407000766e-02,1.121344766642899671e-01,2.347863690098232758e-01,2.594930685743982446e-01,6.246241363328940838e-02,2.670825918042034688e-02,1.164779367973361873e-01,3.143116903944340179e-02,-2.768748715092418655e-02,-5.078963061460413375e-02,1.015966290100092095e-01,7.736833114276873979e-02,1.210225844349903900e-02,-6.563338484160241570e-02,4.941827140838239707e-03,-3.686686337306009642e-02,-3.568992463318654967e-02,-2.058654627137578019e-02,1.077456488628796422e-01,4.550196056405375611e-02,-4.967018061654832192e-04,3.332043627976663536e-02,1.100170007785373355e-02,4.085909098347729335e-02,-5.531282395125568935e-02,4.911157884022741144e-02,4.158471610907205768e-02,5.403994023486590609e-02,3.555081196713276437e-02,2.171320075600576827e-01,2.123255311653519661e-01,-4.230521111431396336e-02,-5.736888231600464905e-02,-1.438759171518946001e-01,3.150824922684133944e-02,-2.513565429631631903e-02,1.175829614817936741e-01,1.191677637108301963e-01,1.521509859614667837e-01,4.929664359086345649e-02,-4.357367077829511076e-03,-2.398075027220600286e-01,-1.086774398433383582e-01,-7.430462053370837094e-02,-1.898867354423107723e-01,-6.609030770556340029e-02,1.381120660954869919e-02,4.722623268847267811e-03,3.496980015860382679e-02,5.885359115993520074e-02,2.434931173357611500e-02,5.981264035345650043e-03,4.656324407615736183e-04,2.895511134683218663e-02,-3.468278134022267228e-03,2.091074468370440059e-02,1.167398714369804894e-03,1.317530206350238375e-01,1.435625123465117947e-01,5.717893573914831912e-02,-9.643437417747897922e-02,-9.826129124730749453e-02,3.937718681598824377e-02,4.752440018487921747e-02,2.527132243473545481e-01,2.730208049415246974e-01,1.071155920448697424e-01,-1.830114392651755947e-02,-7.073319166775503264e-02,-2.492891545914825702e-01,-3.355424307733000377e-01,-3.013306318577159693e-01,-4.007346829661634913e-01,-2.021037111534208230e-01,-5.839979840763600411e-02,2.447920340164734254e-01,1.748629637324375374e-01,3.986804195398246931e-02,3.775844033728761179e-02,1.174537734212598508e-02,4.093455968918233850e-02,-3.910917459203645807e-02,2.037043155628753127e-02,-8.071648184168458973e-02,8.256443133550829538e-02,2.067691624118136659e-02,-2.071165609409772110e-02,2.778385238758968381e-02,-1.758865232067027828e-01,-9.853548595903101337e-02,4.085979078867726932e-02,1.373272497589478613e-01,9.035179725920326754e-02,3.788828611395883561e-02,3.068390791620750901e-02,9.930707828798934766e-02,2.319752809535013394e-01,-9.299970706961348255e-02,-3.922529205750749925e-01,-4.623893807441111226e-01,-3.513031280722763716e-01,-7.214847892600548263e-02,7.142686933557015894e-02,2.894642174354933317e-01,4.206286163579538995e-01,3.266196516926535565e-01,-2.905692583525904676e-02,8.831410353409023875e-03,1.020823044194781731e-02,-1.509107342487593303e-02,1.879039008555888303e-03,-4.480666648727613804e-02,-5.850739278473317956e-02,-1.178400633079217802e-01,1.915498606526866987e-01,1.387318126233135218e-01,-1.626578667281640966e-01,-2.465163184451912293e-01,-3.252502459673368984e-02,-4.250859845268187276e-02,-1.035298772173267601e-01,6.871461283020205944e-03,1.604508802868634953e-01,2.197166697659928003e-01,1.889447933398107626e-01,-1.170089962452987992e-01,-4.777680694322404831e-01,-4.862464623811487141e-01,-3.848848764939628575e-01,-2.118320078015841490e-01,-1.434863651832405385e-01,1.491946925861961093e-01,4.504990779220904296e-01,3.018001764289515165e-01,1.721664107828339493e-02,-5.501516995028540857e-02,3.894965147038493419e-02,5.501257668262133846e-03,-2.304969778658432465e-03,-6.193290097086792678e-02,-1.824023582600546867e-01,-1.625065270514553517e-01,2.639036887912858953e-01,1.906880631371618562e-01,-1.170220220230853807e-02,-1.006725231508437401e-01,-7.442731596285488693e-02,-3.669898209498482361e-02,-2.118191792173342580e-01,-9.440940204217940224e-02,2.685587094882355141e-02,2.199577296572303164e-01,9.410907295538460671e-02,-1.581308333164600510e-01,-4.698583979272462630e-01,-5.005696769523935163e-01,-5.140121234901998681e-01,-2.203835977979157201e-01,-1.131221358858342935e-01,-6.740026609872781793e-02,1.215882470146556482e-01,2.922530687318843912e-01,1.232755491682568094e-01,-1.730821507321151503e-02,-4.724512766915056616e-02,4.155999586399151957e-02,-3.061540327331277109e-02,-5.316293029307532503e-02,-1.816704953686712476e-01,3.137277299603187797e-01,4.091651832799343413e-01,3.309742860986870649e-01,1.545130243034808452e-03,-7.026276675970438701e-02,-6.415922038321469900e-02,1.238896025939204282e-01,-1.057211752953312739e-01,-8.485427902741926598e-02,2.892171504850976071e-01,3.592437897133898828e-01,1.567412504934200534e-01,-1.950591681965462842e-01,-4.565965422121458506e-01,-3.766730946434559968e-01,-2.130563700503398383e-01,-5.268135039864895591e-02,2.097961419957143636e-02,-1.380474557732322971e-01,7.384851114575811948e-02,1.188398414848105961e-01,1.323000403579209228e-01,-2.636799294494830692e-02,2.652698306681419010e-02,-7.125867543126619338e-03,-8.322909569308961641e-02,-1.114193313074610114e-01,-1.152493076821675677e-01,3.780185621945755248e-01,1.386520213786771871e-01,1.335694894790190601e-01,2.273003221007136310e-01,-1.032283243498965802e-01,-1.428735014671621006e-01,2.708758218927490580e-01,1.570458192094643379e-01,2.586701098905112017e-01,2.434300690840026093e-01,1.043369418150292827e-01,1.162916089945738862e-01,-1.031737537059995574e-01,-4.836001552415751248e-01,-7.827702149174607937e-01,-3.462925372839326665e-01,7.776679429469383897e-02,-7.253752124735111939e-02,-2.133210476449300674e-01,1.587136771470042673e-01,-1.557388736079912683e-01,6.019894994145959938e-02,-4.837382114244124891e-03,4.533965364185989916e-02,-6.080902309778528358e-02,-2.194682960390980861e-02,5.604358199076284186e-02,-8.848943096138736641e-02,2.497239425831899451e-01,-1.488135563131532391e-01,1.825393269176380506e-01,1.071285027362960801e-02,5.883845479787207233e-02,-1.541337457943317835e-01,-6.403778055244616074e-02,1.381331847022755632e-01,4.053856849649706273e-01,5.079745245570040785e-02,-1.487268050720753632e-01,1.392208583016684154e-01,-1.090272541775630100e-01,-5.618333601378829867e-01,-6.844862621002091307e-01,-2.767460602157847394e-01,-1.356284277678007633e-01,1.339264918546372862e-01,-1.177894874114187723e-01,-2.342771285323661246e-01,-1.709588975615299877e-01,1.324520847214018526e-01,3.808313970960005429e-02,-2.531174709218190350e-02,3.480171178857569686e-02,-7.703645374349334107e-02,-3.780928656649743674e-02,-1.242663094452759742e-01,-1.347045786585288063e-01,2.123164912850795255e-02,8.938798735948209895e-02,3.018368293829601368e-01,4.467004128818063274e-02,-7.369228203903485652e-02,1.034681896296714698e-01,2.572708369967177666e-02,2.184131150696091150e-01,-1.557413916560201339e-01,-1.928583422251149704e-01,-2.107839029038433010e-01,6.133830665565312423e-02,-2.393733767628559161e-01,-3.714241972442112183e-01,-2.118162527388710581e-01,-1.765519511414944953e-01,-4.410884951775831224e-03,7.112268813123658051e-02,-2.461825412349487874e-01,-2.216082767572504636e-02,1.299572902185899825e-01,-7.677219593895633076e-04,-1.803512392708483264e-02,-2.900046309622570165e-02,7.563789481634991020e-03,-7.539048671668871493e-02,-2.342942586534002836e-01,-6.547777474884965143e-02,-8.406677881306919009e-02,-6.509188779323146767e-02,4.390989171970702265e-01,1.654316926600642446e-01,-4.406029360413766388e-02,7.084431858538485505e-02,1.354048452737309782e-01,8.762996043327535289e-02,-7.110916318802378011e-02,1.368634493098211946e-01,1.845399267586708136e-01,-2.601477883404858527e-01,-2.938016619512487382e-01,-3.523018577523531758e-01,-4.465724951912793395e-01,-3.381784516209146996e-01,-1.237210164274824831e-01,-1.972876047309276570e-01,-3.607457695230063821e-02,1.867618516586772859e-01,1.826442983773143847e-01,-2.798182037627041513e-02,3.089560264123270700e-02,1.091876327711510143e-02,-9.170107028501313373e-02,-1.368532457668026059e-01,-2.424535674905180793e-01,-1.095650621309750133e-01,2.373836443843825583e-01,-5.021742119128801488e-03,-1.728538232760187809e-02,-1.231685109621568214e-01,1.449225124250765884e-01,6.562267248249617491e-02,7.364778707062268059e-02,-2.791382798482749342e-03,2.789399648034010526e-01,5.429970523107763292e-01,3.624420320173404875e-01,-1.139494728061590106e-01,-3.735407060715284500e-01,-4.276329894880443461e-01,-2.729876619621085521e-01,-8.128602428869843854e-02,6.925413468709654130e-02,-1.153483106558038235e-01,-2.776644127874007828e-01,1.446715114481918196e-01,1.070611602131215923e-01,-1.519091265732076812e-02,4.919455742314137597e-02,2.909628599947153282e-02,-3.469945591479229197e-03,-6.796138966377868185e-02,-2.143575945792263737e-01,4.448978792827555651e-02,3.274164076453981581e-02,2.931995955911871343e-01,4.501250119113592990e-02,2.066732605251556942e-01,1.425246694722120677e-01,3.163044733442430534e-01,3.907344374822475652e-01,1.261503525003400406e-01,2.371688927088067556e-01,3.987197383240723148e-01,4.592088382913981914e-01,-9.373813578305856264e-03,3.469742083195987564e-02,-1.693624099803449357e-01,-5.966363601496035840e-02,-6.559855786257252908e-02,-2.898196463776765430e-01,-1.558339150010699115e-01,-1.930151972293813259e-02,1.636557777389425206e-01,6.836168081605621671e-02,-1.017186527597955907e-02,3.693640906084438152e-02,-4.721177084903373233e-02,1.933500840552023273e-03,-1.930257791552327309e-02,-2.667845497531267651e-01,-3.281801766320713298e-01,-7.204497771747558899e-02,3.992985112811678339e-02,8.213762817899673829e-02,2.229397216608708654e-01,2.505309382101505444e-01,1.657297661688161838e-01,3.098210449407646228e-01,1.236029946740676982e-01,2.442098528960846837e-01,2.044823626672115646e-01,2.670825323710578902e-01,-9.828633940679562704e-04,-4.094819967342485656e-01,-4.693082921943740327e-01,-5.825011784398257397e-01,-3.413693417020407517e-01,-2.517931270690115797e-01,-4.664033223647257032e-02,-2.941576752183222010e-01,1.023262970635219343e-01,1.745799894195666502e-01,-2.063990129442707863e-02,-1.829793092719629588e-02,2.975760023221135642e-02,-5.421587944927013653e-02,-1.479417192759401728e-02,-1.962611294857775357e-01,-2.632208029014893036e-01,5.764146126215224930e-02,-4.190004078457510231e-03,-1.616306136056320508e-01,6.738255903723408546e-02,8.520840672346563505e-02,7.400785538073728631e-02,2.083767252235196599e-01,7.510310893550210809e-02,1.961585008210784131e-01,7.661856084098563058e-02,1.394245740069784655e-02,-1.320655942614842315e-01,-4.684674782699126405e-01,-4.878851849342949465e-01,-3.815787795577612607e-01,-7.271397310894153754e-02,-6.773959202121269951e-02,-3.540378812988271839e-01,-2.981761595553407140e-01,-2.696844443493584889e-02,9.477848657144759270e-02,7.366672610635480178e-02,-4.497213760379613345e-02,2.070664148961990497e-02,-8.852479477243191050e-03,-5.937607637526097493e-02,-2.245855543719289804e-01,-4.573237774738828643e-01,-3.445768650875337402e-02,1.073593912253861388e-01,-1.388431006985910710e-01,1.589205276989594240e-02,2.519994663256536760e-01,4.960055612200835462e-01,6.018284395443125601e-02,-2.342640310837709391e-02,1.289810922087085421e-01,3.664328365927926323e-01,2.945494254680066648e-01,6.866774868769429108e-02,-2.766594243902220085e-01,-3.431154807188417366e-01,-3.751656873612157495e-01,-5.304776424242717558e-01,-5.683706187267617560e-01,-4.595963331393776996e-01,-7.668918874032311372e-02,-2.034613452776855291e-02,2.873601301296680247e-02,8.955721227992216593e-02,1.313593817923140034e-02,7.133919057106620498e-03,5.903513520434168493e-02,2.916461116167959767e-03,-1.675775709600402508e-01,-3.673419912165556411e-01,-1.346897165797726892e-01,6.431489318566822877e-02,1.174976427244949287e-02,1.693849775598134377e-01,2.318946490159680407e-01,2.499312347621419073e-01,1.934215176721190144e-01,1.193940713429171574e-01,2.335257072850767668e-01,2.391870740460178557e-01,2.501896771036943301e-01,-7.676500916259837264e-03,-3.078976939715587502e-01,-1.990218519811071674e-01,-9.450312689867551574e-02,-1.392280421003056212e-01,-2.293726586593044237e-01,-2.660875797121792230e-01,-2.427083918017527986e-02,-9.676624671638910102e-02,6.046115600137333401e-02,-5.283154092854956685e-02,-3.784651530149241161e-02,7.297089683343090105e-03,3.511450058106695832e-02,-4.039836264602445631e-02,-1.274681958822257988e-01,-1.629700355218743901e-01,-1.095620158983647008e-01,-1.538980238356012498e-01,4.446996662577620829e-02,-1.808491150079206966e-02,9.373119079571956558e-02,1.991011787480495288e-01,1.971328802610034236e-01,9.798184541325175023e-02,1.734028406303233794e-01,1.683390637585128746e-01,1.499165745251812842e-01,-1.177723632974144313e-01,-2.746869128821720629e-01,-1.399390870455601288e-01,-3.309762400212538404e-03,-1.453495068410743940e-01,-2.360188793568416821e-01,-1.959218989759247687e-01,-9.035451865541319072e-02,1.365441391961220649e-02,6.948401751552973904e-02,-5.575077871726010631e-02,3.421345986261813826e-02,5.589637444538509553e-02,9.476736210097244650e-03,-3.435051978781426124e-02,-1.362668398243007360e-02,-1.797301609385728582e-01,-8.711069205766792944e-02,3.494859500557582349e-02,2.030671685183211006e-01,-7.539126283849546806e-02,1.371130573236850267e-02,6.216514429739129766e-02,7.787353969443087942e-02,7.295637548632151470e-02,9.084449154850106345e-02,5.419862934506518293e-02,9.524345228943449648e-02,-1.009033007497077278e-01,-1.763958640944617018e-01,-1.954565732985725224e-01,-3.705292653117214091e-02,-8.567298707931131352e-02,-1.460856900446564632e-01,-5.299237141760896469e-02,-7.369662222696539422e-02,2.185851267344930422e-03,-2.278268453376851993e-02,-8.466738680754079538e-03,5.514228754177067510e-02,-1.023674779313672734e-02,5.460333699237338023e-02,5.130521413996165514e-02,-3.926228987061120695e-02,-6.787955703704642851e-02,3.681400162864035229e-03,9.491303951760003688e-02,2.652480095867959173e-02,7.600787120567988053e-02,1.958168988075797978e-02,-2.053325271087428835e-02,-2.668549961770525728e-03,-1.303118559202018634e-01,-2.044365726204472322e-01,-2.338141782726065876e-01,-5.674915456288636209e-03,-1.819104124952318491e-02,-2.103112807384356353e-01,-8.293942416765370806e-02,-3.824608529728432127e-02,-1.234402632171407027e-01,-1.432037300389508994e-01,-6.440734726662317167e-02,-5.059230371916458024e-02,3.813892356916981363e-02,-1.020784185537183808e-02,-4.496425318865260312e-02,1.931045801548333246e-02,1.693037775177996113e-02,1.736148670292435997e-02,-5.568830442922035467e-02,-6.933325300021892261e-04,-3.499177183903990490e-02,-6.019487902166511389e-02,9.442540834403817529e-02,-2.321671604933478114e-02,2.710845691221926146e-02,-4.042876331569383863e-02,-3.930414013822913083e-02,1.682538704737211385e-02,-8.464200250835088313e-02,-1.182511284230733650e-01,-1.945565107304214336e-01,-1.104754129199475160e-01,-4.876030262138953547e-02,-1.800377116552054069e-01,-3.767089335520659027e-02,-1.168988523820497227e-01,-4.036318341008147265e-02,-4.052230943317183115e-02,-8.094576134775324783e-02,-2.718278839031717381e-02,1.862509189606986401e-02,5.840098064177127318e-02,6.836054473976650725e-03,-4.917630615996704257e-02,4.089983671735502452e-02,-9.348740445852481151e-03,5.380194274486810313e-02,3.668238589902248631e-02,3.943035498306990405e-02,-2.059219770156509380e-02,-9.485792242422649498e-03,2.959289743082366142e-02,-4.763665744954449777e-02,-4.093273538532499201e-02,2.392774892146642615e-02,-4.555886877198687263e-02,-1.374892269096990955e-03,5.408928332145436502e-02,2.555052608584391580e-03,3.281089996042462105e-03,-7.175938227867736940e-02,-5.478656835080564225e-02,-3.203180169297500934e-02,-2.741798061203152767e-02,-2.740766172384406785e-02,-2.731007606798367682e-02,-4.706362665280201807e-02,4.558139180143530589e-02,-5.559238797485091532e-02,-1.980504823188580094e-02,4.737324762112537363e-02,5.635418727565767033e-02,5.322427694671956477e-03,5.565022460358743511e-02,-5.071828269360623836e-02,-6.257555099668943299e-02,5.296846657539577841e-02,-1.718888122757929876e-02,-5.784106890173704857e-02,-7.290747640862065004e-03,-9.805953744273378236e-03,1.183713936534894380e-02,-3.593393880082868669e-02,-2.635027367718818445e-02,-4.772340648270552432e-02,4.105078721437900591e-02,1.201916961141483442e-01,4.092647256717794196e-02,4.527899985352661083e-02,1.317839958767080474e-02,-2.236745373273962140e-03,-4.379466512862542626e-02,-8.762474669487594833e-03,3.584423835960288268e-02,-6.130277883436705683e-02,3.323388675518088725e-02,5.924059161366519721e-03,1.641741339741632777e-03,4.695638347704748916e-03,2.863027787301729993e-02,-4.443124718790165961e-03,5.324905828927007506e-02,-3.631768476967958681e-02,2.859864840432726346e-02,5.554253232487767200e-03,3.467025686783228866e-02,5.055491498826910485e-02,-5.522664185032028633e-02,1.250065186202800258e-02,1.837165117253429861e-02,-6.414177890405554916e-03,6.089784461464025495e-02,-4.628793920639203557e-02,-5.672128687481683279e-02,-3.014702535843910569e-02,5.016145801676788474e-02,2.899173533522013749e-02,5.962346592031001619e-02,-5.522247638452693064e-02,-3.727852405641469274e-02,-2.377785918551712785e-02,6.408321366767950888e-03,-5.186019709609877154e-02,-3.006771764429691518e-03,2.899473387132606855e-02,5.886704982722557739e-02,-4.464118678168330773e-02,-2.207552937312521613e-01
-4.369297820014554634e-02,6.014801262203201687e-02,-4.671890691468463808e-02,-2.712735594479563639e-03,-5.088417420068822028e-02,3.555066970624853190e-02,4.678227608192454118e-02,2.906526843119523057e-02,-3.932157009297571754e-02,-4.019948175989171424e-02,4.552921703379147339e-02,-4.911524274169854626e-02,3.799933168852926563e-02,-7.562504175940287787e-04,1.280812367835715976e-02,5.863671260340078822e-02,-1.957975531670457653e-02,-2.801638803526717431e-02,-3.987684224816930023e-02,-1.332054228106993587e-02,-5.905464724033183954e-02,2.194580127442686407e-02,-3.555408305938158320e-02,-5.608950163636829134e-02,-4.470555269780143032e-02,-4.766129580732191007e-02,5.246406478417952463e-02,1.728754866766257087e-02,-4.073689497354699568e-02,4.204907528265051236e-02,2.883327323205423648e-02,-6.666574062730176720e-03,-1.381339178162870746e-02,3.324096001210553181e-02,6.949424216985973513e-03,1.331962660397409057e-02,3.960710581407675401e-02,-1.029127819172697550e-02,4.611165201491453786e-02,6.107193657646348313e-03,-4.934551498108642048e-02,2.157223022306730201e-02,-9.444857463537861819e-04,-4.231806757595965585e-02,2.213489172430110202e-02,5.079975332899579893e-02,3.491032236887781776e-02,-2.334071036907529179e-02,4.475150453690628777e-02,-1.477522129755748370e-02,-2.544361205689343874e-02,-2.954050771655451074e-02,1.863394210533090428e-02,-4.391395542274492692e-02,4.344575913357299340e-02,-7.936937940592421470e-03,-1.064187277219617173e-02,4.355350488210208565e-02,3.113590675259165358e-02,-3.485165823798778290e-02,1.702026167157415226e-03,3.582931105337237160e-02,-4.953899981639253020e-02,-9.225367477287946261e-02,-4.962047957950960902e-02,-1.924333787852194888e-02,2.758056744614153719e-02,-3.995561289493634177e-02,-8.933450836859421762e-02,3.307135797400401200e-02,-2.835943992103009959e-02,-7.743193425354261139e-02,1.423551282163953817e-02,-2.844286101050842730e-03,1.320113064280299675e-02,3.400994092307859772e-03,2.907649581872156705e-02,-5.766853863573327688e-02,-1.909170022479502599e-02,1.620274440935626920e-02,-5.784969621349687202e-02,-8.573385383547564575e-03,-1.741503576633917499e-02,5.888633295579683707e-02,-5.294715267764963512e-02,1.569531626397462770e-02,3.563251530439096731e-02,2.177301449214976564e-02,3.609831477615330075e-02,-1.401434666812858198e-03,-3.595070902349422476e-02,-1.026573303085150379e-01,2.642846508247911896e-02,-1.348762748230529496e-01,-1.258267229830913603e-01,-1.275114907015554300e-01,-6.167533530888030108e-02,8.792868893400809793e-02,4.984299026722487785e-02,5.673768616561603723e-02,5.135104570452930783e-02,4.337949105409225764e-02,5.911982051055910889e-03,-8.411795269940063047e-02,4.209244883708664065e-02,-1.436855319579008299e-02,-5.472094474403808168e-02,2.731086428787676476e-02,3.403443636108263726e-02,2.168326813788627044e-02,1.709109426021461486e-03,1.583375512134079649e-02,2.415388094187079920e-02,-4.327684811464462683e-02,-5.987853350422060739e-03,3.034036220927188721e-02,-6.882318739530149387e-02,-1.161767447553124083e-01,-1.310112379070863808e-01,-2.541308461197789095e-02,-1.563872859344679345e-01,-6.929073233107667373e-02,-1.693714597968405955e-01,-8.958387037065172753e-02,-3.585467878933312064e-02,5.775609368271764077e-02,6.558336741127526737e-02,3.298665834570908839e-02,5.165450726432627149e-02,5.945089473193541918e-02,-5.783854549419249411e-03,-5.575135178068797021e-02,-8.293944101930146584e-02,-3.434983382230009930e-02,4.839300298882677487e-02,3.055649904415972534e-02,1.367641319210216068e-02,-1.304124688863588476e-02,1.297991917624877894e-02,-8.750360532759474119e-03,8.124819425272052087e-03,-6.043878300023794448e-02,1.084809102920817996e-02,-5.218603035326901951e-02,4.660912943916451640e-03,-1.561451903567082911e-01,-5.407899181906101332e-02,-2.798597261696874131e-02,-1.123660682917649034e-01,-4.250325980729169340e-02,7.548932641975432400e-02,-7.179821957767287821e-02,-1.139528268773741110e-01,-4.963554444243977598e-02,8.696471386550644334e-02,1.222490586841945420e-01,1.129575206775665364e-01,1.279826207169620367e-01,-3.893307685938596219e-02,-1.935728949407790611e-01,2.001986054782173563e-01,1.076661505610713859e-01,-1.679715959851942097e-03,-4.027234148623561050e-02,-8.716483629245630471e-02,-1.083935764763526433e-01,1.047539212287956767e-02,3.415970271410189579e-02,-4.180079045553505152e-02,-4.571728341153664943e-02,3.118855566881365005e-02,-7.805654787132186578e-02,-1.693176305347442873e-02,-1.320661037290183637e-01,-1.344677285313920778e-01,-1.439950655125741552e-01,-1.303288931413746354e-01,-6.578614966280667276e-02,2.229112034732865563e-03,-3.495716042727677747e-02,-2.991166758268840736e-02,1.647322519175442868e-01,1.833506138054667445e-01,2.043424774197120097e-01,-2.063484555701883619e-02,5.646806880796175626e-02,-4.030180090708422591e-02,-1.965295528012762083e-01,1.141850933265202567e-01,1.444977825412095129e-01,-5.272550247505475296e-02,-1.552654756452989393e-01,-1.555033396204531966e-02,-3.451887712965171634e-02,-1.697155258783982282e-02,-4.656429188956284770e-02,-3.353273151317473499e-02,-2.445574636974544996e-02,-7.151440365286372558e-03,3.411965582863460411e-02,-9.796292855001915989e-02,-8.986401955322671775e-02,-4.466931016505170521e-02,-3.098756850337467950e-01,-1.348945236298829120e-01,2.448624245582010917e-02,-9.543299768860122583e-05,2.945569034570842681e-02,1.696819367926970940e-02,9.916847402344060314e-02,2.225047510892074476e-01,8.531942592628406763e-02,-2.688282458880066894e-01,6.596630205986910023e-02,8.806127328312164659e-02,-6.981948413980616774e-02,8.940224815042939477e-02,3.312016527671023808e-02,-8.293984528497146125e-02,-1.818203346119529884e-01,-1.656194553781270562e-01,-1.121832789922459633e-01,1.417633823440998982e-02,-2.319703487520695037e-02,1.986000808509199439e-02,4.080549642655031256e-02,-3.030309927336709633e-02,-4.824010778492512225e-02,-1.188517243055297185e-01,4.317157163753451710e-02,-5.670128514107286577e-02,-2.162548000871428455e-01,-4.934596790832781327e-02,-8.096242718708926422e-02,2.187153863256025704e-02,5.521858565949858133e-02,1.625868099663528021e-01,2.274895189418081332e-01,4.852141630736541561e-02,-4.761222150168437778e-02,-1.763655388549683345e-01,-9.245699701898862921e-02,8.044545675576847410e-02,2.414016546695704479e-01,-4.185958111475605176e-02,-4.729784680607763275e-02,-9.883380873858353677e-02,-1.229352972117206677e-01,-3.535772860281936603e-01,-1.698951721477146293e-01,-1.642220295941800717e-02,-9.404037027591934453e-03,-6.804017060074024625e-03,6.975508477371529514e-03,-3.750121569844280106e-02,-5.659557539145830367e-03,-2.892006053448207062e-02,-8.901874339899899791e-02,-2.032576004822389815e-01,-2.903639285278549753e-01,-9.268965671587309219e-02,-2.212830789336866222e-01,6.108407064102357870e-02,1.809227139285768393e-01,2.772451802436965984e-01,1.491789907994075515e-01,6.666581545172564627e-02,5.438595808146084315e-02,5.458570299848462815e-02,-9.530126590064936024e-03,2.764342661869833573e-01,2.449304338285004379e-01,-3.846920803868116717e-02,1.746756601556984367e-01,3.494786234621148624e-02,1.160993528486071180e-01,-2.948298394819788837e-01,-3.146127822127262608e-01,-1.530597382418829033e-01,1.672831521031730925e-02,4.075944293851634787e-02,4.051045162529790661e-02,-4.226306849478311811e-02,-7.495024656220304615e-02,-8.278263228156602233e-03,-1.961246058562684802e-01,-4.774032826398935669e-01,-2.033205198117015444e-01,-3.174454991980957264e-01,3.794168350732488731e-02,2.790752746344457580e-02,2.304341046776284263e-01,-8.803871873403149029e-02,-1.022969716288421316e-01,-2.293135698833050629e-01,-1.776049263609187079e-01,1.511601970879619672e-01,1.485912261226999265e-01,3.026870133762447623e-01,3.043809261253686560e-01,3.794244033106054098e-02,2.698790825972228191e-01,-4.467714168055577501e-03,2.910858542494128981e-02,-2.880616436039959982e-01,-3.122311273834965095e-01,-1.343467153283741389e-01,-3.962683346449209776e-02,5.582777870943402693e-02,2.820980264075587107e-02,-4.838700547791896511e-02,-1.422127869721471483e-01,-2.708709350412258701e-02,-2.006451579438144062e-01,-2.726886924162125192e-01,-2.814659299437587414e-01,9.006855946800787494e-02,8.639659948855736571e-02,3.627109567323504036e-02,-5.826608588046013754e-02,6.910790835452501613e-02,-2.917185500443748164e-02,-2.852916452327597940e-01,-6.550603146329078696e-02,2.785709294164792627e-01,5.021660232407233471e-01,3.670253310184017348e-01,5.051817924162134155e-01,-9.704591078580383778e-02,1.620491333049930982e-01,2.395551706343581333e-01,-1.208527623390809463e-01,-3.189139102489216837e-01,-2.131208751254054512e-01,-1.731197441873480458e-01,5.662484509885618716e-02,5.283522337698100951e-02,-1.810142444363484898e-02,3.045671379245203612e-03,-1.659183758373552753e-01,-9.559173906623841255e-02,-2.221558603620756578e-01,-2.685219994854091685e-01,6.349280225060265070e-02,2.647471670052705117e-01,2.169386274922495417e-01,1.820834645526188955e-01,3.113789476123059452e-01,6.473166448808172213e-02,-4.848295344572449428e-02,-7.297688937926630204e-02,8.914110139665168409e-02,6.958649955845062907e-02,2.138717903047588353e-01,4.322643897293844684e-01,1.621827316628987881e-01,1.334002042500576912e-01,2.893084977763942800e-01,1.224148865949139797e-01,6.902588340361857921e-02,-2.064294528512842231e-01,-4.294169525786887820e-01,-1.420271057894613165e-01,1.567995642256434299e-02,3.407276438006578284e-02,-1.353541597828799431e-02,2.442147493987663689e-02,-1.265991391455907611e-01,-2.387073585878355785e-03,-8.194020778323778120e-02,-1.111427227271044177e-01,1.240719798583833494e-01,9.537639156984650812e-02,1.504116034221975595e-01,-1.218371552987216333e-01,-4.347552208848405320e-01,-1.851282840033679766e-01,7.773469846284931928e-02,2.594927507269879086e-01,2.809057127025896827e-01,3.368232854400237120e-01,6.143337431219300648e-02,2.177666719944225115e-01,-2.385824040639696053e-01,-1.935804324361541651e-01,1.564442078932390678e-01,2.685568281696204540e-01,1.718997685368760936e-02,-1.708139854497886800e-01,-4.016462542350081044e-01,-2.113779595314452531e-01,2.732645834053516395e-02,3.130507352025075490e-02,-1.395814647311291803e-02,-9.879455927674152260e-02,5.296010694998967705e-02,1.582000893097589844e-01,-1.715397548495030955e-01,5.167528939055493487e-02,1.312416180252717057e-01,-6.099026732019035418e-02,-7.698437027586244041e-02,4.643877634582625064e-02,-9.601629477871481688e-02,-1.293466683508706361e-01,-2.381871420097994019e-01,1.322520989908560207e-01,1.146078621493832744e-01,1.964997838462435031e-01,2.404716759201563359e-01,5.669085346275096748e-01,1.235655546117555431e-01,1.570621878316259268e-01,6.992397449643836249e-02,-7.419479345824794847e-02,-9.477467064128457241e-02,-1.072235442643136444e-01,-5.503031023623280449e-01,-1.969685919161644483e-01,1.649550003836287859e-02,-6.135946482597568613e-02,3.768763848104431796e-02,-6.192349095286307781e-02,-1.596839353927977448e-02,8.581483923375371470e-02,1.149381479821807162e-01,-1.352919379098470043e-01,-1.423902501944040166e-01,3.890658119614734956e-01,4.312844689131521414e-01,6.112222651964501624e-02,-1.809086895031911807e-02,-3.870892605085882732e-01,-3.247130997374198524e-01,-3.208194780571569371e-01,-9.951539503271383813e-02,5.872660420045023866e-01,2.858572203908020803e-01,2.534089482687527650e-01,1.251117076715032028e-01,1.338358125104230356e-01,-8.151902849542205787e-02,-2.575398408172252518e-01,-7.448826088816919155e-02,-6.818071191370939088e-02,-1.500792837630713361e-01,-1.645470854620751655e-01,8.924928101240934414e-03,-2.890996453186879533e-02,-9.062780114247980315e-03,3.533134226394326304e-03,-5.200720738074410959e-02,-1.514252613799499658e-01,1.298622603924746988e-01,-2.396228555176104225e-01,-2.668060094445833808e-01,1.631811634682706624e-01,-6.095599236796170502e-03,-2.455005481943073053e-01,-1.823903190974606736e-01,-3.517045077590580937e-01,-2.771265621211524977e-01,-2.838183648689467931e-01,-3.526462426974008579e-01,-6.045797637495144844e-02,-2.958949739650646935e-02,-4.852324235443417760e-02,-3.134934658729445628e-02,2.425443343874072455e-01,1.921104974545511102e-01,3.031800434190251026e-01,3.826156327794314471e-01,-5.469087740404071640e-02,-2.877281339961622608e-01,-1.804563495400807460e-01,1.629348921120639393e-02,-4.300921358575959808e-03,5.560920184966344770e-02,-2.302617611377352075e-02,1.247594883599522676e-02,-1.903035144544925061e-01,2.295091056250881389e-01,-3.168091982001116635e-01,-4.747638816254434735e-01,-9.305579492075571890e-02,1.777927617088886358e-01,1.231339058642688944e-01,5.819091348283598336e-02,-1.226730422448072122e-01,4.350705221951730456e-02,-3.895047583278439529e-02,-2.983344927067395000e-02,-8.357766315123531242e-02,-2.729843054320317264e-01,-7.458165666626175028e-02,-3.557953911917310225e-02,1.918990033227861991e-01,6.567922827844425993e-02,2.827130004865850421e-01,2.448179081489786080e-01,9.728507565473373808e-02,-2.760577448275200463e-01,-2.779283716520480341e-01,6.208808974645517627e-03,-5.455374435551830353e-02,5.221040987158243746e-02,-3.950313229174090730e-03,-1.775417445725581411e-02,-1.093369889787338123e-01,4.098814466633383113e-01,-2.971602725498722064e-01,-2.650393569971503660e-01,-3.608111666702504827e-01,4.752331898730391413e-02,-1.958860856103556702e-01,-2.547359680625668754e-01,-1.668728721377041868e-01,-1.156689521697001899e-02,-2.572184534961042823e-01,-1.966054297314649424e-01,-1.011222579215092510e-01,-3.737197257855648380e-01,-2.864833461499696754e-01,-8.903140036959097947e-02,3.211753444557414183e-01,1.000957456884184610e-01,-6.885631264761346224e-03,5.847664253775924914e-02,2.188398371121330344e-01,-1.344281031308936121e-02,-1.595493419049754391e-01,-2.111998770702010371e-03,6.113948958307208886e-02,5.044521097327620690e-02,3.311996633792981676e-02,-5.582019749438201645e-02,4.911969593848033305e-02,6.594561725420082510e-02,-8.796822425744751928e-02,-1.997774851468202828e-01,-1.235105096757636856e-01,-3.075135038189892867e-01,-3.291084212495894445e-01,-2.319303022522945512e-01,-3.200037274674337739e-01,-1.237301633680389645e-01,-6.571402698287207023e-02,-2.640745148066552805e-01,5.637170762338312296e-02,-3.573002694168310733e-01,-2.077604722369876256e-01,-7.384574392425541367e-02,1.048835128938795658e-01,7.021310411821050923e-02,1.154373587368722059e-01,-3.565202253198735544e-02,4.777335748323897208e-02,-1.568415633437305057e-01,-1.299541746414099863e-01,-1.006374632231774036e-01,2.156745664179734318e-02,3.433576977034078631e-02,1.553363139204715603e-02,-5.667775467253299143e-02,2.128273119963168189e-02,3.672195094029758744e-01,8.929144275741811299e-03,1.038822000334948675e-01,1.219644277991025622e-02,-2.519755314277472014e-01,-3.600197884445131002e-01,1.554810856651163767e-02,1.566631312567125511e-01,3.206910472023706549e-02,-1.701753542903515770e-01,-2.601461276043636195e-01,-7.143223053172534365e-02,-5.357048480835231719e-02,8.011520967912859337e-02,7.297145938446260305e-02,-2.003968181717900518e-02,-6.543480023881778629e-02,1.027113791308253699e-01,1.881977877601232474e-01,-4.271246228757850233e-02,-1.238910300995117869e-01,-1.310561137709627573e-02,-3.516574792515601150e-02,-5.972706739276641835e-02,3.727165001863127353e-02,2.491534161795793539e-02,-4.947891033192480803e-02,2.170827392333454092e-02,4.373667077975179618e-01,1.890792326238086574e-01,1.306729767165250300e-01,1.280199098940097424e-01,-1.098785200084164415e-01,3.462064442324213655e-03,1.896055728901966109e-01,1.386118805410572509e-02,-2.030375370222466461e-04,-1.014725781759309581e-01,-2.371640037160886449e-01,-2.256401758498599031e-01,1.236426969287067815e-02,-1.495832096011496248e-01,-7.920441873829778268e-02,7.722022014172086335e-02,7.574838738637888758e-02,1.553911194523731609e-01,2.917543368520949532e-01,1.717027808163715252e-01,-2.594752553125975053e-02,-1.403035303252414719e-02,-1.962885799162993397e-02,1.918380117685446890e-02,-5.457070629865808098e-02,2.420910098617541639e-02,1.502357996633054554e-02,5.816535854782668713e-02,2.600754938548741624e-01,1.178452284648831561e-01,2.544220222709800069e-02,-1.036617812764216162e-01,1.367323233481008331e-03,7.934715501017962358e-02,9.981734791431158549e-02,-4.415877729750264380e-02,-5.780997051339441251e-02,-3.624353259867474364e-02,4.285678751952625570e-02,-8.164653335327343164e-02,9.196949014531764777e-02,-5.418748836307066274e-02,9.685686079541924731e-02,3.573994885084121748e-02,4.530941458015238371e-02,1.021485686951452143e-01,1.057780823553690075e-01,1.360709177571512579e-02,6.349065905982603786e-02,-9.967625427223030313e-03,-2.708435205905843079e-03,7.738444061077313918e-03,5.064395644328798657e-02,-4.645273391164500554e-02,-5.429122673217575551e-02,-1.011587513315621509e-02,7.242536936226724731e-02,1.635195535917444432e-01,1.115134233918255863e-02,8.390336801971317454e-03,-1.639967900211246887e-01,-2.320883566579627355e-01,-2.119753707892709296e-02,1.602930439127896612e-03,1.245052929112546169e-01,1.059141051632727926e-01,1.483512385165988989e-01,-1.343769769982687545e-01,9.887467909445410430e-02,2.491870242527646218e-01,8.197254010291815662e-02,5.256429622543697111e-02,2.583241990749408218e-02,8.483550125769739880e-02,1.095750771114642613e-01,2.403569432588352484e-02,1.207451839822831080e-02,-6.919158687912860262e-03,-3.671356056123071393e-02,-4.127712825436272159e-02,-6.149019700812186767e-02,8.678928312619238472e-03,2.201188495645014717e-02,1.491255477172893744e-02,6.453428031911667695e-02,7.176882898699651903e-02,1.013352707680355291e-01,-1.319512438734133097e-01,-9.708719182255659552e-02,-8.969356349287498087e-02,6.750911252340044411e-02,8.333985614361898164e-02,-1.072407520088739311e-02,-2.941546557537552675e-02,4.498188760548063603e-02,1.107087129616260851e-01,1.886236671982576829e-01,2.697320486725370836e-01,7.877185977933913452e-02,3.231262106885266633e-02,-4.815048797481712856e-02,3.317141622134294615e-02,9.444843008123418593e-02,-2.447530091679354924e-02,-1.989348022649869638e-02,6.025875090593241917e-02,-5.658530177672999734e-02,-2.163018766805052673e-03,-4.106280314317421049e-02,-3.670665097759388817e-02,-3.228920878302888459e-02,-5.417355711207101632e-02,-6.267130385174455795e-03,-2.474034631716965152e-03,1.135595727475069427e-02,-2.213045751241251441e-02,-6.999181370394262636e-02,-9.932019926718280156e-02,-1.563111872394834165e-02,-2.455685726799462440e-02,-1.484852820592008973e-02,-2.811969370713079258e-02,5.562849937222626856e-02,3.507514590696197282e-02,4.627967134119710668e-02,1.964811926079796864e-02,6.393870820238257979e-02,8.081549524549186403e-02,3.818077334272904078e-02,7.221138534202057799e-03,-8.558423148871325756e-03,5.590884024871940056e-02,3.369089098292283452e-02,-5.264111557216766268e-02,-4.888044022954634443e-02,3.032091942816151492e-02,3.915872225493122888e-02,4.173278410735702798e-02,-2.691049631922610985e-02,-4.327079509764365783e-02,4.268190084725644951e-04,6.819465084599821147e-02,3.084615687609368068e-03,-2.009592731162571436e-02,2.328315639447109398e-02,-1.914847241792962118e-02,-9.828405677303057517e-03,2.983174414594987750e-02,3.696568948304201213e-02,-2.765791685812284822e-02,-3.699575117829452531e-02,4.953848137031167248e-02,6.069044052499559389e-02,5.272171687980042876e-02,-4.508112078939977008e-02,2.890355035855810342e-02,-4.138496755582883775e-03,5.617997516726531276e-02,3.160337708512889893e-02,4.871444720086545027e-02,2.525335625250307164e-02,3.851666068488401179e-02,5.275762251295883914e-02,3.915570979526471901e-02,-2.118773701150845207e-02,-1.142897948684826887e-02,3.280818187424216353e-02,4.492229466152013184e-03,1.124541884441878498e-02,-3.433900867431970844e-02,4.743129356405835495e-02,1.346622645741804873e-03,4.066277503058295800e-02,-4.478686468905676565e-02,5.059919143265208946e-02,2.094462419643720874e-03,-5.729311419300330693e-02,-1.020864287771446749e-02,-4.070759426371525075e-02,-5.602220322043310885e-02,-5.357954969034815773e-02,-2.001140235588033667e-02,-1.179656080265247334e-02,-4.724285259741274612e-02,2.187732713068014229e-02,3.762979300330681481e-02,-2.030130376991599178e-02,-4.933322003897235714e-02,5.394574220948869514e-04,7.236934715052038836e-03,-1.251183117390990140e-02,-4.153556723361177538e-01
2.816452471930184359e-02,1.362902350309585370e-02,7.014499421044796679e-03,-5.265502468530774971e-03,3.121642388775210802e-02,-5.930767029449124372e-02,-2.577882872876782056e-02,2.742437955884382411e-02,4.752136344021019171e-02,6.755125327622690107e-03,-3.198057234497657213e-03,-3.574209436812274265e-02,-2.635337981724819589e-02,-1.045850563049666171e-02,-4.998286841105646638e-02,-3.410081201969472620e-02,2.609513866195032478e-02,-5.739138067956281453e-02,9.205428321827406613e-03,-3.501574124809246624e-02,3.103671318150279940e-02,-3.795100616183517961e-02,2.517035840747359338e-02,1.593537361595940421e-02,-4.886487805467445988e-02,1.606462556397330460e-02,2.250024500860849791e-02,4.504044906829573341e-02,-5.556743130987654850e-02,2.363059844309702701e-02,2.029417970083590567e-02,1.025911415305354873e-02,5.778714583675868821e-03,4.152770195374057283e-03,-3.141773616156433302e-02,2.504529488730473930e-02,7.296704653895142508e-05,6.901103557916775377e-02,-1.151936210593318931e-02,2.458527898825797059e-02,7.374573697172904195e-03,-3.299927243693729501e-02,-5.132253774549495884e-02,-1.833032906207923002e-02,1.453947681585595481e-02,2.305225647232959224e-02,1.798613490501104611e-02,4.677389517191647000e-02,3.199766914746973029e-02,1.307608459211802299e-03,2.739890956461015631e-02,-3.154834432538551614e-02,-1.279755135785098225e-02,-5.431979636184127574e-02,-5.328294111768609731e-02,-3.276916267273755068e-02,9.705463414804528510e-03,2.054120889790158472e-02,5.571542515000072610e-02,-3.130858992310055211e-02,-1.687322913385638778e-02,5.867045717443765407e-02,-2.386435083862911699e-02,-1.690788795398010663e-02,-5.428774627732629865e-02,2.178822512666169289e-02,-5.469562023017481879e-03,-4.347097446252168318e-03,5.391170840939932263e-02,7.015797368730966599e-02,-5.787863737631849387e-02,5.232214857937064756e-02,4.732939327483635245e-02,-3.347216335636197387e-02,-5.157882415484835864e-02,-6.109568492476252777e-02,1.516154648228242550e-02,2.281035672388619009e-03,2.918893580473243352e-03,5.325503304961897583e-02,4.042312668766481071e-02,-5.127014233407273941e-02,4.628741192713198976e-02,-2.039542930128134673e-02,-6.039776557355297504e-03,2.346493566548892712e-02,8.352799999754335902e-03,2.773314733541158011e-02,1.246367101372307037e-02,-2.325294022418114559e-02,1.083742534928098730e-03,6.818192107308740368e-02,-1.570298381333460475e-02,-7.271406881139666489e-02,-1.418135558586514633e-01,-5.984921944117851944e-02,-1.819330373560101161e-02,-5.742583570181324787e-03,-4.053747357715267730e-02,5.519521054003810601e-02,-3.939623276871206947e-02,7.921945861402239150e-03,-8.124100099364163496e-02,-2.581465490825545633e-02,-3.013994774039495048e-02,3.880423309448898395e-03,-7.978624490651997636e-02,4.262030609844944667e-02,3.010292947725793505e-02,-1.552034521478707491e-02,2.247274119385641450e-02,7.132401572661137279e-04,6.338451513812938531e-03,3.828337536881457753e-02,1.247795377111516474e-02,6.309481490147941796e-02,2.116193188665384597e-02,-2.500106725548192910e-02,7.515320808713332745e-02,-4.806994758983902660e-02,-9.889767701547043377e-02,-2.197764435258478255e-01,-1.131514938257467962e-01,-4.974951664186312572e-02,-2.397271335062345354e-02,6.159471676123557532e-02,1.357391405511167159e-01,-1.449191973650952071e-02,-6.263030335930300230e-02,-2.353486826261226713e-04,5.327907776877455204e-02,2.097031904891717008e-02,-8.486132000197554870e-02,-7.105558782569112997e-02,6.239787854762278430e-02,-2.021570979711066404e-02,-2.097525387937197727e-02,-4.758396042749443722e-02,9.344056472233068511e-03,4.040694627438547876e-02,5.172980814948723721e-02,6.886246204855159259e-04,-2.102822659933898872e-02,3.232455919054347954e-02,3.447003385503144557e-02,8.412882917281359896e-02,-3.083351744915106135e-02,-1.686614955870273103e-01,-1.430966537796326821e-01,-1.663169864580756052e-01,-1.691061938012237698e-01,-1.273759355495156231e-01,3.592183966212413732e-02,1.005141095636028076e-01,1.948691048866604825e-01,-1.004719981355014190e-02,-4.773567181964467193e-02,-4.300565896467935245e-02,-2.215999980641022993e-02,1.502383027529230995e-02,-1.546154793478777267e-01,-5.282605279984543128e-02,1.700615424315152918e-02,2.555719276540065546e-02,1.015479067291213781e-02,5.247173151011580439e-02,-5.760743886016957138e-02,-5.309294771875083807e-03,4.364233510425315210e-03,-3.715700034897900794e-02,-4.172812460678527319e-02,-9.332305952945116334e-02,-5.987103082366648787e-02,-3.416171522417028872e-02,-1.347555923057903171e-01,-8.748731144286291117e-02,-1.481075691937888336e-02,-2.626468090789560450e-02,-2.465231883678377714e-02,6.256738004366191840e-03,9.005025472378494489e-02,2.031263935096575546e-01,7.167502281772301920e-02,7.932303989575342773e-02,1.526774175275644185e-01,1.228809381775195775e-01,-3.893913053348580650e-02,-1.216961184452840239e-01,-2.294465292615359975e-01,-2.019089579519000033e-01,-1.492932719733068292e-01,6.745564681773641436e-02,2.261742046598511427e-02,5.788600232040101712e-02,3.569380995406685325e-02,-5.050657866134584256e-03,5.187243412908764534e-02,-4.062229854889687353e-02,4.322391362744478632e-02,5.648196765006014558e-03,-1.356858050190369071e-02,4.855356376217844633e-02,-1.005474822866693069e-01,4.289507692088552482e-02,5.560682836330812367e-02,-1.581230553165471620e-01,1.562295726267790529e-02,1.763671188814484869e-01,2.046234604080151565e-01,1.000086455020438164e-01,8.338974536264459614e-02,1.706783523740835196e-01,1.705976306670061171e-01,8.792705732428116039e-02,2.333054030281398739e-01,-1.038769464183515734e-01,-4.305654134475504491e-01,-4.052318217019612590e-01,-1.209926816291374968e-01,3.162314608548666265e-04,9.815496440501669806e-02,4.053869493716961286e-02,1.643872838972736117e-02,8.897686839000225334e-03,-3.891088889759539149e-02,1.721210566691486199e-02,4.858975041165761871e-02,9.156527368038287762e-02,1.296596247093657062e-01,-1.262154185337809598e-01,3.413191612036827610e-02,1.595602861802003503e-01,4.079817350159004562e-03,-1.115574763771474132e-01,7.307773481284389472e-02,3.315630493993279027e-01,3.436031526216656307e-01,2.649939342924388930e-01,-1.943846813046039507e-03,1.256031940324850715e-01,2.651000770243998050e-01,2.762748750365703332e-01,1.920249048619113996e-01,-7.468987577622074325e-02,-3.723639623418385503e-01,-6.034913911180325163e-01,-3.246873036668593282e-01,2.639820385173827916e-02,5.258654083159643167e-02,-4.814725228354298225e-02,7.017160082997349335e-02,4.377979826968950161e-02,2.856042820770714891e-02,4.920270289894859012e-02,-3.175937812890485684e-02,-6.408721245697832081e-02,9.980016086494016350e-03,-1.303097171761457840e-01,1.242631355542394844e-01,1.217626091033824354e-01,-7.213987568240091963e-02,-1.742691060398070604e-02,2.870674503801236566e-01,3.243550990023248981e-01,3.127545957156059875e-01,4.260446417443839590e-02,-2.360972795775680699e-01,-1.171235170893030614e-01,-1.034099600747184489e-01,-1.072043035175770376e-01,-7.270616708115812399e-02,-1.566698172357079422e-01,-4.387408039314826813e-01,-3.120260405998017683e-01,-1.183411498893388175e-01,-8.082192467114365786e-02,5.925130102760205186e-02,-3.587205064206999694e-02,7.904372643176241220e-02,-4.298020625355699481e-02,-6.051372738645884736e-02,1.814038786750738277e-02,1.590956866709971815e-02,-4.903427430428938805e-02,5.895973263639175954e-02,1.228854676073519447e-01,2.503556009489054102e-01,8.403517229628813812e-02,7.667617066513439557e-03,-5.365190450919209847e-02,-1.093803324204712241e-01,1.574531029720212805e-01,6.004032567588626218e-02,6.174271356255404963e-02,-1.077380076436852546e-01,-1.841101716751823991e-01,-3.486625056166257897e-02,-9.398506871834956533e-02,3.643234133124549114e-03,-2.475804242663898758e-01,-2.494090322897536405e-01,-1.630719877743281865e-01,-3.421667665434461880e-01,-2.194724141850801780e-01,2.981807488634153139e-02,5.960065408529180431e-02,1.654230090079517046e-02,5.043258819554480299e-02,4.282195266600163225e-02,4.373547910321384791e-02,4.820172558456560508e-02,-8.348866116449317476e-02,4.177430225796449625e-02,8.149652426191918153e-02,1.758275456988191111e-03,-1.289874060411090317e-01,2.898601066302541884e-01,-3.667374475588570243e-02,2.556458563842582965e-01,2.321754269426160311e-01,1.224775212453125817e-01,7.146902085378091518e-02,-1.390908915794887291e-01,6.523009590273200209e-02,2.157305064525504856e-01,2.099423179273768036e-01,2.668620678615318820e-01,-1.114957315243945701e-01,-3.085194167253975661e-01,-2.018141425894935947e-01,-4.443531476932576774e-01,-7.030756169985680204e-01,9.426423693549658422e-02,1.429746332370489259e-01,6.725301036389515208e-02,3.319124856602735651e-02,5.762175750619478315e-02,2.105811146370406214e-02,3.326511310737619714e-02,-2.543573192350519208e-02,-7.441709908432837806e-02,-1.245248602935022930e-01,-2.602624886097000267e-01,1.878774218380904193e-01,2.189982818274199827e-02,1.142999569027654538e-01,1.382579412726895329e-01,2.221462687458450325e-01,-5.057029777899404305e-02,-3.380154026679191986e-02,-1.011460060721944415e-01,-8.785859987284551365e-02,1.829434893849640753e-02,1.251378522995391929e-01,2.553169748416143636e-01,-1.023892201043091060e-01,-2.625751036364601942e-01,-1.140655293601201409e-01,-5.390433065667590284e-01,-6.956146502505820006e-01,-4.680771377862461002e-02,4.245533318720910027e-02,1.000736621935303522e-01,-2.673487376396481083e-02,7.600143057634005384e-03,1.982031263745531388e-02,-2.059633056950375268e-02,-2.025328695732596385e-01,-1.731330535134572579e-01,-3.820484094551770404e-01,8.256326150007363418e-02,-1.660814017957842337e-01,-2.017812081217629228e-02,1.314461714433968753e-01,1.332831504862069250e-01,5.766356435168812355e-02,-2.352363391695741490e-02,-9.976877556846461270e-02,-1.349032775758650105e-01,-1.193916580462537763e-01,1.017423429542327618e-01,5.659624254836780333e-01,4.365599826767085911e-01,6.088160415833796663e-02,-1.930757191521356997e-01,1.451292295214530979e-02,-5.604941029647747541e-01,-5.064975768188780814e-01,-1.677031322489942466e-01,9.643944574609628756e-03,3.477080793913930878e-02,3.256705157333476819e-02,1.460600831904356606e-02,-4.617319798216502902e-02,2.834936587127452265e-02,-1.446262349103039635e-01,-6.713627139871163052e-02,-3.038477789014408237e-01,5.971782848877480593e-03,-3.441599315269225356e-01,-1.287185294560868054e-01,2.091775678047551323e-01,8.125818721763048563e-03,1.977573354796840210e-01,1.323631356877645882e-01,-3.820440709240812555e-02,7.915564758875759388e-02,2.594966335804725355e-01,6.964902611940876342e-02,3.718565425232061572e-01,4.002582237194449721e-01,6.226671262413653596e-02,4.348017871754777247e-02,2.335771178996085551e-01,-3.416361868000644675e-01,-6.382504668313015994e-01,-1.022244188208576848e-01,1.062575839931914207e-01,9.208448339888673784e-02,4.411252510986029586e-03,5.283955424067814793e-02,4.938567894561807919e-02,-1.920253510197025815e-04,1.333558921257242402e-01,5.216111439438935599e-02,-1.282150144773930023e-01,3.631568756620890542e-02,-1.139796014765649818e-01,-1.082062212664985368e-01,-2.253165968166126187e-01,-8.092194895167729995e-02,1.265936839121781232e-01,1.169338646676220533e-01,1.113150398989088963e-01,3.183654257510432628e-01,1.893594234918929142e-01,3.513878745739322240e-01,-7.482435945252183772e-03,5.330262668796578035e-02,1.764213755036537004e-02,9.011817423758849976e-02,2.300555595345690763e-01,-5.913943019936314383e-02,-4.481220528747703047e-01,-2.009227564898522778e-01,1.407328330532040261e-01,1.467868920547905354e-01,1.587304629007408457e-02,-2.632977904901742661e-02,-3.015077707495374473e-02,-1.075518419707970769e-01,2.358320006910954447e-01,-2.649960765337779425e-02,-2.975364522027851844e-01,-2.321034945968716012e-01,-1.208705004315186182e-01,-3.107463359979342199e-01,-2.884609926344547937e-01,-1.447778078045301453e-01,4.936058304661877782e-01,2.288794940182508897e-01,1.234953295803620649e-01,3.074539607693799748e-01,8.614779980528638678e-03,2.428086356257853629e-01,2.940693973366566571e-01,1.522568273528858707e-01,-1.420925492292200998e-01,1.595000063013656266e-01,-1.928963219682408928e-02,-1.787611983964744466e-01,-4.364163873419612538e-01,-1.181060532607890734e-01,1.877309062424397379e-01,1.080374037631972109e-02,1.114545665489254447e-02,6.016421418922522635e-03,-4.964781338533506838e-02,-2.681341932713632303e-02,1.233104032233734437e-01,-6.741876400025386892e-03,-2.037279373970706520e-01,-2.444628225053905313e-01,-3.193787843164795914e-01,-2.560894952379104694e-01,-6.094956638512191022e-02,-4.102476078654546804e-02,-2.046737722831500073e-02,4.428939888377048800e-02,-1.572860590417852755e-01,1.275404740689116967e-01,1.944290832094531241e-01,7.381548539139176808e-03,1.310017861841999975e-01,-3.226441540031666638e-02,2.510400492759380653e-02,-3.337401124938249586e-01,-1.223430645565002778e-01,-1.200346012740342444e-01,-1.414344091162215988e-01,-1.780448376432822999e-01,1.153149110883995160e-01,1.242193908021159976e-01,7.591988259226237212e-02,-6.302586045104585644e-03,2.734703302982357392e-02,-4.972561121596735627e-03,1.661059863003401527e-01,2.852190861328987234e-02,-2.800592573024616172e-01,-1.137280153462115612e-01,-3.735316265536124392e-01,-1.457601344103079677e-01,-5.036513227497691619e-02,-1.520719341069861619e-01,-4.920715908159499496e-02,1.140014997398090951e-01,1.065402434165960976e-01,2.883173607720940224e-01,2.119350518525405791e-01,1.315027282123878982e-01,5.966187375450374142e-02,-5.422252917468219774e-02,-1.280267573106077528e-01,-3.564675705469299016e-01,-1.156905204552731853e-01,-2.035628932957463111e-01,-1.369303211071170867e-01,-1.334529538956308325e-01,3.675212118339085676e-02,3.629237527865039614e-02,1.980215931816392896e-02,1.054334515104912023e-02,5.800373493734280878e-02,3.137638151558501398e-02,1.903524247286637883e-01,2.011175576976586415e-02,-3.010034993837223949e-01,-1.834958504959955106e-01,-2.253898944897557988e-01,-2.047127743588958992e-01,-2.436742565673228056e-01,9.345493273998320416e-02,2.751653790738013972e-01,3.147016052179783807e-02,2.045612213865815321e-01,6.634286845378317699e-02,4.748916071724917365e-01,1.908387382594654846e-01,3.176618914424158002e-01,1.014135841906576435e-01,-3.264892195530014196e-01,-3.082341001092721022e-01,-3.463640074223222065e-01,-3.143794703226364673e-01,-1.548475866246878108e-01,5.509188332485128597e-02,-2.612950051424650991e-02,3.901241807433842440e-02,5.361585148994837957e-02,1.673284666406229387e-02,-4.986785622146209379e-02,4.790137885110788002e-02,3.600214330552722886e-02,-8.128434783355058257e-02,-3.126046570371621147e-01,-8.743445682065384417e-02,-4.088473686715048822e-02,1.334421951102720272e-01,-1.019663783936379936e-01,2.966108098011015562e-02,1.053797778468852503e-01,1.082254648619773441e-01,2.690246766250913857e-01,2.198376503583599206e-01,3.233015451955529307e-01,3.485810644234425548e-01,2.824826664462030124e-01,7.174249051554087986e-02,-1.646165405907695500e-01,-3.220301474121190499e-01,-1.486177935765775893e-01,1.334065722360111041e-02,4.011479891083845339e-02,2.211725705367334829e-02,2.319762504111682472e-02,-1.409859535435150149e-02,2.031467799983734807e-02,5.880375414905535808e-02,-4.739742818260911372e-02,6.201385904278150854e-03,5.181517010051961414e-02,-9.854338905812984328e-02,-1.106373543557157280e-01,-2.567626969513566171e-01,-1.174886312904253882e-01,-1.410449022318706856e-02,-2.311548135394697334e-01,-8.242528397476094840e-04,4.527050436287911039e-01,1.767154916581109847e-01,2.208747866609307442e-01,2.060264654849444654e-01,6.236402364342687882e-02,-5.124074369476762369e-02,-2.300600679756160394e-01,-2.737778796072764531e-01,-2.170015471499060766e-01,-2.578989653303910834e-01,-1.802435960464780218e-01,-1.041939372932126351e-01,-6.921154862186541801e-02,-1.005895670525576262e-02,7.599552458499644891e-02,-3.454284702838564258e-02,-1.985027756260187085e-02,3.592338863781745911e-02,3.287247408494591711e-02,8.429581673504833728e-03,4.160916780588456987e-02,-1.012390539833220443e-01,-1.391016985008068918e-01,-1.598573012273662164e-01,-1.274397226099524272e-01,-6.239192468387684543e-02,-2.122232729564252629e-01,-8.842447321650477587e-02,3.255808398566195638e-01,2.846697678293623190e-01,2.616282680662020965e-01,5.219221692211398755e-01,2.424877466216741884e-01,-7.545420014964389355e-02,-1.962824549100281590e-01,-8.498249875162436351e-02,-2.209210052819679526e-01,-1.168782072198471661e-01,-1.637293343801337897e-01,-1.240311392364313453e-01,-6.272999302319912616e-03,1.905403175475937211e-02,-7.199470291053785588e-03,-4.267592111738909531e-03,3.289893206883389570e-02,-5.868196023509665571e-02,5.739154906010635743e-02,2.037199570442368643e-02,-2.235446451140271976e-02,-1.047271432522986767e-01,-6.285143841612036986e-02,-1.040908020787776611e-01,-1.093933795500716677e-01,-1.239355891990154140e-01,-3.120253819850080657e-01,-1.718884873316445794e-01,6.557864546560376873e-02,2.426940783798436918e-02,2.594473228401575349e-01,1.507813725723809450e-01,1.358362305156791960e-01,5.824559490068838968e-02,-5.396002232852840225e-02,-2.830478800386630397e-02,-3.232449995229952355e-02,-8.789613519705762046e-02,-2.821984559744926402e-02,-8.052875400821959961e-02,-4.545715771717312968e-03,4.725136208196101641e-04,-5.176981425402309850e-02,-6.594926698728104109e-03,-1.821531350471183863e-02,6.067828888901229817e-02,2.270869939549697430e-02,-4.014254419081945274e-02,-1.500164328813378273e-02,3.417277665187427871e-02,-1.156810016465944502e-01,-8.463790337518704854e-02,-1.112992141905305016e-01,-1.544683528035427911e-01,-2.262969786672494876e-01,-2.313212503561050126e-01,-1.866656647449400630e-01,-1.353613867479662447e-01,3.233566173982823505e-02,-8.105852609250566165e-02,-5.673578718735915183e-02,-6.470329944166725022e-02,-8.011129673454475686e-02,9.052598859532672015e-02,-2.132779843195124411e-02,-1.227478867079948022e-01,-1.365027338536889678e-01,-5.092673195224553528e-02,1.810052809303512589e-02,3.497001368897199175e-02,-2.956522941178407055e-02,-3.769511138431189817e-02,5.178696680953166070e-02,-5.649701703401774355e-02,-3.416021778654262930e-02,-4.767734437090828670e-02,-3.821369855122146164e-02,-3.695516735057331748e-02,-8.176267869254633114e-02,-1.108681777638662047e-02,-4.516890613011018824e-02,-9.261080767779190925e-02,-1.185243418028024409e-01,-2.160459510587029175e-01,-2.932107222445013983e-01,-6.234428925251141521e-03,6.102232702662418323e-02,2.320188422022180161e-02,-9.200439871558634131e-02,-2.097232228905116999e-02,-8.231418247096856933e-02,-2.935765675030818991e-02,-3.009682013674503179e-02,-9.601869613825808831e-04,6.001857084979665691e-02,2.110230139042496358e-02,6.121927584284536650e-03,5.159624866444671026e-02,9.140077749647167182e-03,-2.832802676207056558e-02,1.932667075225275727e-02,3.962744946309045696e-02,-5.667507819382580636e-02,2.182108269709594900e-02,2.708883822212441311e-02,1.097161761251180638e-02,-3.441094759059450808e-02,-6.121333662739605885e-02,8.855266168930429199e-03,-8.323422416549160208e-02,-2.435583168422762734e-02,-1.664183472981650980e-01,-1.484968127877003274e-01,-3.609251897217392174e-02,7.348080578795254886e-04,-2.368403405217329311e-02,1.070385220379178534e-02,-1.817023189813775710e-02,2.884400959020191023e-03,-7.294960563883458315e-02,-6.416675654527459471e-02,1.113441006002083983e-03,3.707078097023010915e-02,3.380071789676417776e-02,4.709244048065337751e-03,1.210851445784345837e-03,5.850160640203264789e-02,4.539289785028705754e-02,4.325715759334699401e-02,3.445712129378445537e-02,-4.852983268357653063e-02,-4.237348341730977352e-02,2.834095456355057580e-02,4.886264944981260488e-02,-1.645790372105507965e-02,-4.511774949971610743e-02,3.624872094749710671e-02,-5.859717665469927825e-03,-4.901023655553869013e-02,-1.299542432721402345e-02,3.755173407553678150e-02,2.841959846498124526e-02,-4.306027675097766350e-02,-4.897179212912215057e-02,1.134938126426894740e-02,-1.532582255477956193e-02,-6.361860348544087773e-02,3.117704786381012613e-03,4.527471039638286676e-02,-7.978609461116170642e-03,3.256042075123468521e-02,3.185073709713474172e-02,-1.440099556344979354e-02,-2.416623801806323801e-02,-1.542471228383791859e-02,3.482039765291414929e-02,5.802067091692143103e-02,3.934618232206556210e-02
-2.765105154718862368e-02,5.949488924324358025e-02,-1.534771190812792008e-02,-5.034475077548062477e-02,-1.963202259775920222e-02,-4.395143034302244345e-02,-1.345690203369178523e-02,-2.394795351214049767e-02,-5.052525682214585590e-02,5.858367721553160712e-02,3.160438044101352567e-02,-2.685180122638964814e-02,-3.290483046318237736e-03,1.025289403851138009e-02,1.906484398653601059e-02,5.346443815105830083e-02,9.920411816475911693e-03,-3.986908128530376738e-02,3.253070465598275479e-02,2.299926567278905154e-03,-7.428655253143824633e-03,-3.718315710166381766e-02,-9.119926761064101051e-03,-1.239610433414778390e-03,4.134009066399100402e-02,-3.550150571916659004e-02,-3.813694109551227229e-02,4.649390995399236420e-02,4.703674417907891675e-02,-4.727611716255758489e-02,-3.143846617191767279e-02,2.133866019761841010e-02,-2.565682893786028901e-02,4.622977220704662521e-02,1.696918721289401855e-03,-2.828765504531407723e-02,-3.207737745137896612e-02,2.314596038608896303e-02,6.038321225264085823e-02,-5.218961290725675217e-02,5.331780440261765786e-02,-2.577847200626380217e-02,-8.133158166368420483e-03,-3.212583751285016942e-02,1.240631942517115421e-02,-2.027308158290462570e-03,1.530491621617919434e-02,-2.793882096049950248e-02,5.133747266902915357e-02,-5.990628878294268489e-03,-1.356898030833329077e-02,1.899641935723365288e-02,6.109046546454314358e-02,5.872708157622356234e-02,5.116651236963754706e-02,2.650994769710938309e-02,-5.124265849718010607e-02,9.323335302482076148e-03,2.137559759083085265e-04,-4.688376529223631933e-02,-5.564974368678803074e-02,5.893439083521899435e-02,-5.231537309757409299e-02,3.095937467932178069e-02,-2.080442732598883002e-02,-5.843722902307098982e-02,1.418726727770717490e-02,-5.605058955285844441e-02,2.210455792660703800e-02,-1.964449638256456424e-02,-4.695621428815616866e-02,5.956036444221941839e-03,-3.187385724530844566e-02,-4.645376234918172781e-02,-9.801185087322607931e-03,-3.748439007608238283e-02,-1.303514214901933463e-02,4.229419256129710730e-02,3.645700649096596940e-02,1.163278313869301611e-02,-1.356673046692646184e-02,2.295141152343994212e-02,4.886250471277104462e-02,4.075314244599507335e-02,6.094475356604213412e-03,2.470546985355010633e-02,4.986772492842331955e-02,2.294625708619831006e-03,-6.805899986288036288e-03,-5.924188415387302703e-02,-3.205289408971296466e-02,-1.530336907436050629e-02,3.039319247154836229e-02,-5.894020816797233830e-02,-1.096171688235502290e-01,-1.041347319667457610e-01,-8.878149549322975065e-02,-3.953350794512582728e-02,-2.066760724609007296e-02,3.998631415777782749e-02,7.491494898893493078e-03,-1.456271832965481093e-02,3.112438640477624766e-02,3.615150712611400752e-02,2.703763684367689255e-02,-6.246056409096915896e-02,1.101611641655732624e-02,1.723244889970298316e-02,-6.418860398259318943e-03,1.709059603816769773e-02,-4.226771731496612589e-02,5.432043276908083557e-02,5.429590551674353532e-02,-2.033798649613762638e-02,4.646975140069330851e-02,4.058681152000872400e-02,2.915578378151692518e-02,6.451956675137827946e-02,1.763162686836884999e-02,-3.982972998846763535e-02,-1.147798261015656185e-01,-6.614897528758009737e-02,-5.934363547258386662e-02,-8.578417467517922279e-02,-3.202216003589572479e-02,1.097019142260864250e-01,1.062460754230029614e-01,8.873525903284566752e-02,1.322872345216965784e-01,9.939670680143954107e-02,3.168440962825570806e-03,-4.011635849804211923e-02,-1.400369071499765923e-02,-8.887277369279344974e-02,-5.587390773500321844e-02,-2.286403294289089325e-02,-5.201671679039602397e-02,-2.025269681542455832e-02,3.424120816159120090e-02,-4.135978302387727235e-02,-3.117791325346485828e-02,3.826419993774909240e-02,-1.719138650411828131e-02,-5.502956181589024887e-02,-2.812223254320703192e-02,-5.269500571632034641e-02,-8.355036181584853117e-02,-1.742388069154913177e-01,-4.416644169624669297e-02,-7.148723250845151478e-02,-1.570435979920943581e-01,-1.002984202958511206e-01,-1.936220966829650322e-02,1.312344148861062376e-01,7.773199116863192815e-02,1.326969973451448681e-01,1.120332175687648382e-02,4.838462399052542717e-03,8.635692300300300273e-02,-1.029758381524193689e-01,-5.445616218426373861e-02,-9.579323848661006058e-02,-4.442448838776523468e-02,-3.075116256975235149e-02,7.796195732443425563e-02,1.346132455653016764e-02,5.440176037755901917e-02,4.518525885493999972e-03,2.449919861029687534e-02,-3.904251925638051179e-02,5.875988052653625254e-02,7.109033157541209957e-02,9.688825310595870766e-02,8.163516578046321748e-02,6.129603463451609863e-02,2.652054058599192035e-02,-8.173973448991905810e-02,-9.553657127094047213e-03,-1.173736038895044770e-01,-3.967268261799559298e-02,9.485419393486649309e-02,2.204902576372672618e-01,1.663453010709014523e-01,2.283180905444940900e-01,1.552419417937599411e-01,-2.133672360470774410e-02,-1.084937040818103604e-01,-4.028020331668467902e-02,-1.924864952635654269e-01,-1.171777251105561857e-01,3.511355763314692735e-02,7.026384994022642771e-02,8.249213748082331876e-02,-4.336276364501264607e-02,-1.894969268473034943e-02,1.086138874326349375e-02,3.348299742080810409e-02,-3.670965146726698491e-04,-4.158967911432453340e-03,6.504449977708487429e-02,3.324497758515936041e-02,8.107725167613700351e-03,1.599592013358845100e-01,2.093988548773509650e-01,2.117179636781386150e-03,1.889657295396883485e-01,-4.938806536328688851e-02,9.342187725251249741e-02,1.009992500927524711e-01,3.816657754380707313e-01,3.945741684671443261e-01,2.862399031338864752e-01,2.806112633916312826e-01,2.820936443908538260e-01,8.980228324929373160e-03,-5.038673157881018612e-03,-1.448015700150226126e-01,-2.175629329027629622e-01,4.043653660485543172e-02,1.386538045054965529e-01,2.938675142669030203e-03,-7.270328816265025917e-02,4.185242475004589957e-02,-1.154437858230480517e-03,-1.279468986979909878e-02,-5.675648123921191862e-02,-3.580239078498238803e-02,-1.212237024183435152e-01,-1.143585314316896140e-01,1.454791217480294052e-01,2.294709845043744478e-01,6.009654667485125196e-02,2.223385557599694695e-01,1.291960081339732849e-02,1.184000065978747102e-01,2.167331294731692226e-01,2.440826751962171526e-01,3.288836406356110409e-01,1.853717358449712693e-01,-5.648284153999606760e-02,-5.913089637465735425e-03,8.011226354798549332e-02,-5.101576678838968398e-02,-8.739694516036876359e-02,-2.317069016115028413e-01,-1.969950162693387408e-01,-6.796893320147147366e-02,1.336848550722285478e-01,2.442690057075248139e-02,-3.179691038756252836e-02,1.161181683240877609e-02,-1.676608824383503393e-02,-5.006765937607567801e-02,-5.104574120460106910e-03,-6.425124401955112363e-02,-9.986765644699416300e-02,-4.064214807109504252e-02,1.449288433229977135e-01,2.007886983272758608e-01,3.063104896528816012e-01,3.242452409752702436e-01,6.499172904823133368e-02,1.156154590798108839e-01,1.623220374956731715e-01,3.544177210738552741e-01,1.398533830380007947e-01,8.054589136902337576e-02,-2.640430831454115279e-01,4.536288403668014418e-02,-6.735256705350274598e-02,-2.195885292666873920e-02,2.463357881062697499e-02,-3.394619017811413286e-01,-2.562178290941392045e-01,-3.667387711789070470e-02,1.988830037047942950e-02,8.029206939048649794e-02,-1.383542919046060193e-01,2.105007321872950574e-02,1.025553735700239673e-02,-5.443450086383438968e-02,-4.637145859565909578e-02,-6.626137447622966470e-02,-4.116882099435910380e-02,-1.272508937542887464e-01,-1.300447831579239037e-02,3.036101638202026720e-01,1.965036478161545086e-01,1.213672586394651393e-01,2.615513367182116244e-01,4.541534241465651767e-01,3.987152135291409660e-01,2.878187402296420450e-01,1.215271184194932769e-01,-1.963171829858822159e-01,-3.036274800435849811e-02,2.895655561745271167e-01,1.931905789750817115e-01,1.593867183146768507e-01,3.557959842316561413e-03,-2.166916060148053325e-01,-2.911657418508505901e-01,-2.876736752872915970e-01,-3.229711412188225605e-02,6.300069546880975035e-02,7.355222659549300046e-02,-8.290417736047042685e-02,-1.833941168906522839e-03,2.791541588351006270e-02,-2.733210719521121310e-02,-9.330752516163370869e-02,-1.021024778843523384e-01,-1.540102768912703646e-01,-1.702825626816525939e-01,1.064928537296879890e-01,4.417827116531714698e-02,-8.183798141891973632e-02,6.161732163769206849e-02,3.348784319556153549e-02,2.020684921107744614e-01,2.129579185336794023e-01,-4.362159957719272813e-03,-2.422952039734565244e-01,-1.026874148842912005e-01,6.619484663096521226e-02,1.719019789430683842e-01,2.025628521000651661e-01,9.937421622285001754e-02,-2.680194605050624235e-01,-2.855162719659312121e-01,-3.133887251019740194e-02,-8.963145386609121246e-02,2.751795213688438407e-02,-2.025500745732562377e-02,-1.018147421568447869e-01,-3.824120226789771287e-02,-1.855935791815653546e-02,5.191371677999804396e-02,-3.158591010775729790e-02,-7.414749587101653050e-02,-2.821141317506679069e-01,-4.537081681207396633e-01,-1.179725678337681660e-01,-1.297433793570283156e-01,-2.186078998700844434e-01,-1.006213720029653091e-01,-1.334885747596974703e-01,-4.080352409667018510e-01,-2.799597784521518640e-01,-8.570853501953751286e-02,-5.773515216684568796e-02,-4.947635842223813835e-02,-2.376324665120866098e-01,-6.026570700437854089e-02,1.553568702194803031e-01,-2.024264193815257865e-02,-1.735177201772041267e-01,-9.491560206477114847e-02,-2.239076319621154804e-02,-1.263959549870078553e-02,4.126878351892122182e-02,-6.396721774111582826e-02,-1.184195697215278814e-01,-3.117061881638346146e-02,3.053039309114476824e-02,-4.034425535103617483e-02,-7.855748945315337017e-02,-1.420651731157324404e-01,-2.478029543634176490e-01,-3.682686588134903571e-01,-1.833382787296206629e-01,-3.031823469778767710e-01,-1.130223355530512869e-01,-3.989099704787399392e-01,-4.479110406422451285e-01,-5.482790480501479324e-01,-3.561650011994194065e-01,-3.031858636678747693e-02,6.457230286023334098e-02,-1.596132901282259209e-01,-3.469886806179967587e-01,-2.580706893139099178e-01,6.793544851715975497e-02,-2.726791983736064351e-01,-3.334270411856805061e-01,-1.254182640164855644e-01,-1.292081412395270357e-01,1.269775024524898068e-03,1.083648012902445473e-01,-1.328557012555423300e-01,-1.346053494089604341e-01,-3.068062850500795531e-03,-4.105465840159683300e-02,2.782533700877732816e-02,-9.658256759425261351e-02,-9.120107945555773477e-02,-1.265701347788460163e-01,-1.575835392745831565e-01,-9.454744944243395621e-02,-2.057982413248283515e-01,-1.239296456232042293e-01,-3.280878398143132202e-01,-3.980505536975924574e-01,-1.840132456805486719e-02,2.549793599697519966e-02,-1.100418732994392773e-01,7.718210748195551696e-02,-2.921908654498899804e-01,-3.210939776198041273e-01,-1.408824280427034836e-01,1.123494973755509441e-01,-1.037446578942412961e-01,-1.924426673262132903e-01,-3.625701793036243542e-02,-8.086105187784890791e-02,2.750757135515583679e-02,1.221596871662028044e-01,-2.184932647930949989e-01,-1.455037177784846147e-01,2.192080964987097244e-02,-1.385645984758511473e-02,5.312667179166887660e-02,-6.255929248453503781e-03,-1.784234690767295684e-01,-2.480526930441535327e-01,-1.459460161017033242e-01,-1.603899666132509727e-01,-1.160884280834115351e-01,-2.427302226285142084e-01,-1.777218722502302284e-01,1.611090262587349664e-01,1.284398418380597318e-01,5.016668579605552958e-02,1.664090189462538727e-01,-1.043945993146270929e-01,-3.144438138875615407e-01,-1.290283792919656725e-01,2.669779096519633160e-02,1.394252230767418881e-02,-1.935208996912070878e-01,-1.629483146333360888e-01,-6.259640117542279725e-02,1.109998231910228061e-01,2.567354786344619444e-01,2.603781334918078838e-01,-1.838042744899740302e-02,-1.833478849567389546e-01,-5.917443208574962171e-02,-5.870130497247795509e-02,-2.421819177190070657e-02,-9.605283396816486838e-03,-1.799158285573378147e-01,-9.127950701871312411e-02,-1.422849222702118888e-01,-3.201432402782068698e-02,1.719722410471951901e-01,9.101136607271405332e-02,-1.238434962073569345e-01,-1.398988775210949775e-01,-3.070964031525934557e-01,-3.273620044987859273e-02,-9.926718392141824221e-02,-3.063556532029008128e-01,-2.778430958244813009e-01,-2.903671022731084683e-01,-2.272655933496643341e-02,-1.138119723378276660e-01,-1.028150154061094612e-01,6.006655854493832963e-02,2.589963946584288856e-01,3.281929980138201808e-01,2.856757925455809533e-01,7.480338244114142533e-03,-2.398419016922991309e-01,-2.287239267690970856e-01,4.205435117222266345e-02,2.476295499337314437e-02,1.860516290897944180e-03,-5.498559472281376419e-03,-9.979260775677642470e-02,-3.042121334619588349e-02,-1.902791987925196368e-02,2.006852675371993966e-01,2.246007122812908319e-01,1.589049599958924364e-01,-2.704753802103174523e-02,6.183682468359592843e-02,2.456932566878198068e-02,4.100720182066833891e-02,6.315350384072779266e-02,-4.481182635263545461e-02,-1.812127877668060216e-01,-1.303578414305714139e-01,-2.032053296440071155e-01,-7.950794739569000402e-02,8.444878074916552235e-02,1.769247393798644707e-01,2.154756504096982384e-01,1.573905889963363725e-01,1.794565081648431815e-01,-2.054832242805695042e-01,-2.012255807366592764e-01,-1.295838108637137331e-01,2.598925935200853757e-02,1.830231740068916785e-02,5.822169811543106283e-02,3.238252580457871843e-02,-5.056505024409672922e-02,-3.046037822255914969e-03,5.439464478021382304e-02,-9.162209025170885146e-02,8.583204329510102371e-02,-7.420283087929417654e-02,-1.324284007624232928e-01,-1.614254898594504606e-01,-6.424804012270436682e-02,-1.689594742436520136e-01,-2.661820680188721755e-01,-1.381647893396717730e-01,-2.495225825527585539e-01,-3.707387896079552408e-02,-1.143821882890851266e-01,-1.953717837409959246e-01,6.794199324149180486e-02,3.979264225708676467e-02,1.507796509734298518e-01,-1.138234627313576639e-03,-8.499566645232117801e-02,4.975643709423824778e-05,-8.364972467729461791e-02,-5.370496833471784942e-02,-5.200190403535171141e-05,1.332648617807401237e-03,2.944301708308579707e-02,-3.335110003467581241e-02,-4.890163233316675850e-02,-7.936775186119697512e-02,5.888015169036779628e-02,1.493513982152859521e-01,3.317031999906218109e-01,3.637209681271548478e-02,-1.062059111920403837e-01,-3.141243743834660207e-01,-2.417295973543371335e-01,-2.792883081692230651e-01,-1.794880091369251141e-01,-7.216160355541002824e-02,-2.500927299469712373e-01,6.425468156338728573e-03,-1.767281421803587049e-01,-2.634211237062484834e-01,-1.226115128466250676e-01,8.464147834009456972e-03,-1.862823053915102153e-02,-6.289933553206056294e-02,-1.231368903605278148e-01,-8.701209061911350726e-03,-2.363031415908145860e-01,-1.208233904798399205e-01,-1.167731146965812206e-01,2.835113335170207777e-02,2.574303700151941293e-02,-3.874439216395993146e-02,-4.921858838007663745e-02,-4.950449393401609027e-02,1.043714344341977740e-01,1.383388510759082091e-01,2.336474328402380618e-01,1.061762628488395060e-01,-6.220228672832592981e-02,-1.544235562961607244e-01,-1.827314486010747641e-01,-6.300437945349579745e-03,-1.402213480303879378e-01,8.514394714857595470e-02,7.921302097041697798e-02,6.872899739531811159e-02,4.092317030389378690e-02,1.734092887897878965e-01,3.362658514419423345e-02,2.058902137995964957e-02,8.238450243113003280e-02,2.533884593381672753e-02,3.331952798186736675e-02,1.029805834234823712e-02,-1.425063984332944345e-01,-4.327954911738318006e-02,-5.765410711711408537e-02,2.881041741282931723e-03,1.584685478873335690e-02,1.748978802372057675e-02,-2.380821695019281689e-02,-2.259607148950701881e-03,1.426202134128855548e-01,2.503404614599376021e-01,1.962803368682199401e-01,3.693630445277266278e-02,-1.537571926073565652e-02,-1.072572756002796307e-01,-4.060115476189742056e-02,-6.822921473207936571e-02,4.252563125751133294e-02,1.171873997627236874e-01,1.253368639920026395e-01,3.354750695257370519e-02,6.016290283955422896e-02,1.841733534069809122e-02,6.328739430170969918e-03,-6.587930405597031136e-02,-3.018385597113763547e-03,-5.027170787749070391e-02,1.752337401172008036e-01,1.127747780050351728e-01,-9.701669710304422489e-02,9.471816628539806229e-03,2.395607875962755141e-03,4.699482342727700351e-02,4.404915497155901388e-02,2.439363751421367785e-02,-6.968227330541895692e-02,-2.850766396340427208e-02,1.271546146728338988e-01,2.293264416581112242e-01,2.139642861710326638e-01,2.363504251203871198e-02,4.975687865078294581e-02,4.696469340898286153e-03,-6.496609120757319833e-02,-3.018429972065854103e-02,6.019929635400256968e-02,1.409993430356610289e-01,1.172152233732937782e-01,9.577191999999805708e-03,-1.351415968424798074e-02,5.537365948027030832e-02,2.373926655605339275e-02,1.201659332540050418e-01,4.850345760699063813e-02,-6.855496656214736181e-03,1.349022628242208255e-01,6.145130822817768124e-02,4.839191160705965528e-02,2.899666317596253512e-03,-2.326737994989884484e-03,-3.953788833405215419e-02,-7.390361631908690110e-03,-4.619170785837274640e-02,6.458590496583694468e-03,-3.125405307088650192e-02,1.670378344921402691e-01,2.206262099328831772e-01,2.757582057433546341e-01,8.770531232928555077e-02,9.371069707695307838e-02,4.484093328126142336e-02,-2.527173809940984617e-01,-2.892005365612057566e-01,-2.741134697562876976e-01,-1.459650674602941400e-01,2.370602367786298764e-02,-6.882657875825830274e-02,-2.771576564007179402e-02,1.684865415945552558e-01,8.752780048219120645e-02,5.273989633499282653e-02,-3.447599778834530004e-02,4.731876263048891140e-02,4.572847700851073900e-03,7.359392824896104912e-02,3.563744550281787438e-02,-4.508140212602561314e-03,-8.695831952309995838e-03,1.059588476832184351e-02,-2.332453450771763276e-02,4.180666242893306406e-02,-9.347247396350536960e-03,3.448166421894632155e-02,7.808389122261438775e-02,1.625526045123169006e-01,2.630926594500021531e-01,6.328572084364235406e-02,-2.382064921380591324e-02,7.873404900658925731e-02,-1.046935820095920913e-02,-8.264550986426015544e-02,-1.793529619781065454e-01,-1.664894615984713611e-01,9.473540642944765916e-03,-1.251524816724265410e-01,-1.103180008845068838e-01,3.023628571796979289e-02,6.329145877544524457e-02,5.989696128363464905e-02,4.726931592691149125e-02,-2.170225834737803464e-02,-2.848194032712900864e-02,-4.274715125575070246e-02,-2.842364511552476769e-02,3.333087234663998505e-02,-2.169000475054227300e-02,4.694830487387968015e-02,4.501547214450059980e-02,-2.775178017417869597e-02,-1.395151608585628450e-02,4.388270497660548553e-02,3.936543112262579081e-02,3.099105024997270488e-02,8.109350960979863632e-02,3.317635560236138065e-03,5.539711045371212977e-02,8.126251626630420777e-02,4.727657022377845103e-02,-2.464182669696381167e-02,-6.122741829251618362e-02,-4.621019716345724226e-02,2.447975942785330164e-02,1.114455281438875289e-02,2.300196578603723539e-03,-1.764092128508133045e-02,-7.150363341214979957e-04,3.967742070187031678e-02,3.870646456787844164e-02,-3.756841303628019602e-02,-6.859611555675827754e-02,1.162885343401617476e-03,-5.117779611569207160e-02,-4.383091072967942869e-03,-4.288445454196510020e-02,-3.264051476364041027e-02,-2.503880461870704871e-02,4.943355462533804284e-02,-3.741307531753126914e-03,2.674078776810615704e-02,-1.021308315990273295e-02,7.748978990342765549e-02,3.200484975010135097e-02,3.422660634818590168e-03,7.444310030084739377e-03,8.122029351866917601e-02,-1.331942116576755562e-02,-3.051311274745678159e-03,2.199776330481668235e-02,1.350083924543920774e-02,1.534357439980266538e-02,-4.196447536368973219e-02,-5.399321811131062299e-02,9.568588170521124397e-03,-4.322263802971602203e-02,4.088387726521389154e-02,2.989199230532241583e-02,-5.520609879109637103e-02,9.040800293073601723e-03,-4.382475361556492643e-02,5.905133099491218646e-02,-4.763972344321770747e-03,2.259905643856310181e-02,-1.639388209222225612e-02,-2.827043737501692272e-02,3.421218005630998621e-02,-1.763639630187324031e-02,2.371843536267105590e-03,-8.120219495134896326e-03,1.417157372923810200e-02,2.650512044239497489e-02,-2.097283518297260452e-02,-5.232281290548584235e-02,5.289748872244718486e-02,5.031900692997070407e-02,-2.418989235207277128e-02,5.250995804404131467e-02,-2.557648359323561743e-02,2.599421253046729774e-02,-3.341054055183783483e-02,-4.609642431541839669e-02,4.312274487483411245e-02,5.409932909877263052e-02,-5.878553214775462249e-02,6.367034508146941774e-03,-3.904550686206033350e-02,7.018486051523505076e-03,2.046544965828677592e-02,-1.210343524765712664e-03,-3.601352318257619589e-02,2.937187529823111903e-02,2.221116119953491647e-02
